{"learner":{"attributes":{"scikit_learn":"{\"_estimator_type\": \"classifier\"}"},"feature_names":[],"feature_types":[],"gradient_booster":{"model":{"cats":{"enc":[],"feature_segments":[],"sorted_idx":[]},"gbtree_model_param":{"num_parallel_tree":"1","num_trees":"500"},"iteration_indptr":[0,1,2,3,4,5,6,7,8,9,10,11,12,13,14,15,16,17,18,19,20,21,22,23,24,25,26,27,28,29,30,31,32,33,34,35,36,37,38,39,40,41,42,43,44,45,46,47,48,49,50,51,52,53,54,55,56,57,58,59,60,61,62,63,64,65,66,67,68,69,70,71,72,73,74,75,76,77,78,79,80,81,82,83,84,85,86,87,88,89,90,91,92,93,94,95,96,97,98,99,100,101,102,103,104,105,106,107,108,109,110,111,112,113,114,115,116,117,118,119,120,121,122,123,124,125,126,127,128,129,130,131,132,133,134,135,136,137,138,139,140,141,142,143,144,145,146,147,148,149,150,151,152,153,154,155,156,157,158,159,160,161,162,163,164,165,166,167,168,169,170,171,172,173,174,175,176,177,178,179,180,181,182,183,184,185,186,187,188,189,190,191,192,193,194,195,196,197,198,199,200,201,202,203,204,205,206,207,208,209,210,211,212,213,214,215,216,217,218,219,220,221,222,223,224,225,226,227,228,229,230,231,232,233,234,235,236,237,238,239,240,241,242,243,244,245,246,247,248,249,250,251,252,253,254,255,256,257,258,259,260,261,262,263,264,265,266,267,268,269,270,271,272,273,274,275,276,277,278,279,280,281,282,283,284,285,286,287,288,289,290,291,292,293,294,295,296,297,298,299,300,301,302,303,304,305,306,307,308,309,310,311,312,313,314,315,316,317,318,319,320,321,322,323,324,325,326,327,328,329,330,331,332,333,334,335,336,337,338,339,340,341,342,343,344,345,346,347,348,349,350,351,352,353,354,355,356,357,358,359,360,361,362,363,364,365,366,367,368,369,370,371,372,373,374,375,376,377,378,379,380,381,382,383,384,385,386,387,388,389,390,391,392,393,394,395,396,397,398,399,400,401,402,403,404,405,406,407,408,409,410,411,412,413,414,415,416,417,418,419,420,421,422,423,424,425,426,427,428,429,430,431,432,433,434,435,436,437,438,439,440,441,442,443,444,445,446,447,448,449,450,451,452,453,454,455,456,457,458,459,460,461,462,463,464,465,466,467,468,469,470,471,472,473,474,475,476,477,478,479,480,481,482,483,484,485,486,487,488,489,490,491,492,493,494,495,496,497,498,499,500],"tree_info":[0,0,0,0,0,0,0,0,0,0,0,0,0,0,0,0,0,0,0,0,0,0,0,0,0,0,0,0,0,0,0,0,0,0,0,0,0,0,0,0,0,0,0,0,0,0,0,0,0,0,0,0,0,0,0,0,0,0,0,0,0,0,0,0,0,0,0,0,0,0,0,0,0,0,0,0,0,0,0,0,0,0,0,0,0,0,0,0,0,0,0,0,0,0,0,0,0,0,0,0,0,0,0,0,0,0,0,0,0,0,0,0,0,0,0,0,0,0,0,0,0,0,0,0,0,0,0,0,0,0,0,0,0,0,0,0,0,0,0,0,0,0,0,0,0,0,0,0,0,0,0,0,0,0,0,0,0,0,0,0,0,0,0,0,0,0,0,0,0,0,0,0,0,0,0,0,0,0,0,0,0,0,0,0,0,0,0,0,0,0,0,0,0,0,0,0,0,0,0,0,0,0,0,0,0,0,0,0,0,0,0,0,0,0,0,0,0,0,0,0,0,0,0,0,0,0,0,0,0,0,0,0,0,0,0,0,0,0,0,0,0,0,0,0,0,0,0,0,0,0,0,0,0,0,0,0,0,0,0,0,0,0,0,0,0,0,0,0,0,0,0,0,0,0,0,0,0,0,0,0,0,0,0,0,0,0,0,0,0,0,0,0,0,0,0,0,0,0,0,0,0,0,0,0,0,0,0,0,0,0,0,0,0,0,0,0,0,0,0,0,0,0,0,0,0,0,0,0,0,0,0,0,0,0,0,0,0,0,0,0,0,0,0,0,0,0,0,0,0,0,0,0,0,0,0,0,0,0,0,0,0,0,0,0,0,0,0,0,0,0,0,0,0,0,0,0,0,0,0,0,0,0,0,0,0,0,0,0,0,0,0,0,0,0,0,0,0,0,0,0,0,0,0,0,0,0,0,0,0,0,0,0,0,0,0,0,0,0,0,0,0,0,0,0,0,0,0,0,0,0,0,0,0,0,0,0,0,0,0,0,0,0,0,0,0,0,0,0,0,0,0,0,0,0,0,0,0,0,0,0,0,0,0,0,0,0,0,0,0,0,0,0,0,0,0,0,0,0,0,0,0,0,0,0,0,0,0,0,0,0,0,0,0,0,0,0,0,0,0,0],"trees":[{"base_weights":[1.9114107E-2,9.9876404E-2,-7.826737E-1,-1.1891849E0,3.2555658E-1,-1.378658E0,-1.0376077E0,-1.4244787E0,3.6075038E-1,-1.5382066E0,-1.1964353E0,-1.1287849E0,8.767742E-1,-9.259259E-2,2.9791823E-2,3.4347188E-1,1.2141687E0,-1.6432202E0,-1.4339807E0,-7.1773833E-1,-1.2269108E0,-1.2581952E0,-1.0564818E0,4.4400948E-1,1.4507637E0,3.3104926E-1,9.971069E-1,4.663336E-1,1.4572196E0,-8.425409E-2,-4.0574204E-2,-6.6093825E-2,-8.339056E-2,-9.02439E-2,-7.0341164E-3,-8.706155E-2,-5.7821263E-2,-4.92082E-2,-7.119878E-2,-4.070809E-2,-5.7188135E-2,-6.0000002E-2,2.7943118E-2,1.6854418E-2,7.529623E-2,2.3071427E-2,1.3008346E-2,7.210634E-3,6.2436994E-2,6.2180977E-2,-5.555556E-2,8.233914E-2,2.9791823E-2],"categories":[],"categories_nodes":[],"categories_segments":[],"categories_sizes":[],"default_left":[0,0,0,0,0,0,0,0,0,0,0,0,0,0,0,0,0,0,0,0,0,0,0,0,0,0,0,0,0,0,0,0,0,0,0,0,0,0,0,0,0,0,0,0,0,0,0,0,0,0,0,0,0],"id":0,"left_children":[1,-1,3,5,7,9,11,13,15,17,19,21,23,-1,-1,25,27,29,31,33,35,37,39,41,43,45,47,49,51,-1,-1,-1,-1,-1,-1,-1,-1,-1,-1,-1,-1,-1,-1,-1,-1,-1,-1,-1,-1,-1,-1,-1,-1],"loss_changes":[6.675324E3,0E0,1.349479E3,6.1499268E1,5.006005E1,2.6384033E1,2.1417505E2,1.4970783E1,1.12230835E1,3.2705078E0,5.79657E0,9.58313E0,1.3288353E1,0E0,0E0,5.96373E0,2.096037E0,7.3102417E0,4.7647705E0,1.8443462E1,1.3534668E1,1.7351868E1,1.5025635E1,6.9808264E0,9.464035E-1,6.923477E0,2.815875E0,7.777587E0,8.237896E-1,0E0,0E0,0E0,0E0,0E0,0E0,0E0,0E0,0E0,0E0,0E0,0E0,0E0,0E0,0E0,0E0,0E0,0E0,0E0,0E0,0E0,0E0,0E0,0E0],"parents":[2147483647,0,0,2,2,3,3,4,4,5,5,6,6,7,7,8,8,9,9,10,10,11,11,12,12,15,15,16,16,17,17,18,18,19,19,20,20,21,21,22,22,23,23,24,24,25,25,26,26,27,27,28,28],"right_children":[2,-1,4,6,8,10,12,14,16,18,20,22,24,-1,-1,26,28,30,32,34,36,38,40,42,44,46,48,50,52,-1,-1,-1,-1,-1,-1,-1,-1,-1,-1,-1,-1,-1,-1,-1,-1,-1,-1,-1,-1,-1,-1,-1,-1],"split_conditions":[1E0,9.9876404E-2,4E0,3E0,1E0,2.8890654E-1,-1.7175409E-1,3E0,2.886086E0,-1.274878E-2,-9.315345E-1,-6.5174925E-1,-7.057605E-2,-9.259259E-2,2.9791823E-2,4.3713183E0,-5.3656733E-1,2.4863966E0,1.525736E-1,-1.005233E0,-6.7631984E-1,-7.908006E-1,-4.3136406E-1,-8.793135E-1,-4.579379E-1,-2.518335E-1,-4.9478453E-1,3.1835303E0,1E0,-8.425409E-2,-4.0574204E-2,-6.6093825E-2,-8.339056E-2,-9.02439E-2,-7.0341164E-3,-8.706155E-2,-5.7821263E-2,-4.92082E-2,-7.119878E-2,-4.070809E-2,-5.7188135E-2,-6.0000002E-2,2.7943118E-2,1.6854418E-2,7.529623E-2,2.3071427E-2,1.3008346E-2,7.210634E-3,6.2436994E-2,6.2180977E-2,-5.555556E-2,8.233914E-2,2.9791823E-2],"split_indices":[7,0,7,7,6,0,0,3,0,0,1,0,0,0,0,1,1,1,0,1,1,0,1,1,1,1,0,0,3,0,0,0,0,0,0,0,0,0,0,0,0,0,0,0,0,0,0,0,0,0,0,0,0],"split_type":[0,0,0,0,0,0,0,0,0,0,0,0,0,0,0,0,0,0,0,0,0,0,0,0,0,0,0,0,0,0,0,0,0,0,0,0,0,0,0,0,0,0,0,0,0,0,0,0,0,0,0,0,0],"sum_hessian":[4.2062085E3,1.2126066E3,2.9936018E3,2.1901555E3,8.034464E2,9.697996E2,1.2203558E3,1.5060839E1,7.8838556E2,5.1310223E2,4.5669736E2,1.1652675E3,5.5088455E1,1.25E1,2.5608387E0,7.741151E2,1.42704525E1,2.4823007E2,2.648722E2,2.8804193E1,4.2789316E2,4.1180524E2,7.534622E2,3.2419228E1,2.2669228E1,7.611555E2,1.2959614E1,4.216258E0,1.0054194E1,2.3535838E2,1.2871677E1,1.8353426E2,8.133794E1,9.25E0,1.9554193E1,4.871626E1,3.791769E2,1.5783846E2,2.5396678E2,2.0225768E2,5.512045E2,1.5E0,3.0919228E1,1.4054193E0,2.1263807E1,2.6613092E2,4.950246E2,3.3108387E0,9.648775E0,2.9662583E0,1.25E0,7.4933553E0,2.5608387E0],"tree_param":{"num_deleted":"0","num_feature":"8","num_nodes":"53","size_leaf_vector":"1"}},{"base_weights":[1.911777E-2,9.516847E-2,-7.319182E-1,-1.1219636E0,3.4030718E-1,-1.306671E0,-9.736952E-1,4.61806E-1,2.7345085E-1,-1.1836498E0,-1.3899568E0,-9.069021E-1,-1.1885488E0,2.274575E-1,5.26939E-1,2.1056114E-1,5.5437344E-1,-1.3457649E0,-9.8365265E-1,-1.3442498E0,-1.7317983E0,-9.3345267E-1,-2.9039004E-1,-1.2713703E0,-7.80469E-1,3.7292805E-1,-1.1344893E0,8.994056E-1,4.6538952E-1,3.0340472E-1,-3.174859E-2,8.194112E-1,2.3352833E-1,-6.95785E-2,-5.3694423E-2,-5.719788E-3,-5.3262677E-2,-6.607004E-2,-9.234753E-2,-9.1725156E-2,-1.5058025E-2,-4.0557373E-2,-5.1640105E-2,-2.130981E-2,2.1864552E-2,-6.780746E-2,-5.102346E-2,-4.072314E-2,7.5634937E-3,1.2965235E-2,6.586171E-2,-7.3552035E-2,-2.3945156E-2,2.209702E-2,6.4484715E-2,6.4670877E-3,2.5186887E-2,-2.6627978E-2,1.6323272E-2,-3.455585E-2,4.1720327E-3,2.3118291E-2,5.6367483E-2,2.0485466E-2,-2.677773E-2],"categories":[],"categories_nodes":[],"categories_segments":[],"categories_sizes":[],"default_left":[0,0,0,0,0,0,0,0,0,0,0,0,0,0,0,0,0,0,0,0,0,0,0,0,0,0,0,0,0,0,0,0,0,0,0,0,0,0,0,0,0,0,0,0,0,0,0,0,0,0,0,0,0,0,0,0,0,0,0,0,0,0,0,0,0],"id":1,"left_children":[1,-1,3,5,7,9,11,13,15,17,19,21,23,25,27,29,31,33,35,37,39,41,43,45,47,49,51,53,55,57,59,61,63,-1,-1,-1,-1,-1,-1,-1,-1,-1,-1,-1,-1,-1,-1,-1,-1,-1,-1,-1,-1,-1,-1,-1,-1,-1,-1,-1,-1,-1,-1,-1,-1],"loss_changes":[5.9875796E3,0E0,1.2656029E3,5.9485596E1,6.4348755E0,8.446655E0,1.6639404E1,4.2341423E0,9.131634E0,1.1786682E1,6.7592773E0,1.5214172E1,8.794434E0,1.3062811E1,4.681183E0,9.668375E0,7.899109E0,1.2529907E0,1.298262E1,3.5032349E0,9.016388E0,1.0177307E1,4.1897907E0,3.7024536E0,1.7525921E0,5.9237556E0,7.084904E-1,4.871069E0,2.4217224E0,6.1596107E0,9.159723E0,5.1634445E0,6.240685E0,0E0,0E0,0E0,0E0,0E0,0E0,0E0,0E0,0E0,0E0,0E0,0E0,0E0,0E0,0E0,0E0,0E0,0E0,0E0,0E0,0E0,0E0,0E0,0E0,0E0,0E0,0E0,0E0,0E0,0E0,0E0,0E0],"parents":[2147483647,0,0,2,2,3,3,4,4,5,5,6,6,7,7,8,8,9,9,10,10,11,11,12,12,13,13,14,14,15,15,16,16,17,17,18,18,19,19,20,20,21,21,22,22,23,23,24,24,25,25,26,26,27,27,28,28,29,29,30,30,31,31,32,32],"right_children":[2,-1,4,6,8,10,12,14,16,18,20,22,24,26,28,30,32,34,36,38,40,42,44,46,48,50,52,54,56,58,60,62,64,-1,-1,-1,-1,-1,-1,-1,-1,-1,-1,-1,-1,-1,-1,-1,-1,-1,-1,-1,-1,-1,-1,-1,-1,-1,-1,-1,-1,-1,-1,-1,-1],"split_conditions":[1E0,9.516847E-2,4E0,3E0,-2.2588842E-1,-1.4490938E-1,1.9042394E-1,-8.287471E-1,6.410539E-1,-5.6314117E-1,2E0,1.1195998E-1,2E0,-8.462865E-1,-7.595161E-1,1.2188794E-1,2E0,2E0,-5.3656733E-1,3.1105342E0,4.9480667E0,2E0,4E0,1E0,5.658511E0,-8.579684E-1,2E0,1E0,-7.05839E-1,-1.8061693E-1,2.1319205E-1,1E0,3E0,-6.95785E-2,-5.3694423E-2,-5.719788E-3,-5.3262677E-2,-6.607004E-2,-9.234753E-2,-9.1725156E-2,-1.5058025E-2,-4.0557373E-2,-5.1640105E-2,-2.130981E-2,2.1864552E-2,-6.780746E-2,-5.102346E-2,-4.072314E-2,7.5634937E-3,1.2965235E-2,6.586171E-2,-7.3552035E-2,-2.3945156E-2,2.209702E-2,6.4484715E-2,6.4670877E-3,2.5186887E-2,-2.6627978E-2,1.6323272E-2,-3.455585E-2,4.1720327E-3,2.3118291E-2,5.6367483E-2,2.0485466E-2,-2.677773E-2],"split_indices":[7,0,7,7,1,1,1,1,1,1,7,1,4,1,1,1,5,4,1,1,1,5,3,3,1,1,5,2,1,1,1,2,3,0,0,0,0,0,0,0,0,0,0,0,0,0,0,0,0,0,0,0,0,0,0,0,0,0,0,0,0,0,0,0,0],"split_type":[0,0,0,0,0,0,0,0,0,0,0,0,0,0,0,0,0,0,0,0,0,0,0,0,0,0,0,0,0,0,0,0,0,0,0,0,0,0,0,0,0,0,0,0,0,0,0,0,0,0,0,0,0,0,0,0,0,0,0,0,0,0,0,0,0],"sum_hessian":[4.2290996E3,1.2048224E3,3.0242773E3,2.217549E3,8.067283E2,9.8395734E2,1.2335917E3,2.8424997E2,5.224783E2,4.0336285E2,5.805945E2,9.450257E2,2.8856595E2,6.279732E1,2.2145264E2,4.2833673E2,9.414155E1,2.1961601E2,1.8374686E2,5.164705E2,6.412393E1,9.0551495E2,3.9510773E1,2.3812251E2,5.0443417E1,5.7393284E1,5.404039E0,2.9474562E1,1.9197807E2,3.0949738E2,1.1883937E2,5.0703457E1,4.343809E1,1.8442596E2,3.519004E1,1.5974927E1,1.6777193E2,4.974871E2,1.8983429E1,5.956546E1,4.5584745E0,4.0997516E2,4.955398E2,3.364581E1,5.8649626E0,1.7469008E2,6.343245E1,4.878924E1,1.6541728E0,5.2366856E1,5.026428E0,2.748973E0,2.655066E0,1.4551178E1,1.4923384E1,2.0111603E1,1.7186647E2,7.7154074E0,3.0178195E2,1.6929781E1,1.0190959E2,2.4637959E1,2.6065498E1,3.572216E1,7.715932E0],"tree_param":{"num_deleted":"0","num_feature":"8","num_nodes":"65","size_leaf_vector":"1"}},{"base_weights":[-6.0434877E-3,9.1017745E-2,-7.06114E-1,-1.0880998E0,3.2915786E-1,-1.273228E0,-9.4118464E-1,3.100269E-1,1.1914226E0,-1.3893975E0,-1.1374197E0,-1.0203031E0,9.709819E-1,-2.4109851E-1,3.3538136E-1,8.030461E-1,7.4053526E-2,-1.2533352E0,-1.4714711E0,-4.873785E-1,-1.1840048E0,-9.632909E-1,-1.1174289E0,2.5965276E-1,1.3595132E0,5.679447E-2,-6.6557366E-1,2.9942018E-1,5.734157E-1,1.1604537E0,9.6128255E-2,-6.581156E-2,-3.5959955E-2,-7.465655E-2,-5.424731E-2,-6.861197E-2,-1.0029834E-4,-8.053627E-2,-5.5199135E-2,-4.894678E-2,-2.134133E-2,3.4423985E-3,-5.6639012E-2,2.019648E-2,-2.224686E-2,3.953696E-2,7.3426016E-2,-1.6061826E-2,4.7290422E-2,-5.1636852E-2,-1.699939E-3,1.780466E-2,-9.826458E-3,3.21453E-2,-4.453961E-2,6.745433E-2,1.4768089E-2,-1.3259674E-2,2.8997129E-2],"categories":[],"categories_nodes":[],"categories_segments":[],"categories_sizes":[],"default_left":[0,0,0,0,0,0,0,0,0,0,0,0,0,0,0,0,0,0,0,0,0,0,0,0,0,0,0,0,0,0,0,0,0,0,0,0,0,0,0,0,0,0,0,0,0,0,0,0,0,0,0,0,0,0,0,0,0,0,0],"id":2,"left_children":[1,-1,3,5,7,9,11,13,15,17,19,21,23,25,27,29,-1,31,33,35,37,39,41,43,45,47,49,51,53,55,57,-1,-1,-1,-1,-1,-1,-1,-1,-1,-1,-1,-1,-1,-1,-1,-1,-1,-1,-1,-1,-1,-1,-1,-1,-1,-1,-1,-1],"loss_changes":[5.331909E3,0E0,1.1924995E3,5.870044E1,1.3046272E1,1.3748169E1,1.8733374E2,1.12173E1,7.568073E-1,3.953003E0,1.3154419E1,5.475708E0,1.331403E1,4.5436153E0,6.3538895E0,2.307662E0,0E0,5.842041E0,1.0429688E0,1.3750612E1,1.2646301E1,5.900696E0,7.9344482E0,2.081199E0,8.070679E-1,7.650526E0,3.390705E0,1.8743507E1,1.0641884E1,6.2459755E-1,9.064858E-1,0E0,0E0,0E0,0E0,0E0,0E0,0E0,0E0,0E0,0E0,0E0,0E0,0E0,0E0,0E0,0E0,0E0,0E0,0E0,0E0,0E0,0E0,0E0,0E0,0E0,0E0,0E0,0E0],"parents":[2147483647,0,0,2,2,3,3,4,4,5,5,6,6,7,7,8,8,9,9,10,10,11,11,12,12,13,13,14,14,15,15,17,17,18,18,19,19,20,20,21,21,22,22,23,23,24,24,25,25,26,26,27,27,28,28,29,29,30,30],"right_children":[2,-1,4,6,8,10,12,14,16,18,20,22,24,26,28,30,-1,32,34,36,38,40,42,44,46,48,50,52,54,56,58,-1,-1,-1,-1,-1,-1,-1,-1,-1,-1,-1,-1,-1,-1,-1,-1,-1,-1,-1,-1,-1,-1,-1,-1,-1,-1,-1,-1],"split_conditions":[1E0,9.1017745E-2,4E0,3E0,2.886086E0,2.8890654E-1,-1.6320403E-1,-8.034522E-1,-1.4371802E-1,-1.7323716E-1,-9.315345E-1,-1.4371802E-1,-1.0143844E-1,-8.161738E-1,6.176239E-1,1E0,7.4053526E-2,-2.518335E-1,2.4863966E0,-1.005233E0,-5.800187E-1,-2.1652015E-1,-8.3002204E-1,6.410539E-1,-2.6252258E-1,-8.205304E-1,-8.070276E-1,2.6283184E-1,1.2382159E0,-6.986247E-1,-4.4800994E-1,-6.581156E-2,-3.5959955E-2,-7.465655E-2,-5.424731E-2,-6.861197E-2,-1.0029834E-4,-8.053627E-2,-5.5199135E-2,-4.894678E-2,-2.134133E-2,3.4423985E-3,-5.6639012E-2,2.019648E-2,-2.224686E-2,3.953696E-2,7.3426016E-2,-1.6061826E-2,4.7290422E-2,-5.1636852E-2,-1.699939E-3,1.780466E-2,-9.826458E-3,3.21453E-2,-4.453961E-2,6.745433E-2,1.4768089E-2,-1.3259674E-2,2.8997129E-2],"split_indices":[7,0,7,7,0,0,0,0,1,1,1,1,0,0,1,2,0,1,1,1,1,0,0,1,1,0,0,1,0,1,1,0,0,0,0,0,0,0,0,0,0,0,0,0,0,0,0,0,0,0,0,0,0,0,0,0,0,0,0],"split_type":[0,0,0,0,0,0,0,0,0,0,0,0,0,0,0,0,0,0,0,0,0,0,0,0,0,0,0,0,0,0,0,0,0,0,0,0,0,0,0,0,0,0,0,0,0,0,0,0,0,0,0,0,0,0,0,0,0,0,0],"sum_hessian":[4.168085E3,1.1545098E3,3.0135752E3,2.2013052E3,8.1226996E2,9.705921E2,1.2307131E3,7.959694E2,1.6300507E1,5.1814465E2,4.5244745E2,1.1822618E3,4.8451294E1,3.4633686E1,7.6133575E2,8.575062E0,7.7254443E0,2.0107373E2,3.1707095E2,3.1022757E1,4.2142468E2,7.518485E2,4.304133E2,1.7705E1,3.0746296E1,2.0860304E1,1.377338E1,6.63374E2,9.796174E1,5.2693734E0,3.3056889E0,1.7858113E2,2.249259E1,2.9753485E2,1.9536112E1,1.0341834E1,2.0680923E1,6.3528473E1,3.578962E2,7.2974255E2,2.2105976E1,5.454205E0,4.2495908E2,1.5049977E1,2.6550229E0,6.272397E0,2.4473898E1,1.508461E1,5.775694E0,8.308241E0,5.4651394E0,5.955962E2,6.777785E1,9.405869E1,3.9030416E0,3.8667567E0,1.4026169E0,2.151086E0,1.1546026E0],"tree_param":{"num_deleted":"0","num_feature":"8","num_nodes":"59","size_leaf_vector":"1"}},{"base_weights":[1.4931862E-3,8.7443344E-2,-6.8228954E-1,-1.0280924E0,2.51204E-1,-1.2054505E0,-8.862865E-1,-1.0239022E0,2.791837E-1,-1.3935664E0,-1.0870394E0,-9.668554E-1,8.3886343E-1,-1.3253919E0,3.0892628E-1,2.6155606E-1,1.1005949E0,-1.1603066E0,-1.4840134E0,-1.0674874E0,-8.542352E-2,-5.904695E-1,-9.929969E-1,2.7906254E-1,1.3147455E0,-8.751371E-2,-3.8440144E-1,3.148565E-2,-1.7763257E-3,2.2496349E-1,5.3550833E-1,-1.36154145E-2,6.636755E-2,-6.850433E-2,-3.8296327E-2,-7.7229165E-2,-6.344522E-2,-5.1999457E-2,-7.291644E-2,-5.573687E-2,-4.5248805E-4,-5.910589E-2,-4.754732E-2,-5.8076877E-2,2.0596933E-2,2.9990781E-2,7.01318E-2,1.42815625E-2,-6.169867E-2,1.3585001E-2,3.816627E-4,-6.932059E-2,2.9993823E-2],"categories":[],"categories_nodes":[],"categories_segments":[],"categories_sizes":[],"default_left":[0,0,0,0,0,0,0,0,0,0,0,0,0,0,0,0,0,0,0,0,0,0,0,0,0,0,0,0,0,0,0,0,0,0,0,0,0,0,0,0,0,0,0,0,0,0,0,0,0,0,0,0,0],"id":3,"left_children":[1,-1,3,5,7,9,11,13,15,17,19,21,23,25,27,29,31,33,35,37,-1,39,41,43,45,-1,47,-1,-1,49,51,-1,-1,-1,-1,-1,-1,-1,-1,-1,-1,-1,-1,-1,-1,-1,-1,-1,-1,-1,-1,-1,-1],"loss_changes":[4.9762314E3,0E0,9.665531E2,5.3872314E1,2.918251E1,2.0042969E1,1.7006152E2,7.4838963E0,1.1199406E1,6.0908203E0,5.447937E0,1.0864746E1,1.4249653E1,5.1431007E0,4.7084323E-1,7.67857E0,5.453272E0,7.890259E0,1.4701538E0,4.747986E0,0E0,2.3780836E1,7.5185547E0,5.5473404E0,1.0052185E0,0E0,3.657743E0,0E0,0E0,6.986534E0,1.2082981E1,0E0,0E0,0E0,0E0,0E0,0E0,0E0,0E0,0E0,0E0,0E0,0E0,0E0,0E0,0E0,0E0,0E0,0E0,0E0,0E0,0E0,0E0],"parents":[2147483647,0,0,2,2,3,3,4,4,5,5,6,6,7,7,8,8,9,9,10,10,11,11,12,12,13,13,14,14,15,15,16,16,17,17,18,18,19,19,21,21,22,22,23,23,24,24,26,26,29,29,30,30],"right_children":[2,-1,4,6,8,10,12,14,16,18,20,22,24,26,28,30,32,34,36,38,-1,40,42,44,46,-1,48,-1,-1,50,52,-1,-1,-1,-1,-1,-1,-1,-1,-1,-1,-1,-1,-1,-1,-1,-1,-1,-1,-1,-1,-1,-1],"split_conditions":[1E0,8.7443344E-2,4E0,3E0,1E0,9.040717E-2,-1.7175409E-1,4.5576516E-1,2.886086E0,-4.3933952E-1,1.7889575E0,-9.009234E-1,-1.0143844E-1,-8.873726E-2,-5.0000113E-1,6.6997737E-1,1E0,2E0,3.6724088E-1,2E0,-8.542352E-2,-9.628738E-1,-4.7647008E-1,-8.364909E-1,-3.416815E-1,-8.751371E-2,2.6638868E-1,3.148565E-2,-1.7763257E-3,1.2188794E-1,-8.161738E-1,-1.36154145E-2,6.636755E-2,-6.850433E-2,-3.8296327E-2,-7.7229165E-2,-6.344522E-2,-5.1999457E-2,-7.291644E-2,-5.573687E-2,-4.5248805E-4,-5.910589E-2,-4.754732E-2,-5.8076877E-2,2.0596933E-2,2.9990781E-2,7.01318E-2,1.42815625E-2,-6.169867E-2,1.3585001E-2,3.816627E-4,-6.932059E-2,2.9993823E-2],"split_indices":[7,0,7,7,6,0,0,1,0,1,1,1,0,0,0,1,5,7,1,7,0,1,1,1,1,0,0,0,0,1,0,0,0,0,0,0,0,0,0,0,0,0,0,0,0,0,0,0,0,0,0,0,0],"split_type":[0,0,0,0,0,0,0,0,0,0,0,0,0,0,0,0,0,0,0,0,0,0,0,0,0,0,0,0,0,0,0,0,0,0,0,0,0,0,0,0,0,0,0,0,0,0,0,0,0,0,0,0,0],"sum_hessian":[4.162825E3,1.1703906E3,2.9924346E3,2.1834844E3,8.089502E2,9.6679834E2,1.216686E3,1.6605396E1,7.9234485E2,3.6931363E2,5.974847E2,1.162819E3,5.386707E1,1.3546678E1,3.0587184E0,7.769889E2,1.5355906E1,1.07053986E2,2.6225964E2,5.818944E2,1.5590314E1,7.7049164E1,1.0857698E3,2.5480112E1,2.8386957E1,8.740207E0,4.8064713E0,1.1549584E0,1.9037602E0,6.870402E2,8.994869E1,2.1482656E0,1.320764E1,6.826708E1,3.8786903E1,1.9981572E2,6.244393E1,5.470657E2,3.482874E1,4.0033535E1,3.701563E1,1.925717E2,8.931981E2,1.4979806E0,2.3982132E1,3.964334E0,2.4422623E1,3.058285E0,1.7481865E0,5.6523676E2,1.21803444E2,2.2493153E0,8.769938E1],"tree_param":{"num_deleted":"0","num_feature":"8","num_nodes":"53","size_leaf_vector":"1"}},{"base_weights":[-4.24342E-3,-8.0596226E-1,3.354693E-2,-6.471041E-1,-9.6355486E-1,5.666316E-2,-3.999103E-2,-7.0203274E-1,5.829298E-1,-1.0417029E0,-2.0918891E-1,3.6229435E-2,2.0551907E-1,1.604804E-1,-7.6305114E-2,-8.157407E-1,-2.2404994E-1,5.3709377E-2,-4.6779043E-3,-1.2211411E0,-6.332535E-1,6.555197E-1,-8.972198E-1,-1.4309417E-1,4.3731876E-2,2.9599774E-1,4.3888737E-2,7.894454E-1,5.7057686E-2,-2.2105752E-1,-5.753279E-3,-1.0139135E0,-4.1869384E-1,-9.7112525E-1,1.605243E-1,-9.547241E-1,-1.4487293E0,4.9584335E-1,-7.8067267E-1,-6.1364607E-3,5.8717478E-2,3.4390997E-2,-7.14942E-2,3.488661E-2,-5.8080786E-1,3.1954578E-1,3.2206025E-2,5.635849E-1,2.2697125E-1,2.5756672E-1,-9.5178634E-2,1.4861643E-1,9.680429E-1,-3.8293952E-1,1.6010852E-1,-3.7566254E-1,1.9090347E-2,-2.9100472E-1,5.8856413E-2,-4.236241E-2,-7.982325E-2,1.0842073E-2,-5.590663E-2,2.4306556E-2,-7.26437E-2,5.9685946E-2,-6.499803E-3,-5.57827E-2,3.2688554E-2,-8.271992E-2,-4.974842E-2,3.901036E-2,3.6873755E-3,-4.397853E-2,3.2419465E-2,3.7943415E-2,-2.6597227E-3,-3.8674053E-2,3.310546E-2,2.1519396E-2,-6.2382355E-4,3.5367932E-3,-4.2363792E-4,3.3764027E-2,-3.3924155E-2,3.774419E-2,8.277963E-3,-6.271016E-2,1.7546017E-2,-7.3460327E-3,2.5277996E-2,-5.7659186E-2,5.1377352E-2,2.7101322E-3,5.346101E-2,-6.671489E-2,-9.2845475E-3,-8.690264E-3,1.7390754E-2,-1.2407339E-2,-4.820173E-2,6.376445E-3,-2.7484879E-2,-2.6883012E-2,-1.9971828E-3,4.78981E-3,-1.7861802E-2],"categories":[],"categories_nodes":[],"categories_segments":[],"categories_sizes":[],"default_left":[0,0,0,0,0,0,0,0,0,0,0,0,0,0,0,0,0,0,0,0,0,0,0,0,0,0,0,0,0,0,0,0,0,0,0,0,0,0,0,0,0,0,0,0,0,0,0,0,0,0,0,0,0,0,0,0,0,0,0,0,0,0,0,0,0,0,0,0,0,0,0,0,0,0,0,0,0,0,0,0,0,0,0,0,0,0,0,0,0,0,0,0,0,0,0,0,0,0,0,0,0,0,0,0,0,0,0],"id":4,"left_children":[1,3,5,7,9,11,13,15,17,19,21,23,25,27,29,31,33,-1,-1,35,37,39,41,43,45,47,49,51,53,55,57,59,61,63,65,67,69,71,73,-1,-1,-1,-1,75,77,79,81,83,85,87,89,91,93,95,97,99,101,103,105,-1,-1,-1,-1,-1,-1,-1,-1,-1,-1,-1,-1,-1,-1,-1,-1,-1,-1,-1,-1,-1,-1,-1,-1,-1,-1,-1,-1,-1,-1,-1,-1,-1,-1,-1,-1,-1,-1,-1,-1,-1,-1,-1,-1,-1,-1,-1,-1],"loss_changes":[1.24273705E2,3.9989777E0,6.6613336E0,6.8276176E0,5.1258316E0,9.059262E0,6.836896E0,4.784298E0,1.6316109E0,5.228203E0,6.3949184E0,3.5341315E0,5.245534E0,9.32815E0,8.111234E0,5.3546677E0,5.597871E0,0E0,0E0,2.0010986E0,4.893016E0,2.123707E0,5.92898E0,8.24204E0,7.9934726E0,4.126911E0,3.8941584E0,2.1760464E0,5.721081E0,9.6706705E0,9.878873E0,3.3360138E0,1.1869853E1,5.324817E0,4.1661544E0,8.144653E0,9.827156E-1,3.911094E-1,4.0092926E0,0E0,0E0,0E0,0E0,4.885034E0,7.8315973E0,3.7179184E0,3.7901738E0,6.918022E0,5.866068E0,7.7236757E0,2.5489326E0,7.5916286E0,1.3909559E0,4.2525263E0,6.443679E0,1.1643993E1,6.4161005E0,6.108223E0,6.7527146E0,0E0,0E0,0E0,0E0,0E0,0E0,0E0,0E0,0E0,0E0,0E0,0E0,0E0,0E0,0E0,0E0,0E0,0E0,0E0,0E0,0E0,0E0,0E0,0E0,0E0,0E0,0E0,0E0,0E0,0E0,0E0,0E0,0E0,0E0,0E0,0E0,0E0,0E0,0E0,0E0,0E0,0E0,0E0,0E0,0E0,0E0,0E0,0E0],"parents":[2147483647,0,0,1,1,2,2,3,3,4,4,5,5,6,6,7,7,8,8,9,9,10,10,11,11,12,12,13,13,14,14,15,15,16,16,19,19,20,20,21,21,22,22,23,23,24,24,25,25,26,26,27,27,28,28,29,29,30,30,31,31,32,32,33,33,34,34,35,35,36,36,37,37,38,38,43,43,44,44,45,45,46,46,47,47,48,48,49,49,50,50,51,51,52,52,53,53,54,54,55,55,56,56,57,57,58,58],"right_children":[2,4,6,8,10,12,14,16,18,20,22,24,26,28,30,32,34,-1,-1,36,38,40,42,44,46,48,50,52,54,56,58,60,62,64,66,68,70,72,74,-1,-1,-1,-1,76,78,80,82,84,86,88,90,92,94,96,98,100,102,104,106,-1,-1,-1,-1,-1,-1,-1,-1,-1,-1,-1,-1,-1,-1,-1,-1,-1,-1,-1,-1,-1,-1,-1,-1,-1,-1,-1,-1,-1,-1,-1,-1,-1,-1,-1,-1,-1,-1,-1,-1,-1,-1,-1,-1,-1,-1,-1,-1],"split_conditions":[1E0,-1.5510209E-1,1.9042394E-1,-1.929276E-1,2.4863966E0,9.118258E-1,-7.465024E-1,2E0,-7.6040024E-1,9.040717E-2,-5.3271466E-1,-9.628738E-1,1E0,2.7252814E-1,4.5576516E-1,-5.952746E-1,-4.505199E-1,5.3709377E-2,-4.6779043E-3,-4.6349508E-1,1.4772575E-1,-5.8440995E-1,1E0,-9.9633104E-1,-8.9423853E-1,1E0,1.5619154E0,2.2917606E-1,4.2353237E-1,7.236694E-2,-5.081766E-1,-7.670614E-1,-4.3933952E-1,-7.908006E-1,-3.4532624E-1,-4.732389E-1,2E0,1.0613279E-1,5.105852E0,-6.1364607E-3,5.8717478E-2,3.4390997E-2,-7.14942E-2,-7.826907E-1,3E0,-3.4061234E-2,1E0,4.382348E0,-9.628738E-1,-3.416815E-1,-4.423989E-2,2E0,-7.908006E-1,1E0,-7.9748493E-1,-1.5287285E-1,2.1859407E0,1E0,1.6527243E0,-4.236241E-2,-7.982325E-2,1.0842073E-2,-5.590663E-2,2.4306556E-2,-7.26437E-2,5.9685946E-2,-6.499803E-3,-5.57827E-2,3.2688554E-2,-8.271992E-2,-4.974842E-2,3.901036E-2,3.6873755E-3,-4.397853E-2,3.2419465E-2,3.7943415E-2,-2.6597227E-3,-3.8674053E-2,3.310546E-2,2.1519396E-2,-6.2382355E-4,3.5367932E-3,-4.2363792E-4,3.3764027E-2,-3.3924155E-2,3.774419E-2,8.277963E-3,-6.271016E-2,1.7546017E-2,-7.3460327E-3,2.5277996E-2,-5.7659186E-2,5.1377352E-2,2.7101322E-3,5.346101E-2,-6.671489E-2,-9.2845475E-3,-8.690264E-3,1.7390754E-2,-1.2407339E-2,-4.820173E-2,6.376445E-3,-2.7484879E-2,-2.6883012E-2,-1.9971828E-3,4.78981E-3,-1.7861802E-2],"split_indices":[6,1,1,1,1,0,0,4,0,0,0,1,3,1,1,1,0,0,0,0,0,0,4,1,1,4,0,1,1,0,0,1,1,0,0,0,4,0,0,0,0,0,0,0,3,0,2,0,1,1,1,4,0,4,0,0,0,2,0,0,0,0,0,0,0,0,0,0,0,0,0,0,0,0,0,0,0,0,0,0,0,0,0,0,0,0,0,0,0,0,0,0,0,0,0,0,0,0,0,0,0,0,0,0,0,0,0],"split_type":[0,0,0,0,0,0,0,0,0,0,0,0,0,0,0,0,0,0,0,0,0,0,0,0,0,0,0,0,0,0,0,0,0,0,0,0,0,0,0,0,0,0,0,0,0,0,0,0,0,0,0,0,0,0,0,0,0,0,0,0,0,0,0,0,0,0,0,0,0,0,0,0,0,0,0,0,0,0,0,0,0,0,0,0,0,0,0,0,0,0,0,0,0,0,0,0,0,0,0,0,0,0,0,0,0,0,0],"sum_hessian":[4.099925E3,1.836423E2,3.9162822E3,9.399681E1,8.96455E1,2.979822E3,9.364603E2,9.03896E1,3.6072044E0,8.088534E1,8.760165E0,2.6212427E3,3.5857938E2,1.4309378E2,7.933665E2,7.244818E1,1.794142E1,1.7491227E0,1.8580817E0,5.4814686E1,2.607065E1,3.9026349E0,4.8575306E0,1.0453645E2,2.516706E3,2.293569E2,1.2922247E2,1.9270016E1,1.2382376E2,2.5927478E2,5.3409174E2,4.729087E1,2.5157312E1,5.578809E0,1.2362611E1,2.7646437E1,2.716825E1,2.7378347E0,2.3332815E1,1.866428E0,2.0362067E0,1.1485443E0,3.708986E0,7.497203E1,2.9564423E1,9.987886E1,2.4168274E3,4.556304E1,1.8379387E2,5.0609116E1,7.861336E1,4.5993037E0,1.4670712E1,2.298186E1,1.008419E2,1.5738649E2,1.0188828E2,9.79849E1,4.3610684E2,3.867928E1,8.611591E0,1.3542283E1,1.1615029E1,1.3838031E0,4.195006E0,2.030944E0,1.0331666E1,2.5410513E1,2.235923E0,1.6874043E1,1.0294207E1,1.1288929E0,1.6089418E0,2.218221E1,1.1506032E0,7.305875E0,6.766615E1,2.5923527E1,3.6408963E0,7.465861E1,2.5220255E1,1.2408186E3,1.1760087E3,4.2222424E1,3.3406167E0,1.7975962E1,1.658179E2,2.220199E0,4.8388916E1,7.307481E1,5.5385485E0,1.7279601E0,2.8713436E0,1.6154612E0,1.3055251E1,2.9567034E0,2.0025154E1,3.631489E1,6.4527016E1,1.305209E2,2.6865578E1,8.622534E1,1.5662941E1,4.885028E1,4.9134624E1,4.0125415E2,3.4852707E1],"tree_param":{"num_deleted":"0","num_feature":"8","num_nodes":"107","size_leaf_vector":"1"}},{"base_weights":[2.444636E-3,8.4246695E-2,-6.5117174E-1,-9.7551733E-1,2.4822901E-1,-1.0985341E0,-8.7630934E-1,-8.073129E-1,2.7298358E-1,-1.2500201E0,-9.271876E-1,-9.4889116E-1,7.119562E-1,2.1745951E-1,-1.1993109E0,-7.024734E-2,2.796799E-1,-1.3192147E0,-1.1827539E0,-8.008007E-1,-1.049962E0,-9.2042994E-1,-1.3590609E0,2.0230389E-1,1.1867635E0,-1.2665048E-2,3.0292798E-2,-1.3949972E0,6.2360256E-3,2.6595235E-1,9.170421E-1,-7.097429E-2,-5.600838E-2,-3.3694323E-2,-6.0751267E-2,-4.563172E-2,-2.6517952E-2,-5.40891E-2,-1.5676219E-2,-5.134954E-2,-4.2603504E-2,-7.8402385E-2,-5.6908675E-2,-6.0623256E-3,1.951557E-2,3.6211047E-2,6.773897E-2,-3.3658408E-2,-8.162051E-2,1.7874498E-2,8.944727E-3,5.066071E-2,1.7219098E-2],"categories":[],"categories_nodes":[],"categories_segments":[],"categories_sizes":[],"default_left":[0,0,0,0,0,0,0,0,0,0,0,0,0,0,0,0,0,0,0,0,0,0,0,0,0,0,0,0,0,0,0,0,0,0,0,0,0,0,0,0,0,0,0,0,0,0,0,0,0,0,0,0,0],"id":5,"left_children":[1,-1,3,5,7,9,11,13,15,17,19,21,23,25,27,-1,29,31,33,35,37,39,41,43,45,-1,-1,47,-1,49,51,-1,-1,-1,-1,-1,-1,-1,-1,-1,-1,-1,-1,-1,-1,-1,-1,-1,-1,-1,-1,-1,-1],"loss_changes":[4.564806E3,0E0,8.7234656E2,2.585498E1,2.0945229E1,2.420166E1,1.4147284E2,7.6633387E0,9.109032E0,8.399658E-1,6.333374E0,1.2388916E1,1.2814289E1,1.2404836E0,3.667223E0,0E0,6.523636E0,3.3105774E0,3.6341858E0,6.533661E0,5.0811462E0,7.1065063E0,1.6181946E0,1.7033639E0,1.1732826E0,0E0,0E0,9.281769E-1,0E0,5.981247E0,5.2672195E-1,0E0,0E0,0E0,0E0,0E0,0E0,0E0,0E0,0E0,0E0,0E0,0E0,0E0,0E0,0E0,0E0,0E0,0E0,0E0,0E0,0E0,0E0],"parents":[2147483647,0,0,2,2,3,3,4,4,5,5,6,6,7,7,8,8,9,9,10,10,11,11,12,12,13,13,14,14,16,16,17,17,18,18,19,19,20,20,21,21,22,22,23,23,24,24,27,27,29,29,30,30],"right_children":[2,-1,4,6,8,10,12,14,16,18,20,22,24,26,28,-1,30,32,34,36,38,40,42,44,46,-1,-1,48,-1,50,52,-1,-1,-1,-1,-1,-1,-1,-1,-1,-1,-1,-1,-1,-1,-1,-1,-1,-1,-1,-1,-1,-1],"split_conditions":[1E0,8.4246695E-2,4E0,3E0,1E0,2.8890654E-1,-1.7175409E-1,1E0,-8.5356605E-1,-1.274878E-2,9.968278E-1,-2.851217E-1,-1.0143844E-1,2.4814019E-2,3E0,-7.024734E-2,2.886086E0,2E0,1.955094E-3,7.6473016E-1,4E0,-6.5174925E-1,1E0,1E0,1E0,-1.2665048E-2,3.0292798E-2,-5.0000113E-1,6.2360256E-3,-3.6997652E-1,1E0,-7.097429E-2,-5.600838E-2,-3.3694323E-2,-6.0751267E-2,-4.563172E-2,-2.6517952E-2,-5.40891E-2,-1.5676219E-2,-5.134954E-2,-4.2603504E-2,-7.8402385E-2,-5.6908675E-2,-6.0623256E-3,1.951557E-2,3.6211047E-2,6.773897E-2,-3.3658408E-2,-8.162051E-2,1.7874498E-2,8.944727E-3,5.066071E-2,1.7219098E-2],"split_indices":[7,0,7,7,6,0,0,5,0,0,0,0,0,0,3,0,0,7,0,0,3,0,3,3,5,0,0,0,0,0,3,0,0,0,0,0,0,0,0,0,0,0,0,0,0,0,0,0,0,0,0,0,0],"split_type":[0,0,0,0,0,0,0,0,0,0,0,0,0,0,0,0,0,0,0,0,0,0,0,0,0,0,0,0,0,0,0,0,0,0,0,0,0,0,0,0,0,0,0,0,0,0,0,0,0,0,0,0,0],"sum_hessian":[4.148948E3,1.1603882E3,2.98856E3,2.1964006E3,7.921596E2,9.7604395E2,1.2203567E3,1.7427622E1,7.7473193E2,5.147036E2,4.613403E2,1.1674099E3,5.2946682E1,4.9451423E0,1.248248E1,2.2495227E0,7.724824E2,2.4454079E2,2.7016284E2,2.3103249E2,2.3030783E2,1.0946943E3,7.271564E1,2.6224117E1,2.6722567E1,2.392777E0,2.552365E0,1.0828478E1,1.6540018E0,7.575828E2,1.4899609E1,1.5854268E2,8.5998116E1,1.7416399E1,2.5274644E2,1.6176459E2,6.926791E1,2.2031935E2,9.988471E0,4.223318E2,6.7236255E2,3.4230507E1,3.8485134E1,9.768379E0,1.6455738E1,8.535373E0,1.8187195E1,3.6293252E0,7.199153E0,3.6777576E2,3.8980707E2,1.2098486E1,2.8011227E0],"tree_param":{"num_deleted":"0","num_feature":"8","num_nodes":"53","size_leaf_vector":"1"}},{"base_weights":[1.633708E-2,8.1464015E-2,-6.1035496E-1,-9.353317E-1,2.589613E-1,-1.0876542E0,-8.124259E-1,-2.261324E-1,2.7826145E-1,-1.2450116E0,-1.0112356E0,-8.91162E-1,7.828004E-1,5.043301E-2,-7.8171545E-1,2.6356065E-1,9.277703E-1,-1.2781713E0,-6.4332193E-1,-9.847623E-1,-8.248972E-2,-6.0119504E-1,-9.121173E-1,1.8999577E-1,1.2310195E0,-1.8566713E-1,7.2623885E-1,3.0217296E-2,-1.0186285E0,2.4764611E-1,8.3454525E-1,3.157203E-1,1.2033263E0,-5.555814E-2,-6.9142714E-2,3.8910724E-2,-4.6146188E-2,-4.961241E-2,1.7026303E-2,-5.4322183E-2,-6.062252E-3,-4.118032E-2,-4.908633E-2,1.6314674E-2,-5.991124E-2,2.9714707E-2,6.646327E-2,1.24546215E-2,-5.2222162E-2,6.1325558E-2,1.003313E-2,-6.374722E-2,5.1976237E-3,1.4950551E-2,4.694612E-3,1.8931179E-4,6.311156E-2,4.4751126E-2,-5.986038E-2,1.3800271E-2,7.385889E-2],"categories":[],"categories_nodes":[],"categories_segments":[],"categories_sizes":[],"default_left":[0,0,0,0,0,0,0,0,0,0,0,0,0,0,0,0,0,0,0,0,0,0,0,0,0,0,0,0,0,0,0,0,0,0,0,0,0,0,0,0,0,0,0,0,0,0,0,0,0,0,0,0,0,0,0,0,0,0,0,0,0],"id":6,"left_children":[1,-1,3,5,7,9,11,13,15,17,19,21,23,25,27,29,31,33,35,37,-1,39,41,43,45,47,49,-1,51,53,55,57,59,-1,-1,-1,-1,-1,-1,-1,-1,-1,-1,-1,-1,-1,-1,-1,-1,-1,-1,-1,-1,-1,-1,-1,-1,-1,-1,-1,-1],"loss_changes":[4.141844E3,0E0,8.3391406E2,3.933374E1,7.5880966E0,1.0241089E1,1.5052246E2,4.84991E0,7.140709E0,5.328766E0,9.347412E0,6.3618774E0,1.4815521E1,3.6198235E0,4.0522356E0,6.678852E0,2.440322E0,3.5540466E0,7.918804E0,6.54541E0,0E0,1.8401836E1,5.713928E0,5.228893E0,1.2162056E0,6.6009398E0,1.2942815E0,0E0,2.811407E0,5.8051567E0,7.1457367E0,6.809618E0,2.4301605E0,0E0,0E0,0E0,0E0,0E0,0E0,0E0,0E0,0E0,0E0,0E0,0E0,0E0,0E0,0E0,0E0,0E0,0E0,0E0,0E0,0E0,0E0,0E0,0E0,0E0,0E0,0E0,0E0],"parents":[2147483647,0,0,2,2,3,3,4,4,5,5,6,6,7,7,8,8,9,9,10,10,11,11,12,12,13,13,14,14,15,15,16,16,17,17,18,18,19,19,21,21,22,22,23,23,24,24,25,25,26,26,28,28,29,29,30,30,31,31,32,32],"right_children":[2,-1,4,6,8,10,12,14,16,18,20,22,24,26,28,30,32,34,36,38,-1,40,42,44,46,48,50,-1,52,54,56,58,60,-1,-1,-1,-1,-1,-1,-1,-1,-1,-1,-1,-1,-1,-1,-1,-1,-1,-1,-1,-1,-1,-1,-1,-1,-1,-1,-1,-1],"split_conditions":[1E0,8.1464015E-2,4E0,3E0,-8.070276E-1,3.8975682E-2,-1.7175409E-1,-8.161738E-1,2.886086E0,1.4274474E0,1.2154856E0,-8.9423853E-1,-1.0143844E-1,-8.205304E-1,-8.579684E-1,2.4863966E0,-4.4800994E-1,-1.929276E-1,-5.3271466E-1,1.0437319E0,-8.248972E-2,-9.628738E-1,2E0,6.410539E-1,-1.7323716E-1,-8.3002204E-1,-1.929276E-1,3.0217296E-2,1.4274474E0,1.0088558E-1,1E0,1E0,1E0,-5.555814E-2,-6.9142714E-2,3.8910724E-2,-4.6146188E-2,-4.961241E-2,1.7026303E-2,-5.4322183E-2,-6.062252E-3,-4.118032E-2,-4.908633E-2,1.6314674E-2,-5.991124E-2,2.9714707E-2,6.646327E-2,1.24546215E-2,-5.2222162E-2,6.1325558E-2,1.003313E-2,-6.374722E-2,5.1976237E-3,1.4950551E-2,4.694612E-3,1.8931179E-4,6.311156E-2,4.4751126E-2,-5.986038E-2,1.3800271E-2,7.385889E-2],"split_indices":[7,0,7,7,0,0,0,0,0,1,1,1,0,0,1,1,1,1,0,1,0,1,5,1,1,0,1,0,1,0,2,2,2,0,0,0,0,0,0,0,0,0,0,0,0,0,0,0,0,0,0,0,0,0,0,0,0,0,0,0,0],"split_type":[0,0,0,0,0,0,0,0,0,0,0,0,0,0,0,0,0,0,0,0,0,0,0,0,0,0,0,0,0,0,0,0,0,0,0,0,0,0,0,0,0,0,0,0,0,0,0,0,0,0,0,0,0,0,0,0,0,0,0,0,0],"sum_hessian":[4.0955305E3,1.1455587E3,2.949972E3,2.1472056E3,8.027663E2,9.553494E2,1.1918561E3,3.0307049E1,7.724593E2,3.072938E2,6.480556E2,1.1362169E3,5.5639233E1,2.0841513E1,9.465536E0,7.5673724E2,1.5722015E1,2.9017752E2,1.7116274E1,6.246991E2,2.3356535E1,7.857902E1,1.0576378E3,2.4568874E1,3.1070356E1,1.5982957E1,4.858555E0,1.1553329E0,8.310203E0,7.376122E2,1.9125072E1,5.5470247E0,1.0174991E1,1.162807E2,1.7389682E2,2.5201533E0,1.459612E1,6.214402E2,3.2588968E0,3.844546E1,4.0133556E1,4.7125284E2,5.86385E2,2.306889E1,1.4999846E0,5.0955386E0,2.5974817E1,1.1082389E1,4.900568E0,1.8059257E0,3.0526292E0,6.6549664E0,1.6552362E0,5.521946E2,1.8541762E2,6.8425684E0,1.2282504E1,4.3064833E0,1.2405416E0,2.77753E0,7.3974605E0],"tree_param":{"num_deleted":"0","num_feature":"8","num_nodes":"61","size_leaf_vector":"1"}},{"base_weights":[3.112537E-3,7.899459E-2,-5.97999E-1,-9.193576E-1,2.529457E-1,-1.0744011E0,-7.974766E-1,-7.735145E-1,2.7607808E-1,-1.2765291E0,-9.508228E-1,-8.495678E-1,8.772878E-1,3.750076E-1,-1.1743803E0,2.3209074E-1,5.56047E-1,-6.61215E-1,-1.3018281E0,-9.31401E-1,-7.7803016E-2,-7.898723E-1,-1.0435504E0,-1.6439427E-1,1.0732744E0,4.041244E-2,-9.944843E-3,-1.3614188E0,5.7501327E-3,1.963824E-1,5.592991E-1,7.4380094E-1,2.791913E-1,-7.235887E-2,1.2960726E-3,-6.6616856E-2,-3.9625175E-2,-3.0057108E-2,-4.7601756E-2,-4.0479094E-2,4.7573005E-3,-5.2642554E-2,3.0426359E-2,3.681497E-2,-4.020369E-2,2.7583411E-2,6.5943725E-2,-8.047956E-2,-7.566848E-3,1.3623155E-2,-5.621409E-4,3.1406984E-2,-6.3956134E-2,2.9577045E-2,6.356741E-2,2.0635126E-2,-1.959478E-2],"categories":[],"categories_nodes":[],"categories_segments":[],"categories_sizes":[],"default_left":[0,0,0,0,0,0,0,0,0,0,0,0,0,0,0,0,0,0,0,0,0,0,0,0,0,0,0,0,0,0,0,0,0,0,0,0,0,0,0,0,0,0,0,0,0,0,0,0,0,0,0,0,0,0,0,0,0],"id":7,"left_children":[1,-1,3,5,7,9,11,13,15,17,19,21,23,25,27,29,31,33,35,37,-1,39,41,43,45,-1,-1,47,-1,49,51,53,55,-1,-1,-1,-1,-1,-1,-1,-1,-1,-1,-1,-1,-1,-1,-1,-1,-1,-1,-1,-1,-1,-1,-1,-1],"loss_changes":[3.865415E3,0E0,8.076476E2,3.964746E1,1.9450607E1,2.2278564E1,1.05777466E2,8.782301E0,9.637436E0,4.6486816E0,5.4575806E0,1.2702576E1,7.691248E0,1.5147777E0,3.4539967E0,7.9181175E0,5.352482E0,8.683495E0,4.210449E0,3.3243103E0,0E0,1.572998E1,4.8165283E0,4.449954E0,3.2582283E0,0E0,0E0,3.365736E0,0E0,9.812908E0,9.29084E0,4.3195114E0,4.1781144E0,0E0,0E0,0E0,0E0,0E0,0E0,0E0,0E0,0E0,0E0,0E0,0E0,0E0,0E0,0E0,0E0,0E0,0E0,0E0,0E0,0E0,0E0,0E0,0E0],"parents":[2147483647,0,0,2,2,3,3,4,4,5,5,6,6,7,7,8,8,9,9,10,10,11,11,12,12,13,13,14,14,15,15,16,16,17,17,18,18,19,19,21,21,22,22,23,23,24,24,27,27,29,29,30,30,31,31,32,32],"right_children":[2,-1,4,6,8,10,12,14,16,18,20,22,24,26,28,30,32,34,36,38,-1,40,42,44,46,-1,-1,48,-1,50,52,54,56,-1,-1,-1,-1,-1,-1,-1,-1,-1,-1,-1,-1,-1,-1,-1,-1,-1,-1,-1,-1,-1,-1,-1,-1],"split_conditions":[1E0,7.899459E-2,4E0,3E0,1E0,9.040717E-2,-1.3576254E-1,1E0,6.176239E-1,-1.0734713E0,1.7889575E0,1.9042394E-1,-3.0064595E-1,-4.4800994E-1,3E0,1.1343458E0,2E0,2E0,1.4274474E0,-9.315345E-1,-7.7803016E-2,1.5630485E-1,-1.4711985E-1,-9.009234E-1,-7.666282E-2,4.041244E-2,-9.944843E-3,6.6997737E-1,5.7501327E-3,-4.1612856E-2,4.4391778E-1,4.4021738E-1,3E0,-7.235887E-2,1.2960726E-3,-6.6616856E-2,-3.9625175E-2,-3.0057108E-2,-4.7601756E-2,-4.0479094E-2,4.7573005E-3,-5.2642554E-2,3.0426359E-2,3.681497E-2,-4.020369E-2,2.7583411E-2,6.5943725E-2,-8.047956E-2,-7.566848E-3,1.3623155E-2,-5.621409E-4,3.1406984E-2,-6.3956134E-2,2.9577045E-2,6.356741E-2,2.0635126E-2,-1.959478E-2],"split_indices":[7,0,7,7,6,0,0,5,1,1,1,1,1,1,3,0,5,5,1,1,0,1,0,1,0,0,0,1,0,0,1,0,3,0,0,0,0,0,0,0,0,0,0,0,0,0,0,0,0,0,0,0,0,0,0,0,0],"split_type":[0,0,0,0,0,0,0,0,0,0,0,0,0,0,0,0,0,0,0,0,0,0,0,0,0,0,0,0,0,0,0,0,0,0,0,0,0,0,0,0,0,0,0,0,0,0,0,0,0,0,0,0,0,0,0,0,0],"sum_hessian":[4.076219E3,1.1246125E3,2.9516062E3,2.1424363E3,8.0917E2,9.3949713E2,1.2029392E3,1.7118683E1,7.920513E2,3.5292084E2,5.865763E2,1.16713E3,3.5809204E1,4.4457245E0,1.2672957E1,6.860859E2,1.059654E2,1.5009194E1,3.3791165E2,5.707985E2,1.5777762E1,8.963597E2,2.7077036E2,5.695963E0,3.011324E1,2.3006372E0,2.1450872E0,1.101871E1,1.6542481E0,6.2002277E2,6.6063095E1,6.2138573E1,4.3826824E1,6.485188E0,8.524007E0,3.1728983E2,2.0621817E1,3.53376E1,5.354609E2,8.769158E2,1.9443933E1,2.6961523E2,1.1551342E0,2.30267E0,3.3932931E0,1.0679114E1,1.9434126E1,8.869531E0,2.1491795E0,4.5352432E2,1.6649844E2,6.431318E1,1.7499106E0,4.986725E1,1.2271326E1,3.687554E1,6.951284E0],"tree_param":{"num_deleted":"0","num_feature":"8","num_nodes":"57","size_leaf_vector":"1"}},{"base_weights":[-5.324488E-3,7.677645E-2,-5.6835276E-1,-8.781949E-1,2.5075883E-1,-1.0398934E0,-7.4993306E-1,-9.8487866E-1,2.7411255E-1,-1.1919543E0,-9.544951E-1,-8.0708075E-1,1.0779561E0,-1.1335101E0,1.4163804E-2,-2.6018426E-1,2.9597566E-1,-1.2713355E0,-9.7316164E-1,-3.9179033E-1,-9.8887175E-1,-8.1960946E-1,-3.3977047E-2,2.3760937E-1,5.7366252E-2,-1.3159397E0,4.4727264E-4,-9.26558E-2,-7.442831E-2,2.5778234E-1,5.4593176E-1,-7.794772E-2,-6.130549E-2,-2.9291932E-2,-6.155413E-2,-6.2485095E-2,4.0243715E-3,-4.5173522E-2,-5.6916546E-2,-3.8314424E-2,-4.925093E-2,1.754218E-2,-2.0434802E-2,-4.9976297E-3,2.9100016E-2,-7.566505E-2,-3.7781842E-2,2.6050631E-2,-1.0505716E-2,1.54923545E-2,-6.7348854E-4,1.7862013E-2,3.8020153E-2],"categories":[],"categories_nodes":[],"categories_segments":[],"categories_sizes":[],"default_left":[0,0,0,0,0,0,0,0,0,0,0,0,0,0,0,0,0,0,0,0,0,0,0,0,0,0,0,0,0,0,0,0,0,0,0,0,0,0,0,0,0,0,0,0,0,0,0,0,0,0,0,0,0],"id":8,"left_children":[1,-1,3,5,7,9,11,13,15,17,19,21,23,25,-1,27,29,31,33,35,37,39,41,43,-1,45,-1,47,-1,49,51,-1,-1,-1,-1,-1,-1,-1,-1,-1,-1,-1,-1,-1,-1,-1,-1,-1,-1,-1,-1,-1,-1],"loss_changes":[3.4883074E3,0E0,7.476078E2,4.353784E1,2.3614826E1,1.1103027E1,1.25721924E2,3.1906614E0,9.361015E0,4.58078E0,1.138623E1,1.1203552E1,1.8646126E0,2.8935604E0,0E0,6.401062E0,7.1528473E0,1.2434998E0,8.613777E0,1.4970003E1,6.284729E0,9.308716E0,2.9603276E0,5.2979624E-1,0E0,1.7571831E-1,0E0,2.2018363E0,0E0,9.390419E0,3.7902336E0,0E0,0E0,0E0,0E0,0E0,0E0,0E0,0E0,0E0,0E0,0E0,0E0,0E0,0E0,0E0,0E0,0E0,0E0,0E0,0E0,0E0,0E0],"parents":[2147483647,0,0,2,2,3,3,4,4,5,5,6,6,7,7,8,8,9,9,10,10,11,11,12,12,13,13,15,15,16,16,17,17,18,18,19,19,20,20,21,21,22,22,23,23,25,25,27,27,29,29,30,30],"right_children":[2,-1,4,6,8,10,12,14,16,18,20,22,24,26,-1,28,30,32,34,36,38,40,42,44,-1,46,-1,48,-1,50,52,-1,-1,-1,-1,-1,-1,-1,-1,-1,-1,-1,-1,-1,-1,-1,-1,-1,-1,-1,-1,-1,-1],"split_conditions":[1E0,7.677645E-2,4E0,3E0,1E0,7.236694E-2,-1.10760994E-1,3E0,-8.050774E-1,2E0,-9.315345E-1,-1.7175409E-1,-1.0143844E-1,6.6997737E-1,1.4163804E-2,-8.0936694E-1,6.176239E-1,-1.4711985E-1,-5.142294E-1,-1.005233E0,9.968278E-1,1.9042394E-1,-1.5287285E-1,-1.3379006E-1,5.7366252E-2,-8.873726E-2,4.4727264E-4,-1.929276E-1,-7.442831E-2,1.2188794E-1,-2.1161546E-1,-7.794772E-2,-6.130549E-2,-2.9291932E-2,-6.155413E-2,-6.2485095E-2,4.0243715E-3,-4.5173522E-2,-5.6916546E-2,-3.8314424E-2,-4.925093E-2,1.754218E-2,-2.0434802E-2,-4.9976297E-3,2.9100016E-2,-7.566505E-2,-3.7781842E-2,2.6050631E-2,-1.0505716E-2,1.54923545E-2,-6.7348854E-4,1.7862013E-2,3.8020153E-2],"split_indices":[7,0,7,7,6,0,0,3,0,7,1,0,0,1,0,0,1,0,1,1,0,1,0,1,0,0,0,1,0,1,0,0,0,0,0,0,0,0,0,0,0,0,0,0,0,0,0,0,0,0,0,0,0],"split_type":[0,0,0,0,0,0,0,0,0,0,0,0,0,0,0,0,0,0,0,0,0,0,0,0,0,0,0,0,0,0,0,0,0,0,0,0,0,0,0,0,0,0,0,0,0,0,0,0,0,0,0,0,0],"sum_hessian":[4.0188938E3,1.07505E3,2.9438435E3,2.135851E3,8.0799243E2,9.4163477E2,1.1942164E3,1.4224159E1,7.9376825E2,3.3398352E2,6.0765125E2,1.1585535E3,3.5662918E1,1.2826975E1,1.3971847E0,3.0775208E1,7.6299304E2,2.4153888E2,9.244463E1,3.5698975E1,5.719523E2,1.1400184E3,1.8535E1,3.0568645E0,3.2606052E1,1.0929826E1,1.8971486E0,2.8028122E1,2.7470849E0,6.636227E2,9.937036E1,2.8271572E1,2.132673E2,3.8260204E1,5.418443E1,1.2090314E1,2.360866E1,3.6845895E2,2.0349335E2,8.6636957E2,2.7364893E2,9.175678E0,9.359321E0,1.9021765E0,1.154688E0,6.824944E0,4.1048822E0,3.95087E0,2.4077251E1,5.5663806E2,1.0698466E2,5.4280308E1,4.5090054E1],"tree_param":{"num_deleted":"0","num_feature":"8","num_nodes":"53","size_leaf_vector":"1"}},{"base_weights":[5.0448463E-3,-7.577833E-1,4.1491978E-2,-7.859184E-1,-1.4502352E-1,1.00416504E-1,1.4167352E-2,-7.357735E-1,-1.290211E0,-5.6332927E-2,3.5791057E-1,1.5024047E-1,3.60433E-2,-6.258302E-1,1.710681E-2,-7.5334686E-1,4.902027E-2,-6.742109E-1,-7.162676E-2,-2.3357572E-2,4.6961453E-2,1.3959822E-1,7.430004E-1,4.7663108E-2,-7.647521E-1,-1.1882097E-1,-8.0694085E-1,1.2449956E-2,2.2552459E-1,-5.5291027E-1,-8.37895E-1,-8.306185E-3,-4.9502265E-2,1.6788155E-1,-1.0005939E-1,1.2380775E-1,5.3121496E-2,-5.093468E-3,2.164234E-1,-1.3710126E-2,-6.87324E-2,9.258359E-3,-1.5450112E-2,-9.6292853E-1,-3.2217312E-1,1.8791627E-2,-2.7245176E-1,5.829877E-1,4.8418265E-2,-3.2990824E-2,6.841665E-2,-4.415025E-2,-1.3696766E-2,-5.1691583E-3,9.622636E-3,-2.463271E-4,-5.2835662E-2,1.0963968E-2,-2.9725607E-3,2.3042688E-3,-2.1925403E-2,1.5505563E-2,-1.2354053E-2,-1.5690966E-2,1.8588662E-2,-6.0098827E-2,-2.5564259E-2,1.8116873E-2,-4.5809213E-2,1.2499058E-3,-3.0429533E-3,-3.682951E-2,5.048244E-3,1.5852613E-2,3.3152457E-2,-2.2000326E-2,8.290098E-3],"categories":[],"categories_nodes":[],"categories_segments":[],"categories_sizes":[],"default_left":[0,0,0,0,0,0,0,0,0,0,0,0,0,0,0,0,0,0,0,0,0,0,0,0,0,0,0,0,0,0,0,0,0,0,0,0,0,0,0,0,0,0,0,0,0,0,0,0,0,0,0,0,0,0,0,0,0,0,0,0,0,0,0,0,0,0,0,0,0,0,0,0,0,0,0,0,0],"id":9,"left_children":[1,3,5,7,9,11,13,15,17,-1,19,21,23,25,27,29,-1,31,-1,-1,-1,33,35,37,39,41,43,45,47,49,51,-1,-1,53,55,57,-1,59,61,63,-1,-1,-1,65,67,69,71,73,75,-1,-1,-1,-1,-1,-1,-1,-1,-1,-1,-1,-1,-1,-1,-1,-1,-1,-1,-1,-1,-1,-1,-1,-1,-1,-1,-1,-1],"loss_changes":[1.102384E2,3.0031204E0,6.091258E0,3.416397E0,4.927275E0,3.839098E0,4.876352E0,5.5445557E0,2.8674507E-1,0E0,3.7088838E0,4.156745E0,4.915023E0,9.923706E-1,2.4969409E0,2.2194443E0,0E0,5.6896806E-1,0E0,0E0,0E0,4.5223083E0,2.178687E0,4.610593E0,3.4429193E0,3.0534527E-1,3.3701992E-1,4.5587025E0,3.5317256E0,1.1153046E1,2.5412521E0,0E0,0E0,3.9851055E0,6.4373765E0,1.0238705E-1,0E0,8.790981E0,5.432049E0,6.2533617E-1,0E0,0E0,0E0,3.0311584E-2,1.7902848E0,1.2207736E0,9.59693E0,1.845007E-1,2.2912946E0,0E0,0E0,0E0,0E0,0E0,0E0,0E0,0E0,0E0,0E0,0E0,0E0,0E0,0E0,0E0,0E0,0E0,0E0,0E0,0E0,0E0,0E0,0E0,0E0,0E0,0E0,0E0,0E0],"parents":[2147483647,0,0,1,1,2,2,3,3,4,4,5,5,6,6,7,7,8,8,10,10,11,11,12,12,13,13,14,14,15,15,17,17,21,21,22,22,23,23,24,24,25,25,26,26,27,27,28,28,29,29,30,30,33,33,34,34,35,35,37,37,38,38,39,39,43,43,44,44,45,45,46,46,47,47,48,48],"right_children":[2,4,6,8,10,12,14,16,18,-1,20,22,24,26,28,30,-1,32,-1,-1,-1,34,36,38,40,42,44,46,48,50,52,-1,-1,54,56,58,-1,60,62,64,-1,-1,-1,66,68,70,72,74,76,-1,-1,-1,-1,-1,-1,-1,-1,-1,-1,-1,-1,-1,-1,-1,-1,-1,-1,-1,-1,-1,-1,-1,-1,-1,-1,-1,-1],"split_conditions":[1E0,2.4863966E0,-2.8909642E-1,3.8133857E-1,2E0,2E0,-2.8274253E-1,3.6724088E-1,1E0,-5.6332927E-2,1E0,-3.0064595E-1,-3.0064595E-1,1E0,4.3713183E0,-7.670614E-1,4.902027E-2,2E0,-7.162676E-2,-2.3357572E-2,4.6961453E-2,1E0,1E0,-4.675349E-1,1E0,1E0,2E0,1.7889575E0,4.9480667E0,-7.732829E-1,2E0,-8.306185E-3,-4.9502265E-2,-9.628738E-1,-3.636554E-1,1E0,5.3121496E-2,-5.4659456E-1,2E0,2E0,-6.87324E-2,9.258359E-3,-1.5450112E-2,1E0,2E0,7.871935E-1,2E0,1E0,1E0,-3.2990824E-2,6.841665E-2,-4.415025E-2,-1.3696766E-2,-5.1691583E-3,9.622636E-3,-2.463271E-4,-5.2835662E-2,1.0963968E-2,-2.9725607E-3,2.3042688E-3,-2.1925403E-2,1.5505563E-2,-1.2354053E-2,-1.5690966E-2,1.8588662E-2,-6.0098827E-2,-2.5564259E-2,1.8116873E-2,-4.5809213E-2,1.2499058E-3,-3.0429533E-3,-3.682951E-2,5.048244E-3,1.5852613E-2,3.3152457E-2,-2.2000326E-2,8.290098E-3],"split_indices":[6,1,1,1,5,5,1,1,4,0,2,1,1,5,1,1,0,5,0,0,0,3,2,1,2,2,4,1,1,1,3,0,0,1,1,5,0,1,4,4,0,0,0,2,5,1,5,4,5,0,0,0,0,0,0,0,0,0,0,0,0,0,0,0,0,0,0,0,0,0,0,0,0,0,0,0,0],"split_type":[0,0,0,0,0,0,0,0,0,0,0,0,0,0,0,0,0,0,0,0,0,0,0,0,0,0,0,0,0,0,0,0,0,0,0,0,0,0,0,0,0,0,0,0,0,0,0,0,0,0,0,0,0,0,0,0,0,0,0,0,0,0,0,0,0,0,0,0,0,0,0,0,0,0,0,0,0],"sum_hessian":[3.9628662E3,1.798051E2,3.783061E3,1.7164153E2,8.163567E0,1.1976656E3,2.5853955E3,1.5835442E2,1.328712E1,2.3454695E0,5.818097E0,6.7437494E2,5.232907E2,1.0851406E1,2.574544E3,1.5730467E2,1.0497367E0,3.5705214E0,9.7165985E0,2.4860516E0,3.3320458E0,6.6369464E2,1.0680282E1,5.167332E2,6.5574913E0,3.291922E0,7.5594845E0,2.5193127E3,5.5231396E1,4.890535E1,1.0839932E2,1.9536464E0,1.616875E0,5.939042E2,6.979045E1,4.1069083E0,6.5733733E0,3.944066E2,1.2232661E2,3.3969173E0,3.1605742E0,1.2770436E0,2.0148785E0,4.972932E0,2.5865524E0,2.4653696E3,5.3943012E1,1.753925E1,3.7692146E1,4.694945E1,1.9558998E0,9.984704E1,8.552279E0,4.9061344E1,5.4484283E2,6.439223E1,5.398228E0,2.5709677E0,1.5359405E0,3.5355185E2,4.0854748E1,1.0203357E2,2.0293036E1,2.01449E0,1.3824275E0,2.165451E0,2.8074808E0,1.3829367E0,1.2036158E0,2.2877883E3,1.7758133E2,2.3616411E1,3.0326601E1,5.2062025E0,1.2333048E1,6.77082E0,3.0921326E1],"tree_param":{"num_deleted":"0","num_feature":"8","num_nodes":"77","size_leaf_vector":"1"}},{"base_weights":[-4.1486393E-3,7.475772E-2,-5.5522496E-1,-8.376864E-1,1.9952762E-1,-1.0016065E0,-7.0871115E-1,4.3858558E-1,1.3586487E-1,-1.1458452E0,-9.307344E-1,-7.7585524E-1,7.260051E-1,3.1023404E-1,8.20128E-1,1.219214E-1,8.345299E-1,-1.1005145E0,-7.236273E-2,-8.547423E-1,-1.0813154E0,-7.428345E-1,-1.2815964E0,7.7549346E-2,9.553751E-1,4.5117924E-1,-3.2157215E-1,9.970495E-1,2.6564595E-1,2.2304228E-1,-3.0564093E-3,-4.7745374E-3,9.8743415E-1,-5.704124E-2,-3.9456412E-2,-3.665676E-2,-4.9226094E-2,-7.365072E-2,-5.027646E-2,-2.6829163E-2,-3.835749E-2,-6.776254E-2,-2.7250519E-2,-3.7885156E-2,4.084122E-2,3.379654E-2,5.832525E-2,-1.1144958E-2,2.6218489E-2,-3.9817046E-2,2.7085308E-2,4.1177046E-2,6.625438E-2,4.848024E-2,-2.8779695E-2,-8.081636E-3,1.3812377E-2,-6.4117365E-2,4.8986374E-4,6.966003E-2,2.2976238E-2],"categories":[],"categories_nodes":[],"categories_segments":[],"categories_sizes":[],"default_left":[0,0,0,0,0,0,0,0,0,0,0,0,0,0,0,0,0,0,0,0,0,0,0,0,0,0,0,0,0,0,0,0,0,0,0,0,0,0,0,0,0,0,0,0,0,0,0,0,0,0,0,0,0,0,0,0,0,0,0,0,0],"id":10,"left_children":[1,-1,3,5,7,9,11,13,15,17,19,21,23,25,27,29,31,33,-1,35,37,39,41,43,45,47,49,51,53,55,57,-1,59,-1,-1,-1,-1,-1,-1,-1,-1,-1,-1,-1,-1,-1,-1,-1,-1,-1,-1,-1,-1,-1,-1,-1,-1,-1,-1,-1,-1],"loss_changes":[3.2563274E3,0E0,6.145586E2,4.363025E1,1.1897009E1,8.349548E0,1.1396362E2,7.814665E0,5.9563007E0,2.4945374E0,6.2042847E0,1.7835876E1,7.830475E0,1.12677E1,3.7442875E0,7.7206974E0,1.8002748E0,2.4161987E0,0E0,5.887665E0,4.609314E0,4.8965454E0,2.927475E0,9.865529E0,1.522522E0,5.1756916E0,1.0007872E1,6.514988E-1,7.2196803E0,6.955719E0,4.5212436E0,0E0,1.5856295E0,0E0,0E0,0E0,0E0,0E0,0E0,0E0,0E0,0E0,0E0,0E0,0E0,0E0,0E0,0E0,0E0,0E0,0E0,0E0,0E0,0E0,0E0,0E0,0E0,0E0,0E0,0E0,0E0],"parents":[2147483647,0,0,2,2,3,3,4,4,5,5,6,6,7,7,8,8,9,9,10,10,11,11,12,12,13,13,14,14,15,15,16,16,17,17,19,19,20,20,21,21,22,22,23,23,24,24,25,25,26,26,27,27,28,28,29,29,30,30,32,32],"right_children":[2,-1,4,6,8,10,12,14,16,18,20,22,24,26,28,30,32,34,-1,36,38,40,42,44,46,48,50,52,54,56,58,-1,60,-1,-1,-1,-1,-1,-1,-1,-1,-1,-1,-1,-1,-1,-1,-1,-1,-1,-1,-1,-1,-1,-1,-1,-1,-1,-1,-1,-1],"split_conditions":[1E0,7.475772E-2,4E0,3E0,1E0,4.3444563E-2,-1.7175409E-1,7.422502E-1,2.886086E0,1.0347729E-2,1E0,-2.851217E-1,-1.3576254E-1,1.612286E-1,2.0309978E0,-3.8817418E-1,1E0,-1.274878E-2,-7.236273E-2,1E0,1E0,-8.0131394E-1,3E0,1E0,1E0,-3.983975E-1,2E0,1.4648798E0,1E0,-7.995153E-1,-3.8508415E-1,-4.7745374E-3,2E0,-5.704124E-2,-3.9456412E-2,-3.665676E-2,-4.9226094E-2,-7.365072E-2,-5.027646E-2,-2.6829163E-2,-3.835749E-2,-6.776254E-2,-2.7250519E-2,-3.7885156E-2,4.084122E-2,3.379654E-2,5.832525E-2,-1.1144958E-2,2.6218489E-2,-3.9817046E-2,2.7085308E-2,4.1177046E-2,6.625438E-2,4.848024E-2,-2.8779695E-2,-8.081636E-3,1.3812377E-2,-6.4117365E-2,4.8986374E-4,6.966003E-2,2.2976238E-2],"split_indices":[7,0,7,7,5,0,0,0,0,0,3,0,0,0,0,0,4,0,0,2,4,0,3,2,3,0,4,0,2,0,0,0,5,0,0,0,0,0,0,0,0,0,0,0,0,0,0,0,0,0,0,0,0,0,0,0,0,0,0,0,0],"split_type":[0,0,0,0,0,0,0,0,0,0,0,0,0,0,0,0,0,0,0,0,0,0,0,0,0,0,0,0,0,0,0,0,0,0,0,0,0,0,0,0,0,0,0,0,0,0,0,0,0,0,0,0,0,0,0,0,0,0,0,0,0],"sum_hessian":[3.9391816E3,1.0582655E3,2.8809163E3,2.0962847E3,7.8463153E2,9.201114E2,1.1761732E3,1.6377103E2,6.208605E2,2.981496E2,6.219618E2,1.1240284E3,5.2144825E1,1.23902954E2,3.9868065E1,6.098638E2,1.0996731E1,2.632146E2,3.4935017E1,4.1779434E2,2.0416743E2,1.0574542E3,6.657425E1,1.3974732E1,3.8170094E1,1.0153755E2,2.2365408E1,2.961916E1,1.0248905E1,3.366732E2,2.7319055E2,1.6057076E0,9.391024E0,2.3068744E2,3.252716E1,2.1912093E2,1.9867343E2,3.0109743E1,1.740577E2,1.13950356E2,9.4350385E2,5.9758804E1,6.8154445E0,6.5497384E0,7.424994E0,1.8235586E1,1.9934507E1,9.744659E0,9.179289E1,1.4479692E1,7.8857155E0,2.1668552E1,7.950609E0,5.496654E0,4.7522516E0,4.066034E1,2.9601285E2,1.7351087E0,2.7145544E2,4.383018E0,5.008005E0],"tree_param":{"num_deleted":"0","num_feature":"8","num_nodes":"61","size_leaf_vector":"1"}},{"base_weights":[-8.090205E-3,7.301337E-2,-5.372506E-1,-8.1970865E-1,1.9974647E-1,-9.697227E-1,-7.026193E-1,-9.650814E-1,2.2274457E-1,-1.096666E0,-8.214856E-1,-7.5114906E-1,8.102152E-1,-7.6589696E-2,-7.863842E-2,2.0703276E-1,7.956086E-1,-8.317948E-1,-1.1343724E0,-7.903366E-1,-1.3242372E0,-7.588897E-1,-1.06624685E-1,1.7376556E-1,5.386963E-2,4.054209E-2,-6.6834843E-1,2.7378082E-1,-4.302096E-2,-5.9559472E-2,9.600394E-1,-5.040555E-2,-6.6980445E-3,-5.967064E-2,-4.780085E-2,-2.7706018E-2,-4.1282337E-2,-7.0512295E-3,-7.358513E-2,-4.094204E-2,-3.3275627E-2,-2.6039854E-2,2.3505189E-2,3.4140803E-2,-7.0792496E-2,-6.327579E-2,3.3392176E-2,1.5068608E-2,-4.2803627E-3,-5.474726E-2,1.0654818E-3,-1.1276815E-2,8.293266E-3,5.3181708E-2,-9.2081464E-4],"categories":[],"categories_nodes":[],"categories_segments":[],"categories_sizes":[],"default_left":[0,0,0,0,0,0,0,0,0,0,0,0,0,0,0,0,0,0,0,0,0,0,0,0,0,0,0,0,0,0,0,0,0,0,0,0,0,0,0,0,0,0,0,0,0,0,0,0,0,0,0,0,0,0,0],"id":11,"left_children":[1,-1,3,5,7,9,11,13,15,17,19,21,23,-1,25,27,29,31,33,35,37,39,41,43,-1,-1,45,47,49,51,53,-1,-1,-1,-1,-1,-1,-1,-1,-1,-1,-1,-1,-1,-1,-1,-1,-1,-1,-1,-1,-1,-1,-1,-1],"loss_changes":[3.0233574E3,0E0,5.955923E2,3.5642944E1,2.1466473E1,1.6108582E1,8.6145996E1,7.689685E0,6.8446083E0,3.8897705E0,5.5458374E0,5.553528E0,6.052372E0,0E0,4.275166E0,1.2685188E1,2.9309072E0,7.746414E0,3.2910767E0,2.8695374E0,3.8194962E0,5.701538E0,3.7241828E0,1.0710778E1,0E0,0E0,4.697547E0,5.9701233E0,1.0907977E1,1.959528E-1,1.7629595E0,0E0,0E0,0E0,0E0,0E0,0E0,0E0,0E0,0E0,0E0,0E0,0E0,0E0,0E0,0E0,0E0,0E0,0E0,0E0,0E0,0E0,0E0,0E0,0E0],"parents":[2147483647,0,0,2,2,3,3,4,4,5,5,6,6,7,7,8,8,9,9,10,10,11,11,12,12,14,14,15,15,16,16,17,17,18,18,19,19,20,20,21,21,22,22,23,23,26,26,27,27,28,28,29,29,30,30],"right_children":[2,-1,4,6,8,10,12,14,16,18,20,22,24,-1,26,28,30,32,34,36,38,40,42,44,-1,-1,46,48,50,52,54,-1,-1,-1,-1,-1,-1,-1,-1,-1,-1,-1,-1,-1,-1,-1,-1,-1,-1,-1,-1,-1,-1,-1,-1],"split_conditions":[1E0,7.301337E-2,4E0,3E0,1E0,3.0823964E-1,-1.3576254E-1,-8.873726E-2,2.6913924E0,-2.4877888E-1,2E0,-1.7175409E-1,-9.450774E-2,-7.6589696E-2,2.9163381E-2,1.4772575E-1,1E0,-3.6268726E-1,2E0,4.4021738E-1,1E0,1E0,1E0,1E0,5.386963E-2,4.054209E-2,1.3859397E0,3E0,1.6709381E-1,3.8803887E0,4.382348E0,-5.040555E-2,-6.6980445E-3,-5.967064E-2,-4.780085E-2,-2.7706018E-2,-4.1282337E-2,-7.0512295E-3,-7.358513E-2,-4.094204E-2,-3.3275627E-2,-2.6039854E-2,2.3505189E-2,3.4140803E-2,-7.0792496E-2,-6.327579E-2,3.3392176E-2,1.5068608E-2,-4.2803627E-3,-5.474726E-2,1.0654818E-3,-1.1276815E-2,8.293266E-3,5.3181708E-2,-9.2081464E-4],"split_indices":[7,0,7,7,6,0,0,0,0,0,7,0,0,0,0,0,4,0,4,0,4,3,2,2,0,0,0,3,0,0,0,0,0,0,0,0,0,0,0,0,0,0,0,0,0,0,0,0,0,0,0,0,0,0,0],"split_type":[0,0,0,0,0,0,0,0,0,0,0,0,0,0,0,0,0,0,0,0,0,0,0,0,0,0,0,0,0,0,0,0,0,0,0,0,0,0,0,0,0,0,0,0,0,0,0,0,0,0,0,0,0,0,0],"sum_hessian":[3.8890725E3,1.0297839E3,2.8592886E3,2.0669907E3,7.9229767E2,9.0290875E2,1.164082E3,1.4546958E1,7.7775073E2,4.8294177E2,4.1996698E2,1.1283883E3,3.569374E1,8.429723E0,6.1172347E0,7.58314E2,1.9436718E1,6.3056404E1,4.1988538E2,3.9788712E2,2.2079866E1,1.1148221E3,1.3566195E1,1.1041619E1,2.4652122E1,2.289268E0,3.8279667E0,5.984673E2,1.5984671E2,3.2374158E0,1.6199303E1,4.998297E1,1.3073435E1,3.1118393E2,1.08701454E2,5.3913334E1,3.439738E2,2.6636834E0,1.9416183E1,6.741969E2,4.4062524E2,7.9523005E0,5.6138935E0,8.795458E0,2.2461612E0,2.6821578E0,1.145809E0,5.559469E2,4.2520382E1,8.288806E0,1.515579E2,1.8642802E0,1.3731356E0,1.4569673E1,1.6296295E0],"tree_param":{"num_deleted":"0","num_feature":"8","num_nodes":"55","size_leaf_vector":"1"}},{"base_weights":[-3.5057904E-3,7.133013E-2,-5.017665E-1,-7.647539E-1,1.8745038E-1,-8.939454E-1,-6.644816E-1,1.386381E-1,4.9595183E-1,-7.339584E-1,-1.0058193E0,-6.048657E-1,-8.5029435E-1,-6.329489E-1,1.5489541E-1,9.4376606E-1,3.8344994E-1,-7.779241E-1,5.0372165E-2,-1.0233263E0,-8.2386315E-1,-6.164937E-1,1.1252206E-1,-9.2442936E-1,-5.066979E-1,4.0903774E-1,-1.1378094E0,3.4836593E-1,1.1266144E-1,-6.375003E-4,1.1187791E0,6.1430043E-1,1.8108967E-1,-4.27373E-2,-3.3197805E-2,2.9672131E-2,-3.2575082E-2,-4.934552E-2,-6.513726E-2,-4.7280733E-2,-4.872517E-3,-1.7880954E-2,-3.2090094E-2,5.388105E-2,-6.9601047E-3,-5.7446368E-2,-4.2316765E-2,-7.17753E-2,-1.6444491E-2,3.992902E-2,-6.465611E-3,-6.832639E-2,-3.327618E-2,-1.2281472E-2,2.1210264E-2,2.169794E-2,2.6964797E-3,4.5282226E-2,-6.1715383E-2,6.381755E-2,9.30586E-3,4.660201E-2,1.7461741E-2,-8.537959E-2,1.8837838E-2],"categories":[],"categories_nodes":[],"categories_segments":[],"categories_sizes":[],"default_left":[0,0,0,0,0,0,0,0,0,0,0,0,0,0,0,0,0,0,0,0,0,0,0,0,0,0,0,0,0,0,0,0,0,0,0,0,0,0,0,0,0,0,0,0,0,0,0,0,0,0,0,0,0,0,0,0,0,0,0,0,0,0,0,0,0],"id":12,"left_children":[1,-1,3,5,7,9,11,13,15,17,19,21,23,25,27,29,31,33,35,37,39,41,43,45,47,49,51,53,55,57,59,61,63,-1,-1,-1,-1,-1,-1,-1,-1,-1,-1,-1,-1,-1,-1,-1,-1,-1,-1,-1,-1,-1,-1,-1,-1,-1,-1,-1,-1,-1,-1,-1,-1],"loss_changes":[2.7559763E3,0E0,5.2004205E2,2.6303223E1,1.1872749E1,1.5449585E1,1.24783325E1,8.703889E0,5.0762672E0,1.3000977E1,8.4375E-1,7.505768E0,6.725998E0,8.016186E0,5.457426E0,3.4697914E0,3.997531E0,2.5492554E0,8.349535E0,3.5875854E0,4.4722023E0,5.5188293E0,3.809808E0,3.0792694E0,8.171371E0,1.2399529E0,1.6353703E-1,5.5126038E0,1.0424088E1,5.904088E0,2.3648243E0,3.0995407E0,1.8488031E1,0E0,0E0,0E0,0E0,0E0,0E0,0E0,0E0,0E0,0E0,0E0,0E0,0E0,0E0,0E0,0E0,0E0,0E0,0E0,0E0,0E0,0E0,0E0,0E0,0E0,0E0,0E0,0E0,0E0,0E0,0E0,0E0],"parents":[2147483647,0,0,2,2,3,3,4,4,5,5,6,6,7,7,8,8,9,9,10,10,11,11,12,12,13,13,14,14,15,15,16,16,17,17,18,18,19,19,20,20,21,21,22,22,23,23,24,24,25,25,26,26,27,27,28,28,29,29,30,30,31,31,32,32],"right_children":[2,-1,4,6,8,10,12,14,16,18,20,22,24,26,28,30,32,34,36,38,40,42,44,46,48,50,52,54,56,58,60,62,64,-1,-1,-1,-1,-1,-1,-1,-1,-1,-1,-1,-1,-1,-1,-1,-1,-1,-1,-1,-1,-1,-1,-1,-1,-1,-1,-1,-1,-1,-1,-1,-1],"split_conditions":[1E0,7.133013E-2,4E0,3E0,6.176239E-1,-1.4490938E-1,1.8049598E-1,1E0,1E0,-1.8061693E-1,8.9041114E-1,1.5630485E-1,2E0,1E0,-6.7631984E-1,7.238862E-1,7.871935E-1,-5.6314117E-1,1E0,2E0,2E0,-8.9423853E-1,1E0,3.9576718E-1,3.190241E-1,-4.4800994E-1,2E0,1E0,1E0,6.290411E-1,1.5668029E0,2E0,8.475224E-1,-4.27373E-2,-3.3197805E-2,2.9672131E-2,-3.2575082E-2,-4.934552E-2,-6.513726E-2,-4.7280733E-2,-4.872517E-3,-1.7880954E-2,-3.2090094E-2,5.388105E-2,-6.9601047E-3,-5.7446368E-2,-4.2316765E-2,-7.17753E-2,-1.6444491E-2,3.992902E-2,-6.465611E-3,-6.832639E-2,-3.327618E-2,-1.2281472E-2,2.1210264E-2,2.169794E-2,2.6964797E-3,4.5282226E-2,-6.1715383E-2,6.381755E-2,9.30586E-3,4.660201E-2,1.7461741E-2,-8.537959E-2,1.8837838E-2],"split_indices":[7,0,7,7,1,1,1,6,5,1,1,1,4,5,1,1,1,1,2,7,4,1,5,1,1,1,5,4,4,1,1,5,1,0,0,0,0,0,0,0,0,0,0,0,0,0,0,0,0,0,0,0,0,0,0,0,0,0,0,0,0,0,0,0,0],"split_type":[0,0,0,0,0,0,0,0,0,0,0,0,0,0,0,0,0,0,0,0,0,0,0,0,0,0,0,0,0,0,0,0,0,0,0,0,0,0,0,0,0,0,0,0,0,0,0,0,0,0,0,0,0,0,0,0,0,0,0,0,0,0,0,0,0],"sum_hessian":[3.8656694E3,9.9834766E2,2.8673218E3,2.0753225E3,7.9199927E2,9.034266E2,1.171896E3,6.850564E2,1.06942856E2,3.748818E2,5.2854474E2,8.9045795E2,2.8143805E2,1.3353514E1,6.717029E2,1.9988733E1,8.6954124E1,3.5499094E2,1.989086E1,4.7793622E2,5.060854E1,8.7639325E2,1.4064711E1,2.3010068E2,5.133738E1,4.4202714E0,8.933243E0,1.19058174E2,5.526447E2,3.2808735E0,1.6707859E1,3.966688E1,4.7287243E1,2.0817052E2,1.4682042E2,1.1301152E1,8.589707E0,4.2683954E2,5.1096687E1,4.3085392E1,7.5231495E0,7.939541E1,7.9699786E2,2.230834E0,1.1833876E1,5.584637E1,1.742543E2,7.112224E0,4.4225155E1,2.2841249E0,2.1361465E0,4.7429123E0,4.1903305E0,1.3226403E1,1.0583177E2,8.4421455E1,4.6822324E2,2.044691E0,1.2361823E0,1.397782E1,2.7300384E0,1.6896465E1,2.2770416E1,3.7136934E0,4.3573547E1],"tree_param":{"num_deleted":"0","num_feature":"8","num_nodes":"65","size_leaf_vector":"1"}},{"base_weights":[3.2904109E-3,-6.440716E-1,3.3431627E-2,-6.816267E-1,1.6196495E-1,9.949613E-2,-5.0239626E-4,-4.9614683E-1,-8.881673E-1,5.6696143E-2,-3.6417815E-1,1.8822017E-1,-1.5397494E-2,-1.9928041E-1,6.3906256E-3,-6.753359E-1,-2.0267755E-1,-6.377088E-1,-9.5681804E-1,-5.0587844E-2,1.8744048E-1,2.1522593E-1,-7.838864E-2,-3.7087757E-2,-8.053748E-3,-3.647004E-1,4.3345776E-1,2.8307196E-1,5.4450403E-4,-8.7561965E-1,1.2429639E-1,-3.380926E-1,3.980705E-1,-8.601379E-1,1.969695E-1,-1.0075082E0,-4.0847263E-1,-3.874955E-2,3.8881894E-2,1.913634E-1,3.4954834E-1,-4.3959633E-1,1.8236046E-1,7.1452945E-2,-7.670396E-2,-7.900768E-1,-2.6327932E-1,6.9159365E-1,-2.236692E-1,7.1907175E-1,-5.293815E-1,2.4962515E-2,-2.6564937E-2,-5.6446996E-2,-2.5972888E-2,5.5095542E-2,-1.1700629E-2,1.6275411E-2,-2.5624355E-2,-4.7786698E-2,4.5851506E-2,-6.2023025E-2,-2.4460753E-2,4.926995E-2,-4.6271913E-2,-5.18299E-2,7.320214E-4,3.2674257E-2,-5.6755673E-2,1.0357286E-2,-2.0742197E-2,3.2574784E-2,8.150338E-3,-4.6612345E-2,-1.1061459E-2,2.7931636E-2,-4.4256914E-3,1.7370272E-4,1.064841E-2,-1.2880548E-2,3.649825E-3,-1.0934243E-2,-7.0995316E-2,-2.7000526E-2,-2.343485E-3,3.456426E-3,3.758004E-2,-3.4881633E-2,2.2081733E-2,5.789063E-2,2.05478E-2,-3.6582828E-2,9.415848E-3,1.4706965E-3,-6.480384E-2,-1.1892732E-2,-2.4134E-4],"categories":[],"categories_nodes":[],"categories_segments":[],"categories_sizes":[],"default_left":[0,0,0,0,0,0,0,0,0,0,0,0,0,0,0,0,0,0,0,0,0,0,0,0,0,0,0,0,0,0,0,0,0,0,0,0,0,0,0,0,0,0,0,0,0,0,0,0,0,0,0,0,0,0,0,0,0,0,0,0,0,0,0,0,0,0,0,0,0,0,0,0,0,0,0,0,0,0,0,0,0,0,0,0,0,0,0,0,0,0,0,0,0,0,0,0,0],"id":13,"left_children":[1,3,5,7,9,11,13,15,17,-1,19,21,23,25,27,29,31,33,35,-1,37,39,41,-1,43,45,47,49,51,53,55,57,59,61,63,65,67,-1,-1,69,71,73,75,77,79,81,83,85,87,89,91,93,95,-1,-1,-1,-1,-1,-1,-1,-1,-1,-1,-1,-1,-1,-1,-1,-1,-1,-1,-1,-1,-1,-1,-1,-1,-1,-1,-1,-1,-1,-1,-1,-1,-1,-1,-1,-1,-1,-1,-1,-1,-1,-1,-1,-1],"loss_changes":[7.4726524E1,5.267914E0,8.203451E0,5.8032074E0,4.7050176E0,1.2661074E1,3.315038E0,4.4979362E0,6.939926E-1,0E0,2.4051738E0,5.062231E0,2.8851662E0,8.64517E0,3.7822382E0,8.804298E0,2.9690175E0,3.7555819E0,1.1876411E0,0E0,2.9843595E0,1.973463E0,6.2196393E0,0E0,2.939718E0,2.5886326E0,3.082842E0,1.7519981E1,1.5172205E0,3.342205E0,4.3740726E0,3.5199194E0,5.701969E0,1.5709991E0,5.2286806E0,1.5608444E0,5.796423E0,0E0,0E0,5.2785645E0,5.234434E0,2.765254E0,3.9799824E0,2.4005723E0,7.8447237E0,4.000982E0,3.1992347E0,4.201045E-1,2.0815647E0,3.8380527E0,2.6744523E0,7.129157E0,4.987628E0,0E0,0E0,0E0,0E0,0E0,0E0,0E0,0E0,0E0,0E0,0E0,0E0,0E0,0E0,0E0,0E0,0E0,0E0,0E0,0E0,0E0,0E0,0E0,0E0,0E0,0E0,0E0,0E0,0E0,0E0,0E0,0E0,0E0,0E0,0E0,0E0,0E0,0E0,0E0,0E0,0E0,0E0,0E0,0E0],"parents":[2147483647,0,0,1,1,2,2,3,3,4,4,5,5,6,6,7,7,8,8,10,10,11,11,12,12,13,13,14,14,15,15,16,16,17,17,18,18,20,20,21,21,22,22,24,24,25,25,26,26,27,27,28,28,29,29,30,30,31,31,32,32,33,33,34,34,35,35,36,36,39,39,40,40,41,41,42,42,43,43,44,44,45,45,46,46,47,47,48,48,49,49,50,50,51,51,52,52],"right_children":[2,4,6,8,10,12,14,16,18,-1,20,22,24,26,28,30,32,34,36,-1,38,40,42,-1,44,46,48,50,52,54,56,58,60,62,64,66,68,-1,-1,70,72,74,76,78,80,82,84,86,88,90,92,94,96,-1,-1,-1,-1,-1,-1,-1,-1,-1,-1,-1,-1,-1,-1,-1,-1,-1,-1,-1,-1,-1,-1,-1,-1,-1,-1,-1,-1,-1,-1,-1,-1,-1,-1,-1,-1,-1,-1,-1,-1,-1,-1,-1,-1],"split_conditions":[1E0,2.4863966E0,-2.4319616E-1,-1.5510209E-1,1E0,2E0,-1.8061693E-1,-6.172816E-1,1E0,5.6696143E-2,1E0,3E0,-1.1568661E0,2E0,-1.5510209E-1,2E0,1E0,3.6724088E-1,7.0760435E-1,-5.0587844E-2,2E0,-3.636554E-1,1E0,-3.7087757E-2,-6.879687E-1,1E0,-1.929276E-1,1E0,3.3363648E-2,2E0,1E0,1E0,1E0,1E0,5.332694E-1,4E0,7.548945E-1,-3.874955E-2,3.8881894E-2,-3.884422E-1,1E0,-8.364909E-1,-8.6865747E-1,-7.914511E-1,-4.7647008E-1,-2.2588842E-1,-2.1513313E-1,-2.3469122E-1,1E0,1E0,1E0,4E0,1.1195998E-1,-5.6446996E-2,-2.5972888E-2,5.5095542E-2,-1.1700629E-2,1.6275411E-2,-2.5624355E-2,-4.7786698E-2,4.5851506E-2,-6.2023025E-2,-2.4460753E-2,4.926995E-2,-4.6271913E-2,-5.18299E-2,7.320214E-4,3.2674257E-2,-5.6755673E-2,1.0357286E-2,-2.0742197E-2,3.2574784E-2,8.150338E-3,-4.6612345E-2,-1.1061459E-2,2.7931636E-2,-4.4256914E-3,1.7370272E-4,1.064841E-2,-1.2880548E-2,3.649825E-3,-1.0934243E-2,-7.0995316E-2,-2.7000526E-2,-2.343485E-3,3.456426E-3,3.758004E-2,-3.4881633E-2,2.2081733E-2,5.789063E-2,2.05478E-2,-3.6582828E-2,9.415848E-3,1.4706965E-3,-6.480384E-2,-1.1892732E-2,-2.4134E-4],"split_indices":[6,1,1,1,4,5,1,1,5,0,2,3,1,4,1,4,3,1,1,0,5,1,2,0,1,5,1,2,1,5,5,4,2,2,1,3,1,0,0,1,5,1,1,1,1,1,1,1,2,4,3,3,1,0,0,0,0,0,0,0,0,0,0,0,0,0,0,0,0,0,0,0,0,0,0,0,0,0,0,0,0,0,0,0,0,0,0,0,0,0,0,0,0,0,0,0,0],"split_type":[0,0,0,0,0,0,0,0,0,0,0,0,0,0,0,0,0,0,0,0,0,0,0,0,0,0,0,0,0,0,0,0,0,0,0,0,0,0,0,0,0,0,0,0,0,0,0,0,0,0,0,0,0,0,0,0,0,0,0,0,0,0,0,0,0,0,0,0,0,0,0,0,0,0,0,0,0,0,0,0,0,0,0,0,0,0,0,0,0,0,0,0,0,0,0,0,0],"sum_hessian":[3.8276147E3,1.6937932E2,3.6582354E3,1.6198634E2,7.3929615E0,1.240749E3,2.4174863E3,8.713691E1,7.484944E1,2.1907575E0,5.2022038E0,6.997469E2,5.410022E2,8.008614E1,2.3374001E3,5.3294605E1,3.3842304E1,1.8316074E1,5.6533367E1,2.009256E0,3.192948E0,6.3556134E2,6.418556E1,4.4140177E0,5.3658813E2,6.3823936E1,1.6262207E1,4.7384777E1,2.2900154E3,4.254367E1,1.0750935E1,2.79739E1,5.868403E0,1.443805E1,3.8780236E0,5.0983032E1,5.550334E0,1.0947086E0,2.0982394E0,5.417444E2,9.381696E1,2.6621593E1,3.756397E1,2.4861539E2,2.8797275E2,1.0980384E1,5.284355E1,1.1638042E1,4.624164E0,3.0911297E1,1.647348E1,1.2048566E3,1.0851589E3,2.3593239E1,1.8950434E1,2.3268957E0,8.424039E0,5.641297E0,2.2332603E1,1.3929622E0,4.475441E0,5.971236E0,8.466814E0,2.3496153E0,1.5284082E0,4.955849E1,1.4245415E0,2.2957945E0,3.2545395E0,5.286398E2,1.3104602E1,3.4874508E1,5.894246E1,7.1719756E0,1.9449617E1,1.5278385E1,2.2285583E1,1.6863411E2,7.9981285E1,1.300689E2,1.5790387E2,6.463658E0,4.5167265E0,2.2533627E1,3.0309925E1,1.2125065E0,1.0425535E1,2.6720202E0,1.9521437E0,1.161476E1,1.9296535E1,1.2836276E1,3.637205E0,1.2017847E3,3.0718381E0,1.0030225E2,9.848567E2],"tree_param":{"num_deleted":"0","num_feature":"8","num_nodes":"97","size_leaf_vector":"1"}},{"base_weights":[2.7894995E-3,6.982608E-2,-4.7212046E-1,-7.3359454E-1,1.9885884E-1,-8.506027E-1,-6.4218855E-1,-7.2375846E-1,2.17545E-1,-9.550292E-1,-7.3141634E-1,-6.9576377E-1,8.587547E-1,-1.0665911E0,-2.4091157E-1,-3.8090965E-1,2.4434683E-1,-8.3677393E-1,-1.0280267E0,-1.3180757E-1,-7.711091E-1,-7.828047E-1,-6.4692235E-1,-6.8241346E-1,1.0076149E0,-6.948533E-2,2.0995803E-2,4.8183283E-1,-6.1689224E-2,-2.0200361E-1,-1.121684E0,2.159046E-1,6.3576734E-1,-4.4153243E-2,3.6664156E-3,-4.8441093E-2,-6.418287E-2,-4.76575E-2,1.2801987E-2,-6.0176503E-2,-3.560081E-2,-2.8235076E-2,-4.5762338E-2,-1.1513039E-2,-3.4223717E-2,6.7201587E-3,-6.395283E-2,2.2818794E-2,5.766225E-2,-4.7150936E-2,6.1702795E-2,4.447169E-3,-2.73219E-2,-7.937081E-2,6.636818E-3,1.1500329E-2,-6.520629E-2,3.962144E-2,-2.1364285E-2],"categories":[],"categories_nodes":[],"categories_segments":[],"categories_sizes":[],"default_left":[0,0,0,0,0,0,0,0,0,0,0,0,0,0,0,0,0,0,0,0,0,0,0,0,0,0,0,0,0,0,0,0,0,0,0,0,0,0,0,0,0,0,0,0,0,0,0,0,0,0,0,0,0,0,0,0,0,0,0],"id":14,"left_children":[1,-1,3,5,7,9,11,13,15,17,19,21,23,25,27,29,31,33,35,37,39,41,43,45,47,-1,-1,49,-1,51,53,55,57,-1,-1,-1,-1,-1,-1,-1,-1,-1,-1,-1,-1,-1,-1,-1,-1,-1,-1,-1,-1,-1,-1,-1,-1,-1,-1],"loss_changes":[2.5271597E3,0E0,4.9975885E2,2.1372437E1,1.3938009E1,1.0450012E1,9.3446686E1,2.4079838E0,1.2671856E1,3.2328491E0,9.955734E0,4.2353516E0,9.919788E0,4.9652853E0,6.3181667E0,4.2803335E0,8.225994E0,7.91568E0,3.1273499E0,8.986147E0,9.265457E0,1.0926636E1,1.1111725E1,2.1898973E0,2.4520302E0,0E0,0E0,6.882041E0,0E0,2.9157977E0,3.9472685E0,1.5344376E1,8.727995E0,0E0,0E0,0E0,0E0,0E0,0E0,0E0,0E0,0E0,0E0,0E0,0E0,0E0,0E0,0E0,0E0,0E0,0E0,0E0,0E0,0E0,0E0,0E0,0E0,0E0,0E0],"parents":[2147483647,0,0,2,2,3,3,4,4,5,5,6,6,7,7,8,8,9,9,10,10,11,11,12,12,13,13,14,14,15,15,16,16,17,17,18,18,19,19,20,20,21,21,22,22,23,23,24,24,27,27,29,29,30,30,31,31,32,32],"right_children":[2,-1,4,6,8,10,12,14,16,18,20,22,24,26,28,30,32,34,36,38,40,42,44,46,48,-1,-1,50,-1,52,54,56,58,-1,-1,-1,-1,-1,-1,-1,-1,-1,-1,-1,-1,-1,-1,-1,-1,-1,-1,-1,-1,-1,-1,-1,-1,-1,-1],"split_conditions":[1E0,6.982608E-2,4E0,3E0,1E0,3.0823964E-1,-1.3576254E-1,-8.873726E-2,-8.034522E-1,-1.6552643E-1,-9.315345E-1,-6.5174925E-1,-3.0064595E-1,4.5576516E-1,-2.8274253E-1,-8.0936694E-1,8.475224E-1,-2.0427857E-1,1.525736E-1,-1.005233E0,-6.7631984E-1,-7.908006E-1,-6.076974E-1,-8.287471E-1,-1.0143844E-1,-6.948533E-2,2.0995803E-2,-6.4243245E-1,-6.1689224E-2,2E0,1.1195998E-1,7.871935E-1,2E0,-4.4153243E-2,3.6664156E-3,-4.8441093E-2,-6.418287E-2,-4.76575E-2,1.2801987E-2,-6.0176503E-2,-3.560081E-2,-2.8235076E-2,-4.5762338E-2,-1.1513039E-2,-3.4223717E-2,6.7201587E-3,-6.395283E-2,2.2818794E-2,5.766225E-2,-4.7150936E-2,6.1702795E-2,4.447169E-3,-2.73219E-2,-7.937081E-2,6.636818E-3,1.1500329E-2,-6.520629E-2,3.962144E-2,-2.1364285E-2],"split_indices":[7,0,7,7,6,0,0,0,0,1,1,0,1,1,1,0,1,1,0,1,1,0,0,1,0,0,0,1,0,4,1,1,4,0,0,0,0,0,0,0,0,0,0,0,0,0,0,0,0,0,0,0,0,0,0,0,0,0,0],"split_type":[0,0,0,0,0,0,0,0,0,0,0,0,0,0,0,0,0,0,0,0,0,0,0,0,0,0,0,0,0,0,0,0,0,0,0,0,0,0,0,0,0,0,0,0,0,0,0,0,0,0,0,0,0,0,0,0,0,0,0],"sum_hessian":[3.8160586E3,9.6934705E2,2.8467117E3,2.0483833E3,7.9832825E2,8.9473444E2,1.1536488E3,1.5098869E1,7.832294E2,4.7315823E2,4.215762E2,1.1144072E3,3.9241627E1,8.12264E0,6.976229E0,3.300703E1,7.5022235E2,1.8535237E2,2.8780588E2,2.6442957E1,3.9513324E2,3.9515988E2,7.192474E2,3.1407533E0,3.6100872E1,6.7258024E0,1.3968377E0,4.3352027E0,2.6410265E0,2.7611265E1,5.395766E0,7.008475E2,4.9374878E1,1.7640929E2,8.943084E0,2.3757312E2,5.0232758E1,8.014067E0,1.842889E1,4.5176994E1,3.4995624E2,1.5128693E2,2.4387296E2,6.0053223E1,6.5919415E2,1.6527877E0,1.4879655E0,8.408153E0,2.769272E1,1.4102613E0,2.9249415E0,1.5369918E1,1.2241347E1,3.741274E0,1.6544915E0,6.9524603E2,5.60142E0,4.325499E1,6.119886E0],"tree_param":{"num_deleted":"0","num_feature":"8","num_nodes":"59","size_leaf_vector":"1"}},{"base_weights":[-3.4788502E-3,6.847914E-2,-4.496396E-1,-7.157052E-1,2.0780371E-1,-8.516664E-1,-6.113575E-1,1.9086538E-1,1.0313667E0,-1.0486602E0,-7.6146865E-1,-6.7114395E-1,5.892405E-1,-6.9338053E-1,2.0850189E-1,-4.0189824E-3,5.7986517E-2,-1.0818869E0,-2.9940817E-1,-5.6917256E-1,-8.893666E-1,-6.26838E-1,-8.094321E-1,2.4317628E-1,8.916465E-1,-9.67396E-1,2.7381316E-2,1.95788E-1,7.2862864E-1,-6.9612406E-2,-5.1542398E-2,3.1120827E-2,-4.439838E-2,-3.1811755E-2,2.8915187E-2,-4.531333E-2,-5.0305184E-3,-3.2622274E-2,7.124529E-3,-4.46735E-2,-2.0670567E-2,2.1263056E-2,-2.2805944E-2,2.4993187E-2,5.028193E-2,-5.6357782E-2,-4.110685E-3,-9.460808E-3,1.0689076E-2,4.301478E-2,-1.4495948E-2],"categories":[],"categories_nodes":[],"categories_segments":[],"categories_sizes":[],"default_left":[0,0,0,0,0,0,0,0,0,0,0,0,0,0,0,0,0,0,0,0,0,0,0,0,0,0,0,0,0,0,0,0,0,0,0,0,0,0,0,0,0,0,0,0,0,0,0,0,0,0,0],"id":15,"left_children":[1,-1,3,5,7,9,11,13,15,17,19,21,23,25,27,-1,-1,29,31,33,35,37,39,41,43,45,-1,47,49,-1,-1,-1,-1,-1,-1,-1,-1,-1,-1,-1,-1,-1,-1,-1,-1,-1,-1,-1,-1,-1,-1],"loss_changes":[2.2947827E3,0E0,4.9469916E2,2.8037354E1,1.1176582E1,1.4686951E1,8.239746E1,1.2622286E1,2.4056034E0,6.424286E0,1.4286072E1,6.163025E0,5.510042E0,5.928997E0,5.0499535E0,0E0,0E0,2.670227E0,7.5477567E0,1.9069077E1,4.7000427E0,1.6423798E1,8.308075E0,3.618463E0,7.848072E-1,1.7976847E0,0E0,5.3598843E0,2.712819E0,0E0,0E0,0E0,0E0,0E0,0E0,0E0,0E0,0E0,0E0,0E0,0E0,0E0,0E0,0E0,0E0,0E0,0E0,0E0,0E0,0E0,0E0],"parents":[2147483647,0,0,2,2,3,3,4,4,5,5,6,6,7,7,8,8,9,9,10,10,11,11,12,12,13,13,14,14,17,17,18,18,19,19,20,20,21,21,22,22,23,23,24,24,25,25,27,27,28,28],"right_children":[2,-1,4,6,8,10,12,14,16,18,20,22,24,26,28,-1,-1,30,32,34,36,38,40,42,44,46,-1,48,50,-1,-1,-1,-1,-1,-1,-1,-1,-1,-1,-1,-1,-1,-1,-1,-1,-1,-1,-1,-1,-1,-1],"split_conditions":[1E0,6.847914E-2,4E0,3E0,2.886086E0,3.8975682E-2,-1.7175409E-1,1E0,-7.1414536E-1,2.4863966E0,-1.5510209E-1,1.6937667E-1,-1.0143844E-1,3E0,3.7346387E0,-4.0189824E-3,5.7986517E-2,-4.4115797E-1,1E0,-1.8061693E-1,4.382348E0,1.1195998E-1,2E0,-1.4371802E-1,-1.7323716E-1,6.6997737E-1,2.7381316E-2,-8.034522E-1,4.3444563E-2,-6.9612406E-2,-5.1542398E-2,3.1120827E-2,-4.439838E-2,-3.1811755E-2,2.8915187E-2,-4.531333E-2,-5.0305184E-3,-3.2622274E-2,7.124529E-3,-4.46735E-2,-2.0670567E-2,2.1263056E-2,-2.2805944E-2,2.4993187E-2,5.028193E-2,-5.6357782E-2,-4.110685E-3,-9.460808E-3,1.0689076E-2,4.301478E-2,-1.4495948E-2],"split_indices":[7,0,7,7,0,0,0,6,1,1,1,1,0,3,1,0,0,0,6,1,0,1,4,1,1,1,0,0,0,0,0,0,0,0,0,0,0,0,0,0,0,0,0,0,0,0,0,0,0,0,0],"split_type":[0,0,0,0,0,0,0,0,0,0,0,0,0,0,0,0,0,0,0,0,0,0,0,0,0,0,0,0,0,0,0,0,0,0,0,0,0,0,0,0,0,0,0,0,0,0,0,0,0,0,0],"sum_hessian":[3.7439292E3,9.176837E2,2.8262456E3,2.0119327E3,8.143128E2,8.705184E2,1.1414144E3,7.9910913E2,1.520363E1,2.7006482E2,6.0045355E2,1.0876914E3,5.3723038E1,1.4877501E1,7.842316E2,1.6124192E0,1.3591211E1,2.5817184E2,1.1892984E1,2.4202162E2,3.5843195E2,8.2795654E2,2.5973483E2,2.5894407E1,2.7828632E1,1.236727E1,2.5102305E0,7.66863E2,1.7368656E1,3.2749355E1,2.2542249E2,4.611986E0,7.280998E0,2.29079E2,1.2942631E1,3.507674E2,7.6645374E0,8.014325E2,2.6524044E1,2.1323012E2,4.6504734E1,2.085578E1,5.0386267E0,7.485743E0,2.034289E1,1.024489E1,2.1223798E0,3.381496E1,7.3304803E2,1.5518023E1,1.850634E0],"tree_param":{"num_deleted":"0","num_feature":"8","num_nodes":"51","size_leaf_vector":"1"}},{"base_weights":[1.658255E-2,6.724806E-2,-4.2209154E-1,-6.561147E-1,1.6591075E-1,-7.7549165E-1,-5.640755E-1,-2.0032065E-1,1.9035113E-1,-9.6133333E-1,-6.645246E-1,-6.149873E-1,9.000539E-1,4.6201113E-1,-4.0893877E-1,5.946411E-1,1.6182639E-1,-1.0443662E0,-7.071893E-1,-6.371942E-1,-6.9195695E-2,-3.5179E-1,-6.437551E-1,3.658287E-1,5.9259385E-2,-4.9166104E-1,5.8871347E-2,-2.5229573E-1,-9.797348E-1,1.0225279E0,4.7710058E-1,1.4389756E-1,7.2627753E-1,-5.915925E-2,-4.371878E-2,-3.9328296E-2,1.8530488E-2,-3.0286247E-2,-5.717783E-2,-1.0761361E-2,-7.19195E-2,-4.1663386E-2,-2.8429288E-2,3.8476512E-3,5.719463E-2,-6.8542525E-2,1.9351598E-2,-2.291449E-2,3.964028E-2,-6.5070346E-2,2.5178803E-2,3.15657E-2,6.412931E-2,8.569292E-3,3.28008E-2,1.690985E-2,5.459161E-3,-1.122195E-2,4.1497838E-2],"categories":[],"categories_nodes":[],"categories_segments":[],"categories_sizes":[],"default_left":[0,0,0,0,0,0,0,0,0,0,0,0,0,0,0,0,0,0,0,0,0,0,0,0,0,0,0,0,0,0,0,0,0,0,0,0,0,0,0,0,0,0,0,0,0,0,0,0,0,0,0,0,0,0,0,0,0,0,0],"id":16,"left_children":[1,-1,3,5,7,9,11,13,15,17,19,21,23,25,27,29,31,33,35,37,-1,39,41,43,-1,45,-1,47,49,51,53,55,57,-1,-1,-1,-1,-1,-1,-1,-1,-1,-1,-1,-1,-1,-1,-1,-1,-1,-1,-1,-1,-1,-1,-1,-1,-1,-1],"loss_changes":[2.1595327E3,0E0,3.8347223E2,2.146051E1,7.1444855E0,1.7199097E1,8.4713104E1,7.1191454E0,8.492729E0,6.0384216E0,9.830246E0,8.039398E0,5.407528E0,9.095875E0,3.2105517E0,1.9620113E0,6.949751E0,4.628174E0,7.322464E0,7.7009125E0,0E0,1.5979162E1,1.3528351E1,3.2364068E0,0E0,5.2091193E0,0E0,7.186051E0,4.463249E0,1.692648E-1,2.0802774E0,4.528434E0,2.2771673E0,0E0,0E0,0E0,0E0,0E0,0E0,0E0,0E0,0E0,0E0,0E0,0E0,0E0,0E0,0E0,0E0,0E0,0E0,0E0,0E0,0E0,0E0,0E0,0E0,0E0,0E0],"parents":[2147483647,0,0,2,2,3,3,4,4,5,5,6,6,7,7,8,8,9,9,10,10,11,11,12,12,13,13,14,14,15,15,16,16,17,17,18,18,19,19,21,21,22,22,23,23,25,25,27,27,28,28,29,29,30,30,31,31,32,32],"right_children":[2,-1,4,6,8,10,12,14,16,18,20,22,24,26,28,30,32,34,36,38,-1,40,42,44,-1,46,-1,48,50,52,54,56,58,-1,-1,-1,-1,-1,-1,-1,-1,-1,-1,-1,-1,-1,-1,-1,-1,-1,-1,-1,-1,-1,-1,-1,-1,-1,-1],"split_conditions":[1E0,6.724806E-2,4E0,3E0,-7.928863E-1,9.040717E-2,-1.3576254E-1,-8.3002204E-1,-7.62658E-1,2E0,1.2154856E0,-8.0131394E-1,-7.666282E-2,1E0,-8.0131394E-1,-7.914511E-1,2.6913924E0,-2.1355676E-2,2.4863966E0,2E0,-6.9195695E-2,5.332694E-1,-6.5174925E-1,3.402368E-1,5.9259385E-2,-8.3670497E-1,5.8871347E-2,-8.034522E-1,5.332694E-1,-7.852502E-1,-7.803411E-1,1E0,-8.194148E-1,-5.915925E-2,-4.371878E-2,-3.9328296E-2,1.8530488E-2,-3.0286247E-2,-5.717783E-2,-1.0761361E-2,-7.19195E-2,-4.1663386E-2,-2.8429288E-2,3.8476512E-3,5.719463E-2,-6.8542525E-2,1.9351598E-2,-2.291449E-2,3.964028E-2,-6.5070346E-2,2.5178803E-2,3.15657E-2,6.412931E-2,8.569292E-3,3.28008E-2,1.690985E-2,5.459161E-3,-1.122195E-2,4.1497838E-2],"split_indices":[7,0,7,7,0,0,0,0,0,7,1,0,0,2,0,1,0,0,1,7,0,1,0,1,0,0,0,0,1,0,0,4,1,0,0,0,0,0,0,0,0,0,0,0,0,0,0,0,0,0,0,0,0,0,0,0,0,0,0],"split_type":[0,0,0,0,0,0,0,0,0,0,0,0,0,0,0,0,0,0,0,0,0,0,0,0,0,0,0,0,0,0,0,0,0,0,0,0,0,0,0,0,0,0,0,0,0,0,0,0,0,0,0,0,0,0,0,0,0,0,0],"sum_hessian":[3.7039448E3,9.189983E2,2.7849465E3,1.9920149E3,7.929317E2,8.6398254E2,1.1280323E3,4.915553E1,7.437762E2,3.2014972E2,5.438328E2,1.0906863E3,3.7346146E1,1.1483257E1,3.767227E1,4.771075E1,6.960654E2,2.3896625E2,8.118347E1,5.2574493E2,1.8087896E1,1.08770454E2,9.819158E2,1.379079E1,2.3555357E1,5.0560894E0,6.4271674E0,3.0691608E1,6.9806633E0,8.622519E0,3.9088234E1,6.758531E2,2.0212374E1,1.2826303E2,1.1070322E2,7.586636E1,5.317109E0,4.970506E2,2.8694347E1,9.769084E1,1.1079613E1,2.759986E2,7.059172E2,1.0858284E1,2.9325056E0,2.247359E0,2.8087304E0,2.6107244E1,4.5843635E0,5.8373947E0,1.1432688E0,4.8117037E0,3.8108149E0,1.5153387E1,2.3934845E1,1.0112191E2,5.7473114E2,1.872961E0,1.8339413E1],"tree_param":{"num_deleted":"0","num_feature":"8","num_nodes":"59","size_leaf_vector":"1"}},{"base_weights":[-4.207104E-3,-6.348773E-1,2.3298403E-2,-6.524731E-1,1.280728E-1,6.564891E-2,-2.8277675E-2,-5.077991E-1,-7.9111177E-1,4.453936E-2,-4.158844E-1,4.083509E-2,2.5654605E-1,3.604883E-2,-9.726836E-2,-8.4058046E-1,-2.8616428E-1,-8.1897014E-1,1.5564364E-2,-3.631418E-2,3.877151E-3,5.0370894E-2,-5.604123E-1,8.952801E-1,2.039445E-1,1.7511517E-2,7.100311E-1,-6.6843665E-1,-8.427302E-2,-1.0029608E0,-7.244569E-2,3.5815546E-1,-4.7245765E-1,-5.728348E-1,-9.368754E-1,1.5007608E-1,3.7728753E-3,5.081192E-1,-7.3998576E-1,-5.338019E-1,1.1839918E0,-6.065265E-2,2.262824E-1,-1.5664449E-2,1.9668293E-1,9.167821E-1,-1.6331665E-1,-7.2829895E-2,-1.6129395E-1,2.4508763E-2,-1.3327692E-1,-1.1574073E-2,-5.916301E-2,-4.999022E-2,3.30563E-2,-2.5450648E-3,7.771822E-2,-6.270421E-2,-1.1517736E-2,-3.9164435E-2,1.8961774E-2,-3.6055777E-2,-6.648417E-2,-7.1398686E-3,9.071411E-3,2.0740526E-3,-7.813388E-3,4.8665136E-2,-4.41199E-3,-1.44919185E-2,-5.280903E-2,-4.3252576E-2,4.4156043E-3,7.6113425E-2,2.4007732E-2,2.5704388E-2,6.76584E-3,-5.560246E-7,-4.0411618E-2,2.7548028E-2,5.543876E-3,-1.1385777E-2,5.2245986E-2,-4.8481632E-2,2.052013E-2,1.8455572E-2,-2.4282519E-2,-2.463782E-3,1.9598132E-2,-5.4332763E-2,-5.472757E-3],"categories":[],"categories_nodes":[],"categories_segments":[],"categories_sizes":[],"default_left":[0,0,0,0,0,0,0,0,0,0,0,0,0,0,0,0,0,0,0,0,0,0,0,0,0,0,0,0,0,0,0,0,0,0,0,0,0,0,0,0,0,0,0,0,0,0,0,0,0,0,0,0,0,0,0,0,0,0,0,0,0,0,0,0,0,0,0,0,0,0,0,0,0,0,0,0,0,0,0,0,0,0,0,0,0,0,0,0,0,0,0],"id":17,"left_children":[1,3,5,7,9,11,13,15,17,-1,19,21,23,25,27,29,31,33,-1,-1,-1,35,37,39,41,43,45,47,49,51,53,55,57,59,61,63,65,67,69,71,73,-1,75,77,79,81,83,-1,85,87,89,-1,-1,-1,-1,-1,-1,-1,-1,-1,-1,-1,-1,-1,-1,-1,-1,-1,-1,-1,-1,-1,-1,-1,-1,-1,-1,-1,-1,-1,-1,-1,-1,-1,-1,-1,-1,-1,-1,-1,-1],"loss_changes":[6.295359E1,2.1195755E0,7.597847E0,2.5749283E0,2.1357157E0,9.036403E0,6.9653053E0,5.32176E0,2.5273018E0,0E0,5.411117E-1,9.725485E0,7.192568E0,1.0139079E1,5.5638695E0,3.623331E0,5.7847013E0,1.5656815E0,0E0,0E0,0E0,7.7392187E0,5.4586763E0,7.401326E0,6.7348976E0,4.709677E0,4.072379E0,6.440239E0,3.955905E0,3.1177273E0,4.911959E0,5.491707E0,6.6600876E0,5.5139017E0,3.0589905E0,4.8976393E0,6.863979E0,1.3076311E0,2.979639E0,7.8668463E-1,2.5928364E0,0E0,5.213052E0,8.300053E0,3.7016888E0,2.8362074E0,2.714276E0,0E0,2.1209235E0,6.2857537E0,1.149449E1,0E0,0E0,0E0,0E0,0E0,0E0,0E0,0E0,0E0,0E0,0E0,0E0,0E0,0E0,0E0,0E0,0E0,0E0,0E0,0E0,0E0,0E0,0E0,0E0,0E0,0E0,0E0,0E0,0E0,0E0,0E0,0E0,0E0,0E0,0E0,0E0,0E0,0E0,0E0,0E0],"parents":[2147483647,0,0,1,1,2,2,3,3,4,4,5,5,6,6,7,7,8,8,10,10,11,11,12,12,13,13,14,14,15,15,16,16,17,17,21,21,22,22,23,23,24,24,25,25,26,26,27,27,28,28,29,29,30,30,31,31,32,32,33,33,34,34,35,35,36,36,37,37,38,38,39,39,40,40,42,42,43,43,44,44,45,45,46,46,48,48,49,49,50,50],"right_children":[2,4,6,8,10,12,14,16,18,-1,20,22,24,26,28,30,32,34,-1,-1,-1,36,38,40,42,44,46,48,50,52,54,56,58,60,62,64,66,68,70,72,74,-1,76,78,80,82,84,-1,86,88,90,-1,-1,-1,-1,-1,-1,-1,-1,-1,-1,-1,-1,-1,-1,-1,-1,-1,-1,-1,-1,-1,-1,-1,-1,-1,-1,-1,-1,-1,-1,-1,-1,-1,-1,-1,-1,-1,-1,-1,-1],"split_conditions":[1E0,6.364356E0,2E0,-1.5510209E-1,1E0,1.2050986E0,-4.6349508E-1,-8.462865E-1,5.105852E0,4.453936E-2,2E0,1.0385854E0,-9.628738E-1,-4.6992293E-1,-4.55856E-1,2E0,-7.670614E-1,-4.6349508E-1,1.5564364E-2,-3.631418E-2,3.877151E-3,-2.8909642E-1,-7.914511E-1,-1.005233E0,-9.009234E-1,-5.28479E-1,3.30011E-1,-1.6552643E-1,-3.3102548E-1,-6.8515366E-1,-5.5147763E-2,-7.732829E-1,-6.172816E-1,7.0760435E-1,1.4482151E-1,-9.628738E-1,1.4772575E-1,1E0,1.084296E0,2.6913924E0,2.0309978E0,-6.065265E-2,1.5619154E0,-5.368352E-1,1E0,-9.50497E-1,9.07057E-1,-7.2829895E-2,1E0,-4.4800994E-1,-2.8274253E-1,-1.1574073E-2,-5.916301E-2,-4.999022E-2,3.30563E-2,-2.5450648E-3,7.771822E-2,-6.270421E-2,-1.1517736E-2,-3.9164435E-2,1.8961774E-2,-3.6055777E-2,-6.648417E-2,-7.1398686E-3,9.071411E-3,2.0740526E-3,-7.813388E-3,4.8665136E-2,-4.41199E-3,-1.44919185E-2,-5.280903E-2,-4.3252576E-2,4.4156043E-3,7.6113425E-2,2.4007732E-2,2.5704388E-2,6.76584E-3,-5.560246E-7,-4.0411618E-2,2.7548028E-2,5.543876E-3,-1.1385777E-2,5.2245986E-2,-4.8481632E-2,2.052013E-2,1.8455572E-2,-2.4282519E-2,-2.463782E-3,1.9598132E-2,-5.4332763E-2,-5.472757E-3],"split_indices":[6,1,5,1,4,0,0,1,0,0,5,0,1,0,0,4,1,0,0,0,0,1,1,1,1,0,1,1,1,0,0,1,1,1,1,1,0,5,0,0,0,0,0,0,4,1,1,0,4,1,1,0,0,0,0,0,0,0,0,0,0,0,0,0,0,0,0,0,0,0,0,0,0,0,0,0,0,0,0,0,0,0,0,0,0,0,0,0,0,0,0],"split_type":[0,0,0,0,0,0,0,0,0,0,0,0,0,0,0,0,0,0,0,0,0,0,0,0,0,0,0,0,0,0,0,0,0,0,0,0,0,0,0,0,0,0,0,0,0,0,0,0,0,0,0,0,0,0,0,0,0,0,0,0,0,0,0,0,0,0,0,0,0,0,0,0,0,0,0,0,0,0,0,0,0,0,0,0,0,0,0,0,0,0,0],"sum_hessian":[3.627244E3,1.506616E2,3.4765823E3,1.4740678E2,3.2548075E0,1.908878E3,1.5677042E3,7.4415016E1,7.2991776E1,1.089521E0,2.1652865E0,1.6903689E3,2.1850923E2,8.115227E2,7.561815E2,2.8631943E1,4.5783073E1,7.144345E1,1.5483254E0,1.0394726E0,1.125814E0,1.66488E3,2.5488834E1,1.540676E1,2.0310246E2,7.9079846E2,2.0724262E1,1.5700047E1,7.4048145E2,2.338314E1,5.2488036E0,1.0061508E1,3.5721565E1,2.5036486E1,4.6406963E1,5.2956213E2,1.1353179E3,3.4040189E0,2.2084816E1,2.4467556E0,1.2960004E1,2.3248003E0,2.0077766E2,6.680185E2,1.2277992E2,1.671704E1,4.007223E0,5.4139485E0,1.0286098E1,2.301285E2,5.1035297E2,4.8622093E0,1.8520931E1,2.1579118E0,3.090892E0,8.211085E0,1.8504229E0,7.459309E0,2.8262257E1,2.064927E1,4.3872166E0,3.1784372E1,1.4622592E1,5.0864147E1,4.7869797E2,9.1942676E2,2.1589111E2,1.5572373E0,1.8467816E0,9.903067E0,1.2181749E1,1.3418002E0,1.1049556E0,7.9677496E0,4.9922547E0,4.7101654E1,1.5367601E2,6.560612E2,1.1957289E1,2.2882103E1,9.989782E1,1.6049411E0,1.5112099E1,1.3790283E0,2.6281948E0,3.8509052E0,6.4351926E0,1.9236723E2,3.7761265E1,1.1353547E1,4.989994E2],"tree_param":{"num_deleted":"0","num_feature":"8","num_nodes":"91","size_leaf_vector":"1"}},{"base_weights":[9.299132E-3,6.6102505E-2,-4.1293296E-1,-6.358022E-1,1.4298256E-1,-7.5565666E-1,-5.443458E-1,-8.706055E-1,1.6299129E-1,-6.293026E-1,-8.4154403E-1,-6.133256E-1,-4.4235164E-1,-1.1685936E0,1.9321969E-2,3.7600443E-1,1.3306856E-1,-7.333759E-1,-2.90057E-1,-9.358956E-1,-7.422951E-1,-6.2520605E-1,2.3266228E-1,-3.936474E-1,-8.0280787E-1,-5.813237E-1,-6.934362E-2,2.8670743E-1,8.054052E-1,-5.2749985E-1,1.4655635E-1,-3.534204E-2,-6.736909E-2,-2.004925E-2,6.1650877E-3,-5.152862E-2,-4.0004905E-2,-4.3364212E-2,-3.2748565E-2,-1.66054E-2,-3.2731686E-2,2.4190346E-2,-1.7160073E-2,-2.1324012E-2,-1.5501687E-3,-5.0837535E-2,-1.4278947E-2,-5.675292E-2,3.7985664E-2,2.1124052E-2,-1.4646836E-4,-8.06033E-3,4.729734E-2,-4.6544008E-2,-4.275138E-3,6.1109387E-3,2.0265637E-2],"categories":[],"categories_nodes":[],"categories_segments":[],"categories_sizes":[],"default_left":[0,0,0,0,0,0,0,0,0,0,0,0,0,0,0,0,0,0,0,0,0,0,0,0,0,0,0,0,0,0,0,0,0,0,0,0,0,0,0,0,0,0,0,0,0,0,0,0,0,0,0,0,0,0,0,0,0],"id":18,"left_children":[1,-1,3,5,7,9,11,13,15,17,19,21,23,25,-1,27,29,31,33,35,37,39,41,43,45,47,-1,49,51,53,55,-1,-1,-1,-1,-1,-1,-1,-1,-1,-1,-1,-1,-1,-1,-1,-1,-1,-1,-1,-1,-1,-1,-1,-1,-1,-1],"loss_changes":[2.04675E3,0E0,3.4625327E2,2.145221E1,1.6374119E1,8.810791E0,7.7132874E0,6.3144913E0,4.9581547E0,1.2224289E1,4.075714E0,6.924011E0,7.7852936E0,8.4753036E-1,0E0,3.4590082E0,6.22937E0,3.4288483E0,3.917163E0,2.4838715E0,2.1945038E0,5.5214844E0,1.622256E0,4.8505707E0,5.681587E0,4.7366514E0,0E0,3.1951165E0,2.3279972E0,2.422606E0,4.216792E0,0E0,0E0,0E0,0E0,0E0,0E0,0E0,0E0,0E0,0E0,0E0,0E0,0E0,0E0,0E0,0E0,0E0,0E0,0E0,0E0,0E0,0E0,0E0,0E0,0E0,0E0],"parents":[2147483647,0,0,2,2,3,3,4,4,5,5,6,6,7,7,8,8,9,9,10,10,11,11,12,12,13,13,15,15,16,16,17,17,18,18,19,19,20,20,21,21,22,22,23,23,24,24,25,25,27,27,28,28,29,29,30,30],"right_children":[2,-1,4,6,8,10,12,14,16,18,20,22,24,26,-1,28,30,32,34,36,38,40,42,44,46,48,-1,50,52,54,56,-1,-1,-1,-1,-1,-1,-1,-1,-1,-1,-1,-1,-1,-1,-1,-1,-1,-1,-1,-1,-1,-1,-1,-1,-1,-1],"split_conditions":[1E0,6.6102505E-2,4E0,3E0,1E0,-1.4490938E-1,1E0,3E0,-7.417782E-1,-3.523375E-1,1E0,8.668157E-1,1.0437319E0,-6.285664E-1,1.9321969E-2,-7.732829E-1,-7.05839E-1,-3.884422E-1,2E0,1.5630485E-1,-1.2349808E-1,-8.9423853E-1,1E0,-1.3379006E-1,4.3713183E0,-8.1100917E-1,-6.934362E-2,-8.462865E-1,1E0,1E0,8.475224E-1,-3.534204E-2,-6.736909E-2,-2.004925E-2,6.1650877E-3,-5.152862E-2,-4.0004905E-2,-4.3364212E-2,-3.2748565E-2,-1.66054E-2,-3.2731686E-2,2.4190346E-2,-1.7160073E-2,-2.1324012E-2,-1.5501687E-3,-5.0837535E-2,-1.4278947E-2,-5.675292E-2,3.7985664E-2,2.1124052E-2,-1.4646836E-4,-8.06033E-3,4.729734E-2,-4.6544008E-2,-4.275138E-3,6.1109387E-3,2.0265637E-2],"split_indices":[7,0,7,7,6,1,3,3,1,1,2,1,1,1,0,1,1,1,4,1,1,1,2,1,1,1,0,1,4,2,1,0,0,0,0,0,0,0,0,0,0,0,0,0,0,0,0,0,0,0,0,0,0,0,0,0,0],"split_type":[0,0,0,0,0,0,0,0,0,0,0,0,0,0,0,0,0,0,0,0,0,0,0,0,0,0,0,0,0,0,0,0,0,0,0,0,0,0,0,0,0,0,0,0,0,0,0,0,0,0,0,0,0,0,0,0,0],"sum_hessian":[3.6906062E3,8.9764136E2,2.7929648E3,1.9935837E3,7.993812E2,8.5968994E2,1.1338938E3,1.46517515E1,7.8472943E2,3.5125894E2,5.0843103E2,6.734312E2,4.6046255E2,1.1900944E1,2.7508073E0,9.523159E1,6.8949786E2,2.6790857E2,8.335034E1,2.563247E2,2.5210632E2,6.643623E2,9.068882E0,4.0749466E2,5.296791E1,4.217404E0,7.6835403E0,8.0217476E1,1.5014111E1,1.3034204E1,6.764637E2,2.5887228E2,9.036299E0,6.573878E1,1.7611568E1,1.4714648E2,1.0917821E2,1.0001703E2,1.520893E2,6.1738228E1,6.026241E2,6.426171E0,2.6427112E0,3.735027E2,3.399196E1,3.678618E1,1.618173E1,3.0936038E0,1.1238E0,5.4303066E1,2.5914412E1,1.8872209E0,1.3126889E1,6.2365017E0,6.797702E0,6.196539E2,5.6809784E1],"tree_param":{"num_deleted":"0","num_feature":"8","num_nodes":"57","size_leaf_vector":"1"}},{"base_weights":[1.6962084E-3,6.510358E-2,-3.936064E-1,-6.2727624E-1,1.7163488E-1,-7.579808E-1,-5.2744484E-1,-6.772104E-1,1.8887953E-1,-6.4428514E-1,-8.326427E-1,-4.2108306E-1,-6.147513E-1,-9.1745734E-1,3.724526E-1,3.38285E-1,1.2093787E-1,-6.7427504E-1,1.0104527E-1,-7.858191E-1,-9.3797183E-1,-4.3007234E-1,3.1342053E-1,-7.5109684E-1,-4.4721562E-1,-6.666307E-2,2.3055983E-1,1.7239271E-3,3.0446965E-2,2.4829464E-1,6.219603E-1,4.2708266E-1,4.361542E-2,-2.1742046E-2,-3.6063656E-2,3.4758147E-2,-1.2296286E-2,-4.097751E-2,1.9648438E-2,-4.953743E-2,-2.1358127E-2,-1.8762117E-2,-2.9621402E-2,-4.5249816E-2,4.0051904E-2,-2.4906807E-2,-4.07195E-2,-2.0146508E-2,-4.8617624E-2,5.6936193E-2,-4.958314E-2,2.9631665E-2,8.948265E-3,3.5727143E-2,-2.3290442E-2,1.6869932E-2,4.485165E-2,-9.093696E-4,1.5197816E-2],"categories":[],"categories_nodes":[],"categories_segments":[],"categories_sizes":[],"default_left":[0,0,0,0,0,0,0,0,0,0,0,0,0,0,0,0,0,0,0,0,0,0,0,0,0,0,0,0,0,0,0,0,0,0,0,0,0,0,0,0,0,0,0,0,0,0,0,0,0,0,0,0,0,0,0,0,0,0,0],"id":19,"left_children":[1,-1,3,5,7,9,11,13,15,17,19,21,23,25,27,29,31,33,35,37,39,41,43,45,47,-1,49,-1,-1,51,53,55,57,-1,-1,-1,-1,-1,-1,-1,-1,-1,-1,-1,-1,-1,-1,-1,-1,-1,-1,-1,-1,-1,-1,-1,-1,-1,-1],"loss_changes":[1.8503812E3,0E0,3.647148E2,2.508783E1,1.1958281E1,6.6244507E0,1.0055542E1,4.454727E0,8.007528E0,7.641144E0,1.7573547E0,3.4618683E0,1.3548767E1,6.7807207E0,2.7864867E-1,6.1585274E0,1.2920126E1,3.3528442E0,3.0517259E0,1.4488907E1,3.6336365E0,4.212921E0,4.6882577E0,4.936142E0,6.0081673E0,0E0,6.0778313E0,0E0,0E0,4.415517E0,6.26375E0,4.3377476E0,7.0446143E0,0E0,0E0,0E0,0E0,0E0,0E0,0E0,0E0,0E0,0E0,0E0,0E0,0E0,0E0,0E0,0E0,0E0,0E0,0E0,0E0,0E0,0E0,0E0,0E0,0E0,0E0],"parents":[2147483647,0,0,2,2,3,3,4,4,5,5,6,6,7,7,8,8,9,9,10,10,11,11,12,12,13,13,14,14,15,15,16,16,17,17,18,18,19,19,20,20,21,21,22,22,23,23,24,24,26,26,29,29,30,30,31,31,32,32],"right_children":[2,-1,4,6,8,10,12,14,16,18,20,22,24,26,28,30,32,34,36,38,40,42,44,46,48,-1,50,-1,-1,52,54,56,58,-1,-1,-1,-1,-1,-1,-1,-1,-1,-1,-1,-1,-1,-1,-1,-1,-1,-1,-1,-1,-1,-1,-1,-1,-1,-1],"split_conditions":[1E0,6.510358E-2,4E0,3E0,1E0,-1.5510209E-1,2E0,3E0,-3.0064595E-1,-1.8061693E-1,3.190241E-1,4.3713183E0,1E0,4.5576516E-1,2E0,-5.0483096E-1,1E0,-9.315345E-1,1E0,2.9360852E-1,2E0,1.6937667E-1,1E0,-7.1414536E-1,1.5668029E0,-6.666307E-2,7.238862E-1,1.7239271E-3,3.0446965E-2,-9.50497E-1,1E0,7.238862E-1,6.176239E-1,-2.1742046E-2,-3.6063656E-2,3.4758147E-2,-1.2296286E-2,-4.097751E-2,1.9648438E-2,-4.953743E-2,-2.1358127E-2,-1.8762117E-2,-2.9621402E-2,-4.5249816E-2,4.0051904E-2,-2.4906807E-2,-4.07195E-2,-2.0146508E-2,-4.8617624E-2,5.6936193E-2,-4.958314E-2,2.9631665E-2,8.948265E-3,3.5727143E-2,-2.3290442E-2,1.6869932E-2,4.485165E-2,-9.093696E-4,1.5197816E-2],"split_indices":[7,0,7,7,6,1,5,3,1,1,1,1,3,1,5,1,5,1,4,1,7,1,5,1,1,0,1,0,0,1,3,1,1,0,0,0,0,0,0,0,0,0,0,0,0,0,0,0,0,0,0,0,0,0,0,0,0,0,0],"split_type":[0,0,0,0,0,0,0,0,0,0,0,0,0,0,0,0,0,0,0,0,0,0,0,0,0,0,0,0,0,0,0,0,0,0,0,0,0,0,0,0,0,0,0,0,0,0,0,0,0,0,0,0,0,0,0,0,0,0,0],"sum_hessian":[3.5976736E3,8.381679E2,2.7595056E3,1.9523129E3,8.0719275E2,8.425756E2,1.1097373E3,1.53099575E1,7.9188275E2,3.3780005E2,5.0477554E2,5.0289944E2,6.0683777E2,1.2560956E1,2.7490015E0,2.4629492E2,5.455878E2,3.2482535E2,1.2974701E1,3.552926E2,1.4948294E2,4.9722855E2,5.670894E0,3.3264117E2,2.7419662E2,9.10267E0,3.4582858E0,1.6033602E0,1.1456412E0,1.8840306E2,5.789186E1,1.09100395E2,4.3648746E2,5.497985E1,2.6984552E2,4.4136677E0,8.561033E0,3.45705E2,9.587622E0,1.3463309E2,1.4849854E1,3.7417508E2,1.23053474E2,1.3762026E0,4.2946916E0,6.834802E1,2.6429315E2,2.5450145E2,1.9695162E1,2.023245E0,1.4350408E0,3.0310675E1,1.5809239E2,5.366723E1,4.224633E0,9.305918E1,1.6041214E1,3.5349966E2,8.29878E1],"tree_param":{"num_deleted":"0","num_feature":"8","num_nodes":"59","size_leaf_vector":"1"}},{"base_weights":[2.4979219E-2,-4.7453874E-1,4.753468E-2,-5.074878E-1,1.669035E-1,7.506222E-2,-4.5853364E-3,-3.597548E-1,-6.339827E-1,5.5813443E-2,-3.606414E-1,5.9299704E-2,1.893914E-1,5.512145E-1,-1.03868935E-2,-4.2334E-1,5.6005853E-1,-6.6190386E-1,3.4116283E-2,5.7495713E-1,-5.2429773E-2,-1.7277092E-1,6.99614E-2,6.348596E-1,1.3293082E-1,8.4233415E-1,-1.4419508E-2,-3.3588663E-2,1.15693405E-1,-5.865678E-1,1.4374454E-1,-1.3795069E-2,5.7459753E-2,-4.6481988E-1,-7.6648676E-1,3.3264512E-3,4.041476E-2,-5.918791E-1,1.7401628E-1,4.1244587E-1,6.1217967E-2,-7.8395295E-1,8.01538E-1,-1.3569447E-1,1.8088311E-1,1.0326207E0,3.827179E-1,-8.6121626E-2,2.059032E-2,1.7407402E-1,-3.0014053E-1,1.5965294E-3,-3.685699E-2,5.0855655E-2,-1.1591583E-2,-2.9288555E-2,1.0779962E-2,-4.7411613E-2,-2.6685378E-2,3.291562E-2,-4.2504508E-2,-4.2399306E-2,1.8733243E-2,3.3087112E-2,1.1464931E-2,4.242698E-3,-2.6059558E-3,-5.395348E-2,-1.0194496E-2,6.040079E-2,2.988775E-2,6.616158E-3,-3.809257E-2,4.414862E-2,7.6243454E-3,1.7115777E-2,6.167614E-2,3.548498E-2,-9.713907E-3,-1.6734299E-3,-8.766503E-3,5.7216245E-3,-5.9550996E-3,-5.060254E-4,2.0580824E-2,-2.6727347E-2,1.3903464E-2],"categories":[],"categories_nodes":[],"categories_segments":[],"categories_sizes":[],"default_left":[0,0,0,0,0,0,0,0,0,0,0,0,0,0,0,0,0,0,0,0,0,0,0,0,0,0,0,0,0,0,0,0,0,0,0,0,0,0,0,0,0,0,0,0,0,0,0,0,0,0,0,0,0,0,0,0,0,0,0,0,0,0,0,0,0,0,0,0,0,0,0,0,0,0,0,0,0,0,0,0,0,0,0,0,0,0,0],"id":20,"left_children":[1,3,5,7,9,11,13,15,17,-1,19,21,23,25,27,29,31,33,-1,35,-1,37,39,41,43,45,-1,47,49,51,53,-1,-1,55,57,-1,-1,59,61,63,65,67,69,71,73,75,77,79,81,83,85,-1,-1,-1,-1,-1,-1,-1,-1,-1,-1,-1,-1,-1,-1,-1,-1,-1,-1,-1,-1,-1,-1,-1,-1,-1,-1,-1,-1,-1,-1,-1,-1,-1,-1,-1,-1],"loss_changes":[4.0226204E1,3.344864E0,4.9000463E0,2.5183449E0,4.5539827E0,4.01616E0,3.814649E0,4.337226E0,3.3132877E0,0E0,4.518878E0,4.875227E0,6.7146463E0,3.2300892E0,3.4265351E0,6.2065487E0,2.761465E0,1.2257118E0,0E0,3.2869148E-1,0E0,1.269242E1,5.604E0,7.756798E0,3.1312485E0,4.2076492E-1,0E0,2.8165035E0,4.4723577E0,4.824749E0,5.3482175E0,0E0,0E0,2.5252342E0,1.5501366E0,0E0,0E0,1.3293779E1,1.0196071E1,1.9769711E0,4.918061E0,4.089985E-1,1.5532322E0,6.327529E0,3.953928E0,4.111209E-1,9.530265E-1,2.3534582E0,6.4063063E0,7.0175204E0,3.236432E0,0E0,0E0,0E0,0E0,0E0,0E0,0E0,0E0,0E0,0E0,0E0,0E0,0E0,0E0,0E0,0E0,0E0,0E0,0E0,0E0,0E0,0E0,0E0,0E0,0E0,0E0,0E0,0E0,0E0,0E0,0E0,0E0,0E0,0E0,0E0,0E0],"parents":[2147483647,0,0,1,1,2,2,3,3,4,4,5,5,6,6,7,7,8,8,10,10,11,11,12,12,13,13,14,14,15,15,16,16,17,17,19,19,21,21,22,22,23,23,24,24,25,25,27,27,28,28,29,29,30,30,33,33,34,34,37,37,38,38,39,39,40,40,41,41,42,42,43,43,44,44,45,45,46,46,47,47,48,48,49,49,50,50],"right_children":[2,4,6,8,10,12,14,16,18,-1,20,22,24,26,28,30,32,34,-1,36,-1,38,40,42,44,46,-1,48,50,52,54,-1,-1,56,58,-1,-1,60,62,64,66,68,70,72,74,76,78,80,82,84,86,-1,-1,-1,-1,-1,-1,-1,-1,-1,-1,-1,-1,-1,-1,-1,-1,-1,-1,-1,-1,-1,-1,-1,-1,-1,-1,-1,-1,-1,-1,-1,-1,-1,-1,-1,-1],"split_conditions":[1E0,2.4863966E0,-9.917459E-2,-2.8274253E-1,1E0,8.797055E-1,-8.2527626E-1,-3.089854E-1,4.382348E0,5.5813443E-2,-5.3271466E-1,-9.628738E-1,9.968278E-1,1.5668029E0,2E0,2E0,-3.268677E-1,-4.6349508E-1,3.4116283E-2,-5.8440995E-1,-5.2429773E-2,1E0,-9.315345E-1,-7.914511E-1,-8.1100917E-1,-8.3002204E-1,-1.4419508E-2,1E0,9.07057E-1,-6.635934E-1,1E0,-1.3795069E-2,5.7459753E-2,-5.0437385E-1,9.58497E-2,3.3264512E-3,4.041476E-2,-7.826907E-1,-6.076974E-1,-5.368352E-1,7.743342E-2,1E0,1E0,-9.214742E-1,-7.670614E-1,1E0,1E0,5.499484E-1,2E0,4.5576516E-1,3.7346387E0,1.5965294E-3,-3.685699E-2,5.0855655E-2,-1.1591583E-2,-2.9288555E-2,1.0779962E-2,-4.7411613E-2,-2.6685378E-2,3.291562E-2,-4.2504508E-2,-4.2399306E-2,1.8733243E-2,3.3087112E-2,1.1464931E-2,4.242698E-3,-2.6059558E-3,-5.395348E-2,-1.0194496E-2,6.040079E-2,2.988775E-2,6.616158E-3,-3.809257E-2,4.414862E-2,7.6243454E-3,1.7115777E-2,6.167614E-2,3.548498E-2,-9.713907E-3,-1.6734299E-3,-8.766503E-3,5.7216245E-3,-5.9550996E-3,-5.060254E-4,2.0580824E-2,-2.6727347E-2,1.3903464E-2],"split_indices":[6,1,1,1,4,0,0,1,0,0,0,1,0,1,4,4,0,0,0,0,0,2,1,1,1,0,0,2,1,0,5,0,0,0,0,0,0,0,0,0,0,2,4,1,1,2,2,1,5,1,1,0,0,0,0,0,0,0,0,0,0,0,0,0,0,0,0,0,0,0,0,0,0,0,0,0,0,0,0,0,0,0,0,0,0,0,0],"split_type":[0,0,0,0,0,0,0,0,0,0,0,0,0,0,0,0,0,0,0,0,0,0,0,0,0,0,0,0,0,0,0,0,0,0,0,0,0,0,0,0,0,0,0,0,0,0,0,0,0,0,0,0,0,0,0,0,0,0,0,0,0,0,0,0,0,0,0,0,0,0,0,0,0,0,0,0,0,0,0,0,0,0,0,0,0,0,0],"sum_hessian":[3.56731E3,1.5325497E2,3.4140552E3,1.4596596E2,7.289013E0,2.233812E3,1.1802432E3,6.910386E1,7.686211E1,2.20498E0,5.084033E0,1.9644875E3,2.6932443E2,1.1221188E1,1.169022E3,6.514055E1,3.9633052E0,7.575242E1,1.1096857E0,2.223875E0,2.860158E0,8.561969E1,1.8788679E3,2.9143217E1,2.4018123E2,8.329734E0,2.8914537E0,9.879494E2,1.8107257E2,5.055469E1,1.4585861E1,1.8582343E0,2.1050708E0,2.8149632E1,4.7602787E1,1.1038272E0,1.1200476E0,3.844744E1,4.7172245E1,4.5622967E1,1.8332449E3,2.6744204E0,2.6468798E1,3.6103313E1,2.0407791E2,5.009175E0,3.320559E0,5.012949E2,4.866545E2,1.5929051E2,2.1782059E1,1.0052086E1,4.0502605E1,3.8725214E0,1.071334E1,2.4019102E1,4.130531E0,2.5005713E1,2.2597076E1,6.316253E0,3.213119E1,7.2119565E0,3.9960285E1,1.8215385E1,2.7407583E1,1.5171093E3,3.161357E2,1.2024113E0,1.472009E0,7.193084E0,1.9275713E1,2.5834074E1,1.02692375E1,6.763258E0,1.9731465E2,1.7387333E0,3.2704413E0,1.9726657E0,1.3478932E0,3.161E2,1.8519489E2,2.912082E2,1.9544632E2,9.0259285E1,6.903122E1,1.5552561E1,6.2294984E0],"tree_param":{"num_deleted":"0","num_feature":"8","num_nodes":"87","size_leaf_vector":"1"}},{"base_weights":[1.5205578E-2,-5.0238925E-1,3.6922205E-2,-2.7566546E-1,-7.4024826E-1,7.188502E-2,-5.3575626E-3,2.3281199E-1,-4.3328544E-1,-5.0205094E-1,-8.628933E-1,2.0004246E-1,5.650036E-2,-3.512428E-2,1.4572337E-1,-5.163524E-1,6.7181706E-1,-5.3661134E-2,-2.9297143E-1,-8.9113474E-1,-5.9292265E-3,-5.660476E-2,-5.083357E-1,-1.631054E-2,3.1213236E-1,-8.2003784E-1,6.2907025E-2,-1.7474853E-2,-7.466331E-1,5.8631074E-1,3.606577E-2,1.1320697E-2,-8.4265256E-1,-1.5059651E-1,1.1988655E0,6.822689E-2,-6.902115E-1,-5.7154804E-1,-5.0920423E-2,-4.8452714E-1,6.7159873E-1,3.741545E-2,-6.3050294E-1,-6.0710978E-2,4.785835E-2,4.2023352E-1,-2.1484704E-1,-1.127429E0,-4.3630427E-1,9.068834E-2,-1.8583406E-3,1.943448E-2,-9.7884186E-2,-8.673787E-1,2.3007876E-1,8.2101446E-1,-2.269396E-1,-1.6064943E-3,8.0940926E-1,3.922492E-3,-5.4170217E-2,-3.1016154E-2,3.8147163E-2,6.71839E-2,7.6681115E-3,-2.7745998E-2,2.785018E-2,-4.2377394E-2,1.474034E-2,-3.6430646E-2,5.888013E-3,-4.0802117E-2,2.2781804E-2,4.7385823E-2,5.491235E-3,-1.6221564E-2,-5.824094E-2,-5.754787E-3,1.3758184E-2,1.6413348E-2,6.2405623E-2,-2.4192043E-2,4.0849485E-2,-2.3516228E-2,-6.807295E-2,-4.8072364E-2,1.4988713E-2,3.2117565E-3,2.2484358E-2,-9.702519E-3,4.812909E-3,1.7607013E-3,-2.1236757E-2,-2.7424306E-2,-2.51907E-3,-2.173691E-2,-6.2057324E-2,-3.981837E-2,4.1135818E-2,8.412087E-3,5.1561326E-2,4.694884E-3,-5.4208677E-2,1.776807E-3,-3.422005E-2,4.7887553E-2,-4.1554957E-3],"categories":[],"categories_nodes":[],"categories_segments":[],"categories_sizes":[],"default_left":[0,0,0,0,0,0,0,0,0,0,0,0,0,0,0,0,0,0,0,0,0,0,0,0,0,0,0,0,0,0,0,0,0,0,0,0,0,0,0,0,0,0,0,0,0,0,0,0,0,0,0,0,0,0,0,0,0,0,0,0,0,0,0,0,0,0,0,0,0,0,0,0,0,0,0,0,0,0,0,0,0,0,0,0,0,0,0,0,0,0,0,0,0,0,0,0,0,0,0,0,0,0,0,0,0,0,0],"id":21,"left_children":[1,3,5,7,9,11,13,15,17,19,21,23,25,27,29,31,33,-1,35,37,39,-1,41,43,45,47,49,51,53,55,57,-1,59,61,63,65,67,69,-1,71,73,-1,75,-1,77,79,81,83,85,87,89,91,93,95,97,99,101,103,105,-1,-1,-1,-1,-1,-1,-1,-1,-1,-1,-1,-1,-1,-1,-1,-1,-1,-1,-1,-1,-1,-1,-1,-1,-1,-1,-1,-1,-1,-1,-1,-1,-1,-1,-1,-1,-1,-1,-1,-1,-1,-1,-1,-1,-1,-1,-1,-1],"loss_changes":[4.007681E1,7.5385323E0,5.0576677E0,6.119848E0,1.5963211E0,3.6810398E0,6.973461E0,6.4054956E0,4.864645E0,5.0143166E0,3.668892E0,4.8630724E0,9.448803E0,1.625243E1,1.2310139E1,1.9774555E0,5.403517E0,0E0,7.0320272E0,1.04599E-2,4.358095E0,0E0,3.6967478E0,5.3862667E0,7.6102657E0,9.4874287E-1,2.9908628E0,3.7560272E0,3.8941898E0,9.882584E0,5.986327E0,0E0,1.2677503E0,2.873976E0,9.2265606E-1,8.352272E0,3.8568478E0,7.817452E-1,0E0,2.82444E0,7.595048E-1,0E0,2.8418512E0,0E0,2.5042255E0,7.95582E0,6.815548E0,3.054242E-1,3.0185618E0,1.1017941E1,9.446214E0,6.097239E0,8.4941025E0,4.0029144E0,3.2326899E0,5.2657795E0,3.446394E0,5.0175877E0,1.3432741E0,0E0,0E0,0E0,0E0,0E0,0E0,0E0,0E0,0E0,0E0,0E0,0E0,0E0,0E0,0E0,0E0,0E0,0E0,0E0,0E0,0E0,0E0,0E0,0E0,0E0,0E0,0E0,0E0,0E0,0E0,0E0,0E0,0E0,0E0,0E0,0E0,0E0,0E0,0E0,0E0,0E0,0E0,0E0,0E0,0E0,0E0,0E0,0E0],"parents":[2147483647,0,0,1,1,2,2,3,3,4,4,5,5,6,6,7,7,8,8,9,9,10,10,11,11,12,12,13,13,14,14,15,15,16,16,18,18,19,19,20,20,22,22,23,23,24,24,25,25,26,26,27,27,28,28,29,29,30,30,32,32,33,33,34,34,35,35,36,36,37,37,39,39,40,40,42,42,44,44,45,45,46,46,47,47,48,48,49,49,50,50,51,51,52,52,53,53,54,54,55,55,56,56,57,57,58,58],"right_children":[2,4,6,8,10,12,14,16,18,20,22,24,26,28,30,32,34,-1,36,38,40,-1,42,44,46,48,50,52,54,56,58,-1,60,62,64,66,68,70,-1,72,74,-1,76,-1,78,80,82,84,86,88,90,92,94,96,98,100,102,104,106,-1,-1,-1,-1,-1,-1,-1,-1,-1,-1,-1,-1,-1,-1,-1,-1,-1,-1,-1,-1,-1,-1,-1,-1,-1,-1,-1,-1,-1,-1,-1,-1,-1,-1,-1,-1,-1,-1,-1,-1,-1,-1,-1,-1,-1,-1,-1,-1],"split_conditions":[1E0,-1.5510209E-1,2E0,-6.635934E-1,-4.6349508E-1,-7.914511E-1,2.5033367E-1,-7.771986E-1,-4.4509628E-1,-6.1400867E-1,1.2431149E-1,1E0,-7.732829E-1,1.4772575E-1,4.761215E-1,-1.4432546E0,2E0,-5.3661134E-2,-4.1612856E-2,2E0,2.4959457E-1,-5.660476E-2,1.4772575E-1,-4.1198343E-1,4.2973024E-1,1E0,1.3304374E-1,-7.021805E-2,7.0760435E-1,-3.7455786E-2,4E0,1.1320697E-2,-8.070276E-1,-5.142294E-1,-5.547024E-1,1E0,-3.3102548E-1,6.176239E-1,-5.0920423E-2,-4.732389E-1,-5.654733E-1,3.741545E-2,1.0057592E-1,-6.0710978E-2,1.9639808E-1,1.2431149E-1,-8.287471E-1,-7.825821E-1,-7.825821E-1,7.236694E-2,5.397513E-1,5.1672492E-2,2.4858696E-2,1.815222E-1,2.079405E-1,3.0823964E-1,6.176239E-1,7.238862E-1,2.426558E0,3.922492E-3,-5.4170217E-2,-3.1016154E-2,3.8147163E-2,6.71839E-2,7.6681115E-3,-2.7745998E-2,2.785018E-2,-4.2377394E-2,1.474034E-2,-3.6430646E-2,5.888013E-3,-4.0802117E-2,2.2781804E-2,4.7385823E-2,5.491235E-3,-1.6221564E-2,-5.824094E-2,-5.754787E-3,1.3758184E-2,1.6413348E-2,6.2405623E-2,-2.4192043E-2,4.0849485E-2,-2.3516228E-2,-6.807295E-2,-4.8072364E-2,1.4988713E-2,3.2117565E-3,2.2484358E-2,-9.702519E-3,4.812909E-3,1.7607013E-3,-2.1236757E-2,-2.7424306E-2,-2.51907E-3,-2.173691E-2,-6.2057324E-2,-3.981837E-2,4.1135818E-2,8.412087E-3,5.1561326E-2,4.694884E-3,-5.4208677E-2,1.776807E-3,-3.422005E-2,4.7887553E-2,-4.1554957E-3],"split_indices":[6,1,5,0,0,1,0,0,0,0,0,5,1,0,0,1,5,0,0,5,1,0,0,0,0,2,0,1,1,1,3,0,0,1,1,2,1,1,0,0,0,0,1,0,0,0,1,1,1,0,0,0,1,0,0,0,1,1,0,0,0,0,0,0,0,0,0,0,0,0,0,0,0,0,0,0,0,0,0,0,0,0,0,0,0,0,0,0,0,0,0,0,0,0,0,0,0,0,0,0,0,0,0,0,0,0,0],"split_type":[0,0,0,0,0,0,0,0,0,0,0,0,0,0,0,0,0,0,0,0,0,0,0,0,0,0,0,0,0,0,0,0,0,0,0,0,0,0,0,0,0,0,0,0,0,0,0,0,0,0,0,0,0,0,0,0,0,0,0,0,0,0,0,0,0,0,0,0,0,0,0,0,0,0,0,0,0,0,0,0,0,0,0,0,0,0,0,0,0,0,0,0,0,0,0,0,0,0,0,0,0,0,0,0,0,0,0],"sum_hessian":[3.5627708E3,1.4257198E2,3.4201987E3,7.409992E1,6.8472046E1,1.8717086E3,1.5484902E3,1.742153E1,5.6678394E1,2.5003864E1,4.346818E1,1.9932095E2,1.6723877E3,1.2942568E3,2.542334E2,6.371812E0,1.1049719E1,8.996929E0,4.7681465E1,1.3567412E1,1.1436453E1,2.3461662E1,2.0006517E1,6.8315216E1,1.3100574E2,1.1213375E1,1.6611743E3,1.2639288E3,3.0327997E1,4.9799587E1,2.044338E2,2.0382354E0,4.3335767E0,4.5945635E0,6.455155E0,2.540747E1,2.2273993E1,5.428085E0,8.139327E0,6.8690767E0,4.567376E0,1.3185256E0,1.8687992E1,2.5621724E0,6.5753044E1,1.0887449E2,2.2131248E1,5.1499434E0,6.0634317E0,1.1622312E3,4.9894315E2,8.6680707E2,3.9712173E2,2.7090843E1,3.237154E0,3.8638878E1,1.1160711E1,1.9588928E2,8.544529E0,1.0376673E0,3.2959094E0,3.246326E0,1.3482378E0,5.4193277E0,1.0358269E0,1.1109071E1,1.42984E1,1.9326538E1,2.947455E0,4.374335E0,1.05375E0,5.175974E0,1.6931028E0,2.601638E0,1.9657383E0,1.2903615E1,5.784376E0,3.8585175E1,2.7167871E1,9.924606E1,9.628428E0,1.7976076E1,4.1551704E0,2.1428816E0,3.0070617E0,3.3600702E0,2.7033613E0,1.0835663E3,7.866482E1,1.6829898E2,3.3064417E2,8.379585E2,2.8848553E1,3.6866558E1,3.602552E2,1.3559122E1,1.353172E1,1.059074E0,2.1780798E0,9.850476E0,2.87884E1,8.769144E0,2.3915668E0,1.8668211E2,9.207173E0,7.264106E0,1.2804227E0],"tree_param":{"num_deleted":"0","num_feature":"8","num_nodes":"107","size_leaf_vector":"1"}},{"base_weights":[1.079963E-2,6.4047076E-2,-3.772345E-1,-5.924384E-1,1.4946802E-1,-7.0543236E-1,-5.085213E-1,-4.6462458E-1,1.6269456E-1,-8.1933135E-1,-6.346906E-1,-5.459301E-1,9.979091E-1,-9.6297777E-1,1.6791731E-1,-1.6759375E-1,1.7961235E-1,-8.8004136E-1,-6.1405224E-1,-2.9770622E-1,-6.7374545E-1,-6.4510953E-1,-4.8937207E-1,7.8427947E-1,1.2282293E0,-5.4317105E-1,-5.8788557E-2,-2.6486793E-1,5.6168914E-2,3.2610574E-1,-4.0595964E-1,5.0178415E-1,1.5003791E-1,-6.647544E-2,-4.122064E-2,-4.1040573E-2,-1.661562E-2,-2.6788352E-2,2.0757796E-2,-5.8196213E-2,-3.169072E-2,-2.3443533E-2,-3.5831127E-2,9.123945E-3,-2.4889043E-2,4.5949515E-2,1.5714633E-3,1.4905699E-2,6.4709224E-2,-5.4321487E-2,3.5408046E-2,4.0913906E-2,-3.1903416E-2,-1.3694631E-2,3.2787263E-2,-5.0287604E-2,-1.1018969E-2,9.837818E-3,4.388502E-2,5.44554E-3,1.6300438E-2],"categories":[],"categories_nodes":[],"categories_segments":[],"categories_sizes":[],"default_left":[0,0,0,0,0,0,0,0,0,0,0,0,0,0,0,0,0,0,0,0,0,0,0,0,0,0,0,0,0,0,0,0,0,0,0,0,0,0,0,0,0,0,0,0,0,0,0,0,0,0,0,0,0,0,0,0,0,0,0,0,0],"id":22,"left_children":[1,-1,3,5,7,9,11,13,15,17,19,21,23,25,27,29,31,33,35,37,39,41,43,45,47,49,-1,51,-1,53,55,57,59,-1,-1,-1,-1,-1,-1,-1,-1,-1,-1,-1,-1,-1,-1,-1,-1,-1,-1,-1,-1,-1,-1,-1,-1,-1,-1,-1,-1],"loss_changes":[1.7448348E3,0E0,3.0746652E2,1.7898071E1,6.471161E0,6.070587E0,6.3009186E1,5.4768486E0,4.341301E0,3.322342E0,6.4984283E0,5.7549133E0,3.756485E-1,2.1710587E-1,3.7221372E0,4.617359E0,6.9224377E0,4.8271027E0,4.040922E0,9.497899E0,8.175079E0,4.5778046E0,4.007843E0,