{"learner":{"attributes":{"scikit_learn":"{\"_estimator_type\": \"classifier\"}"},"feature_names":["Total Flights_sum","Total Flights_mean","Total Flights_std","Total Flights_max","Distance_sum","Distance_mean","Points Accumulated_sum","Points Accumulated_mean","Points Redeemed_sum","Points Redeemed_mean","redemption_ratio","Gender","Education","Salary","Marital Status","Loyalty Card","CLV","Enrollment Type","Enrollment Year","Enrollment Month","cluster"],"feature_types":["float","float","float","float","float","float","float","float","float","float","float","int","int","float","int","int","float","int","float","float","float"],"gradient_booster":{"model":{"cats":{"enc":[],"feature_segments":[],"sorted_idx":[]},"gbtree_model_param":{"num_parallel_tree":"1","num_trees":"500"},"iteration_indptr":[0,1,2,3,4,5,6,7,8,9,10,11,12,13,14,15,16,17,18,19,20,21,22,23,24,25,26,27,28,29,30,31,32,33,34,35,36,37,38,39,40,41,42,43,44,45,46,47,48,49,50,51,52,53,54,55,56,57,58,59,60,61,62,63,64,65,66,67,68,69,70,71,72,73,74,75,76,77,78,79,80,81,82,83,84,85,86,87,88,89,90,91,92,93,94,95,96,97,98,99,100,101,102,103,104,105,106,107,108,109,110,111,112,113,114,115,116,117,118,119,120,121,122,123,124,125,126,127,128,129,130,131,132,133,134,135,136,137,138,139,140,141,142,143,144,145,146,147,148,149,150,151,152,153,154,155,156,157,158,159,160,161,162,163,164,165,166,167,168,169,170,171,172,173,174,175,176,177,178,179,180,181,182,183,184,185,186,187,188,189,190,191,192,193,194,195,196,197,198,199,200,201,202,203,204,205,206,207,208,209,210,211,212,213,214,215,216,217,218,219,220,221,222,223,224,225,226,227,228,229,230,231,232,233,234,235,236,237,238,239,240,241,242,243,244,245,246,247,248,249,250,251,252,253,254,255,256,257,258,259,260,261,262,263,264,265,266,267,268,269,270,271,272,273,274,275,276,277,278,279,280,281,282,283,284,285,286,287,288,289,290,291,292,293,294,295,296,297,298,299,300,301,302,303,304,305,306,307,308,309,310,311,312,313,314,315,316,317,318,319,320,321,322,323,324,325,326,327,328,329,330,331,332,333,334,335,336,337,338,339,340,341,342,343,344,345,346,347,348,349,350,351,352,353,354,355,356,357,358,359,360,361,362,363,364,365,366,367,368,369,370,371,372,373,374,375,376,377,378,379,380,381,382,383,384,385,386,387,388,389,390,391,392,393,394,395,396,397,398,399,400,401,402,403,404,405,406,407,408,409,410,411,412,413,414,415,416,417,418,419,420,421,422,423,424,425,426,427,428,429,430,431,432,433,434,435,436,437,438,439,440,441,442,443,444,445,446,447,448,449,450,451,452,453,454,455,456,457,458,459,460,461,462,463,464,465,466,467,468,469,470,471,472,473,474,475,476,477,478,479,480,481,482,483,484,485,486,487,488,489,490,491,492,493,494,495,496,497,498,499,500],"tree_info":[0,0,0,0,0,0,0,0,0,0,0,0,0,0,0,0,0,0,0,0,0,0,0,0,0,0,0,0,0,0,0,0,0,0,0,0,0,0,0,0,0,0,0,0,0,0,0,0,0,0,0,0,0,0,0,0,0,0,0,0,0,0,0,0,0,0,0,0,0,0,0,0,0,0,0,0,0,0,0,0,0,0,0,0,0,0,0,0,0,0,0,0,0,0,0,0,0,0,0,0,0,0,0,0,0,0,0,0,0,0,0,0,0,0,0,0,0,0,0,0,0,0,0,0,0,0,0,0,0,0,0,0,0,0,0,0,0,0,0,0,0,0,0,0,0,0,0,0,0,0,0,0,0,0,0,0,0,0,0,0,0,0,0,0,0,0,0,0,0,0,0,0,0,0,0,0,0,0,0,0,0,0,0,0,0,0,0,0,0,0,0,0,0,0,0,0,0,0,0,0,0,0,0,0,0,0,0,0,0,0,0,0,0,0,0,0,0,0,0,0,0,0,0,0,0,0,0,0,0,0,0,0,0,0,0,0,0,0,0,0,0,0,0,0,0,0,0,0,0,0,0,0,0,0,0,0,0,0,0,0,0,0,0,0,0,0,0,0,0,0,0,0,0,0,0,0,0,0,0,0,0,0,0,0,0,0,0,0,0,0,0,0,0,0,0,0,0,0,0,0,0,0,0,0,0,0,0,0,0,0,0,0,0,0,0,0,0,0,0,0,0,0,0,0,0,0,0,0,0,0,0,0,0,0,0,0,0,0,0,0,0,0,0,0,0,0,0,0,0,0,0,0,0,0,0,0,0,0,0,0,0,0,0,0,0,0,0,0,0,0,0,0,0,0,0,0,0,0,0,0,0,0,0,0,0,0,0,0,0,0,0,0,0,0,0,0,0,0,0,0,0,0,0,0,0,0,0,0,0,0,0,0,0,0,0,0,0,0,0,0,0,0,0,0,0,0,0,0,0,0,0,0,0,0,0,0,0,0,0,0,0,0,0,0,0,0,0,0,0,0,0,0,0,0,0,0,0,0,0,0,0,0,0,0,0,0,0,0,0,0,0,0,0,0,0,0,0,0,0,0,0,0,0,0,0,0,0,0,0,0,0,0,0,0,0,0,0,0,0,0],"trees":[{"base_weights":[3.7390797E-3,2.262432E0,-9.240419E-1,1.21630184E-1,1.4355989E0,-1.4376705E0,9.9726665E-1,1.5984054E-1,2.14662E0,-9.078944E-1,-1.5236658E0,2.4815087E-1,2.3900852E0,-3.3613598E-1,6.492543E-1,1.6299343E0,1.19656645E-1,-6.333402E-1,-1.0233917E0,-1.3313823E0,-1.5680629E0,-9.1716087E-1,1.5552272E0,-3.8135905E-2,1.2207978E-1,1.5382308E-1,-7.4015623E-1,1.237721E0,3.159422E-1,3.657295E-1,1.1727198E-1,-3.2714057E-1,-9.0026873E-1,-8.0557775E-1,-1.2104487E0,-1.3461499E0,-7.7072996E-1,-1.5751034E0,-7.4640816E-1,-1.0491441E0,6.3282585E-1,1.2134677E-1,-1.4348661E0,-2.1295087E-2,2.7278066E-2,-4.796084E-2,3.2234546E-2,7.6211165E-3,8.528933E-2,4.3195695E-2,-6.658112E-3,-1.224945E-2,4.2027593E-2,8.7542826E-4,-3.782812E-2,1.955834E-3,-4.9581874E-2,-4.815891E-2,-1.5703274E-2,-6.491817E-2,-3.4361694E-2,-6.415441E-2,-7.729248E-2,-5.468895E-2,5.748352E-3,-4.0042493E-2,-7.888478E-2,6.4384244E-2,-6.807254E-2,-6.853313E-2,-2.5246797E-2,1.0248436E-1,-3.8808875E-2,-4.5241904E-4,-7.4991725E-2],"categories":[],"categories_nodes":[],"categories_segments":[],"categories_sizes":[],"default_left":[0,0,0,0,0,0,0,0,0,0,0,0,0,0,0,0,0,0,0,0,0,0,0,0,0,0,0,0,0,0,0,0,0,0,0,0,0,0,0,0,0,0,0,0,0,0,0,0,0,0,0,0,0,0,0,0,0,0,0,0,0,0,0,0,0,0,0,0,0,0,0,0,0,0,0],"id":0,"left_children":[1,3,5,-1,7,9,11,13,15,17,19,21,23,25,27,29,-1,31,33,35,37,39,41,-1,-1,43,45,47,49,51,-1,53,55,57,59,61,63,65,67,69,71,-1,73,-1,-1,-1,-1,-1,-1,-1,-1,-1,-1,-1,-1,-1,-1,-1,-1,-1,-1,-1,-1,-1,-1,-1,-1,-1,-1,-1,-1,-1,-1,-1,-1],"loss_changes":[5.39154E3,1.0190967E2,1.8011497E3,0E0,1.1785068E2,6.419458E1,4.014093E2,1.1799659E1,6.7459717E0,5.804825E0,8.472168E0,3.8473328E2,2.3727112E1,4.935172E0,4.386178E0,2.6400314E1,0E0,4.8449574E0,4.794861E0,9.38385E-1,4.6049805E0,2.8009285E1,3.1361038E2,0E0,0E0,2.9201293E0,4.7200956E0,4.039757E0,4.2720037E0,3.7077475E0,0E0,4.5800686E0,2.8732529E0,4.9973907E0,2.520668E0,9.279785E-1,2.5475664E0,7.233887E-1,1.475218E1,2.0927216E1,2.3776165E1,0E0,2.5325432E0,0E0,0E0,0E0,0E0,0E0,0E0,0E0,0E0,0E0,0E0,0E0,0E0,0E0,0E0,0E0,0E0,0E0,0E0,0E0,0E0,0E0,0E0,0E0,0E0,0E0,0E0,0E0,0E0,0E0,0E0,0E0,0E0],"parents":[2147483647,0,0,1,1,2,2,4,4,5,5,6,6,7,7,8,8,9,9,10,10,11,11,12,12,13,13,14,14,15,15,17,17,18,18,19,19,20,20,21,21,22,22,25,25,26,26,27,27,28,28,29,29,31,31,32,32,33,33,34,34,35,35,36,36,37,37,38,38,39,39,40,40,42,42],"right_children":[2,4,6,-1,8,10,12,14,16,18,20,22,24,26,28,30,-1,32,34,36,38,40,42,-1,-1,44,46,48,50,52,-1,54,56,58,60,62,64,66,68,70,72,-1,74,-1,-1,-1,-1,-1,-1,-1,-1,-1,-1,-1,-1,-1,-1,-1,-1,-1,-1,-1,-1,-1,-1,-1,-1,-1,-1,-1,-1,-1,-1,-1,-1],"split_conditions":[2.4E1,1.9E1,2.017E3,1.21630184E-1,2.017E3,3.1E1,8E0,5E0,6E0,2.7E1,3.5E1,6E0,2.018E3,2E0,1.3625E1,2.018E3,1.19656645E-1,1E0,5.27865E3,7E0,8E0,2.018E3,2.018E3,-3.8135905E-2,1.2207978E-1,5.32572E3,3.7402E4,4.78477E3,2.014E3,2.9977E4,1.1727198E-1,2.6E1,5.2929E4,6E0,1.1E1,2.016E3,2.016E3,4.5384E4,6.2E1,4E0,4E0,1.2134677E-1,3.3324E4,-2.1295087E-2,2.7278066E-2,-4.796084E-2,3.2234546E-2,7.6211165E-3,8.528933E-2,4.3195695E-2,-6.658112E-3,-1.224945E-2,4.2027593E-2,8.7542826E-4,-3.782812E-2,1.955834E-3,-4.9581874E-2,-4.815891E-2,-1.5703274E-2,-6.491817E-2,-3.4361694E-2,-6.415441E-2,-7.729248E-2,-5.468895E-2,5.748352E-3,-4.0042493E-2,-7.888478E-2,6.4384244E-2,-6.807254E-2,-6.853313E-2,-2.5246797E-2,1.0248436E-1,-3.8808875E-2,-4.5241904E-4,-7.4991725E-2],"split_indices":[0,0,18,0,18,0,3,3,19,0,0,19,18,15,9,18,0,11,16,3,3,18,18,0,0,16,4,16,18,4,0,0,13,3,19,18,18,13,0,19,19,0,4,0,0,0,0,0,0,0,0,0,0,0,0,0,0,0,0,0,0,0,0,0,0,0,0,0,0,0,0,0,0,0,0],"split_type":[0,0,0,0,0,0,0,0,0,0,0,0,0,0,0,0,0,0,0,0,0,0,0,0,0,0,0,0,0,0,0,0,0,0,0,0,0,0,0,0,0,0,0,0,0,0,0,0,0,0,0,0,0,0,0,0,0,0,0,0,0,0,0,0,0,0,0,0,0,0,0,0,0,0,0],"sum_hessian":[2.570827E3,7.4810895E2,1.822718E3,6.1880914E2,1.292998E2,1.4384303E3,3.842877E2,4.6711662E1,8.258815E1,2.0249747E2,1.2359329E3,2.5065382E2,1.3363388E2,2.3355831E1,2.3355831E1,2.9134594E1,5.3453552E1,6.1880913E1,1.4061655E2,2.3765161E2,9.982812E2,1.3267076E2,1.1798307E2,1.9262542E0,1.3170763E2,1.0835179E1,1.2520652E1,7.464235E0,1.5891597E1,1.1075961E1,1.8058632E1,2.985694E1,3.2023975E1,6.741889E1,7.3197655E1,2.3018738E2,7.464235E0,9.8889075E2,9.390489E0,1.2255792E2,1.0112834E1,9.149707E1,2.6485994E1,4.3340716E0,6.5011077E0,1.1075961E1,1.4446906E0,2.6485994E0,4.815635E0,6.7418895E0,9.149707E0,5.056417E0,6.019544E0,1.7095505E1,1.2761434E1,2.8893812E0,2.9134594E1,5.032339E1,1.7095505E1,6.1399353E1,1.1798306E1,1.8058633E2,4.9601044E1,5.297199E0,2.1670358E0,4.3340716E0,9.8455664E2,1.9262542E0,7.464235E0,7.6087036E1,4.6470882E1,4.815635E0,5.297199E0,1.2039088E0,2.5282085E1],"tree_param":{"num_deleted":"0","num_feature":"21","num_nodes":"75","size_leaf_vector":"1"}},{"base_weights":[7.048833E-3,2.0665426E0,-9.1363037E-1,2.2374225E0,1.0872873E0,-1.3897015E0,8.6135906E-1,1.1474557E-1,1.9748833E0,-1.8326001E-1,1.9989053E0,-8.602273E-1,-1.471087E0,8.486797E-2,2.267558E0,1.09109E0,2.1852698E0,-8.3550304E-1,3.5836238E-1,6.343338E-1,1.0400208E-1,-1.0477512E0,6.414996E-2,-1.2699982E0,-1.5168514E0,1.0547228E0,-6.546653E-1,1.1406058E-1,4.9645796E-2,-3.5924682E-1,1.4097221E0,1.8673738E-2,1.101702E-1,-9.4486815E-1,1.2915946E-2,7.4362504E-1,-3.7202108E-1,6.362177E-2,1.3975771E-1,-6.2561536E-1,-1.1919909E0,-4.2431775E-1,7.65524E-1,-1.2853124E0,4.6030175E-2,-1.5221936E0,-4.7401598E-1,5.5505425E-1,1.7454866E0,-3.6355034E-1,-1.1713302E0,1.9228613E-2,-3.9036643E-2,1.0391301E-1,4.6078965E-2,-5.9931397E-2,-2.0308105E-2,5.7287276E-2,-1.0244828E-2,1.2479379E-2,-4.928772E-2,-2.9392704E-2,3.724201E-2,-5.83085E-2,2.963579E-3,-6.9781677E-3,-6.019021E-2,-4.159562E-3,-4.6897132E-2,6.1821587E-2,3.9872206E-3,-6.993159E-2,-5.2812137E-2,-2.119312E-2,-7.6154314E-2,6.543123E-2,-5.6692053E-2,3.7221357E-2,-4.5562364E-2,9.996169E-2,6.3277125E-2,-6.661266E-2,-1.8102322E-4,-6.950889E-2,-3.178699E-2],"categories":[],"categories_nodes":[],"categories_segments":[],"categories_sizes":[],"default_left":[0,0,0,0,0,0,0,0,0,0,0,0,0,0,0,0,0,0,0,0,0,0,0,0,0,0,0,0,0,0,0,0,0,0,0,0,0,0,0,0,0,0,0,0,0,0,0,0,0,0,0,0,0,0,0,0,0,0,0,0,0,0,0,0,0,0,0,0,0,0,0,0,0,0,0,0,0,0,0,0,0,0,0,0,0],"id":1,"left_children":[1,3,5,7,9,11,13,-1,15,17,19,21,23,25,27,29,31,33,35,37,-1,39,41,43,45,47,49,-1,-1,51,53,-1,-1,55,-1,57,59,-1,61,63,65,67,69,71,-1,73,75,77,79,81,83,-1,-1,-1,-1,-1,-1,-1,-1,-1,-1,-1,-1,-1,-1,-1,-1,-1,-1,-1,-1,-1,-1,-1,-1,-1,-1,-1,-1,-1,-1,-1,-1,-1,-1],"loss_changes":[4.901662E3,1.3120435E2,1.510799E3,5.7165527E0,1.400511E2,5.9451904E1,4.1301843E2,0E0,2.1629303E1,1.8421238E1,6.464142E0,3.3025818E1,9.300049E0,1.7630254E2,7.727051E-2,1.2905003E1,2.5716248E0,3.0639439E0,8.359588E0,1.52139E0,0E0,8.882385E0,1.163364E1,8.976379E0,4.7858887E0,3.572439E1,2.056134E1,0E0,0E0,2.0651596E0,5.329502E0,0E0,0E0,2.4719963E0,0E0,7.5347605E0,4.2846494E0,0E0,2.267888E0,1.5757093E1,1.2835083E0,3.4439082E0,4.3927803E0,4.5217896E0,0E0,3.1835938E-1,9.118339E0,1.8214832E1,2.8473969E0,3.161829E1,4.957672E0,0E0,0E0,0E0,0E0,0E0,0E0,0E0,0E0,0E0,0E0,0E0,0E0,0E0,0E0,0E0,0E0,0E0,0E0,0E0,0E0,0E0,0E0,0E0,0E0,0E0,0E0,0E0,0E0,0E0,0E0,0E0,0E0,0E0,0E0],"parents":[2147483647,0,0,1,1,2,2,3,3,4,4,5,5,6,6,8,8,9,9,10,10,11,11,12,12,13,13,14,14,15,15,16,16,17,17,18,18,19,19,21,21,22,22,23,23,24,24,25,25,26,26,29,29,30,30,33,33,35,35,36,36,38,38,39,39,40,40,41,41,42,42,43,43,45,45,46,46,47,47,48,48,49,49,50,50],"right_children":[2,4,6,8,10,12,14,-1,16,18,20,22,24,26,28,30,32,34,36,38,-1,40,42,44,46,48,50,-1,-1,52,54,-1,-1,56,-1,58,60,-1,62,64,66,68,70,72,-1,74,76,78,80,82,84,-1,-1,-1,-1,-1,-1,-1,-1,-1,-1,-1,-1,-1,-1,-1,-1,-1,-1,-1,-1,-1,-1,-1,-1,-1,-1,-1,-1,-1,-1,-1,-1,-1,-1],"split_conditions":[2.5E1,2.1E1,2.017E3,1.5E1,2.017E3,3.1E1,2.9337492E0,1.1474557E-1,2.017E3,1.3824731E0,1.2846643E0,1.6891599E0,3.5E1,3.2E1,9.1E1,1.1601787E0,9.7430766E-1,8.5291664E1,2.4E1,1E0,1.0400208E-1,2.7E1,2.015E3,2.078182E0,2.5045414E0,1.6632211E0,4.2E1,1.1406058E-1,4.9645796E-2,1E0,1.7166666E1,1.8673738E-2,1.101702E-1,1.2958965E0,1.2915946E-2,2.6821403E-2,1E0,6.362177E-2,2.3625E1,1.4440031E0,2.9311E4,4.5468E4,3.3791668E1,1.6675723E0,4.6030175E-2,3.775E4,6.2E1,2.018E3,3E1,1.6396359E0,1.9666605E0,1.9228613E-2,-3.9036643E-2,1.0391301E-1,4.6078965E-2,-5.9931397E-2,-2.0308105E-2,5.7287276E-2,-1.0244828E-2,1.2479379E-2,-4.928772E-2,-2.9392704E-2,3.724201E-2,-5.83085E-2,2.963579E-3,-6.9781677E-3,-6.019021E-2,-4.159562E-3,-4.6897132E-2,6.1821587E-2,3.9872206E-3,-6.993159E-2,-5.2812137E-2,-2.119312E-2,-7.6154314E-2,6.543123E-2,-5.6692053E-2,3.7221357E-2,-4.5562364E-2,9.996169E-2,6.3277125E-2,-6.661266E-2,-1.8102322E-4,-6.950889E-2,-3.178699E-2],"split_indices":[0,0,18,0,18,0,2,0,18,2,2,2,0,0,0,2,2,9,0,15,0,0,18,2,2,2,0,0,0,11,9,0,0,2,0,10,11,0,9,2,4,4,9,2,0,4,0,18,0,2,2,0,0,0,0,0,0,0,0,0,0,0,0,0,0,0,0,0,0,0,0,0,0,0,0,0,0,0,0,0,0,0,0,0,0],"split_type":[0,0,0,0,0,0,0,0,0,0,0,0,0,0,0,0,0,0,0,0,0,0,0,0,0,0,0,0,0,0,0,0,0,0,0,0,0,0,0,0,0,0,0,0,0,0,0,0,0,0,0,0,0,0,0,0,0,0,0,0,0,0,0,0,0,0,0,0,0,0,0,0,0,0,0,0,0,0,0,0,0,0,0,0,0],"sum_hessian":[2.5830874E3,7.9762115E2,1.7854663E3,6.780217E2,1.19599464E2,1.4080338E3,3.774326E2,5.4987354E2,1.281482E2,5.0297462E1,6.9301994E1,1.8913533E2,1.2188984E3,2.4384424E2,1.3358835E2,2.5829514E1,1.0231868E2,2.2572353E1,2.7725111E1,4.3842773E0,6.491772E1,1.5712639E2,3.200894E1,2.3130359E2,9.8759485E2,1.0531004E2,1.385342E2,1.3139124E2,2.1971078E0,4.629533E0,2.119998E1,1.2279444E0,1.0109073E2,2.0644411E1,1.9279413E0,1.8139013E1,9.586097E0,1.2276214E0,3.1566558E0,4.137487E1,1.15751526E2,1.9101109E1,1.2907832E1,2.3010822E2,1.1953853E0,9.821041E2,5.4907036E0,6.2154053E1,4.3155994E1,8.969767E1,4.8836517E1,1.7061602E0,2.9233725E0,7.5720963E0,1.3627884E1,1.3201009E1,7.4434032E0,1.2592546E1,5.546468E0,5.057266E0,4.5288305E0,1.4461422E0,1.7105135E0,2.2731255E1,1.8643616E1,1.4271001E0,1.14324425E2,1.2176197E1,6.924912E0,7.176767E0,5.731065E0,1.5053412E2,7.95741E1,1.1840438E0,9.809201E2,1.2176647E0,4.273039E0,5.548099E1,6.6730623E0,2.6159752E1,1.6996243E1,2.3567495E1,6.613017E1,3.3537266E1,1.52992525E1],"tree_param":{"num_deleted":"0","num_feature":"21","num_nodes":"85","size_leaf_vector":"1"}},{"base_weights":[4.8951115E-3,1.9032763E0,-8.399601E-1,2.1019654E0,9.457595E-1,-1.3414036E0,8.8602155E-1,2.1073658E0,-9.62638E-3,-3.433544E-1,1.8429095E0,-1.0565131E0,-1.4366019E0,1.0751573E-1,2.4226268E-1,1.0720104E-1,1.7936202E0,3.815704E-1,-5.4051083E-1,1.2906952E0,1.05526045E-1,-7.15559E-1,-1.1395264E0,-1.4444451E0,-6.8534774E-1,-8.440914E-1,1.4284505E0,7.3000044E-1,2.042547E0,-3.9749898E-2,8.7726736E-1,5.0347604E-2,-6.42181E-1,1.3557607E-1,1.030007E-1,-6.7082E-2,-6.08701E-1,-1.2842079E0,-9.911066E-1,-1.3350134E0,-7.3676385E-2,3.9128107E-1,-6.950763E-2,1.0000793E-1,-1.1512861E0,1.09741606E-1,-1.2799313E0,4.6475966E-2,-4.5589138E-2,1.0356071E-1,4.50409E-2,-3.038202E-3,6.0423937E-2,-4.1000206E-2,2.3114663E-3,3.1805344E-2,-2.7976766E-2,-1.1487371E-2,-3.8302746E-2,-6.705354E-2,-5.274259E-2,-4.803097E-3,-5.1288884E-2,-7.2382286E-2,-5.795007E-2,-3.545467E-2,5.5651277E-2,-1.6022008E-2,7.9609774E-2,-6.839626E-2,-3.83038E-2,-8.20781E-3,-7.105947E-2],"categories":[],"categories_nodes":[],"categories_segments":[],"categories_sizes":[],"default_left":[0,0,0,0,0,0,0,0,0,0,0,0,0,0,0,0,0,0,0,0,0,0,0,0,0,0,0,0,0,0,0,0,0,0,0,0,0,0,0,0,0,0,0,0,0,0,0,0,0,0,0,0,0,0,0,0,0,0,0,0,0,0,0,0,0,0,0,0,0,0,0,0,0],"id":2,"left_children":[1,3,5,7,9,11,13,15,-1,17,19,21,23,-1,25,-1,27,29,31,33,-1,35,37,39,41,43,45,47,49,-1,51,-1,53,55,-1,-1,57,59,61,63,-1,65,-1,67,69,-1,71,-1,-1,-1,-1,-1,-1,-1,-1,-1,-1,-1,-1,-1,-1,-1,-1,-1,-1,-1,-1,-1,-1,-1,-1,-1,-1],"loss_changes":[4.1079976E3,1.4808496E2,1.5352535E3,8.490723E0,1.5951074E2,3.5743164E1,3.2473883E2,3.6411133E0,0E0,8.383726E0,9.269562E0,9.031006E0,5.0612793E0,0E0,3.4388376E2,0E0,1.8159515E1,8.1742525E0,7.7888203E0,2.5550964E1,0E0,3.9202309E0,4.698578E0,1.2646484E0,1.0039728E1,4.0553787E1,2.674416E2,5.9680433E0,8.453369E-2,0E0,3.0234575E0,0E0,5.327202E0,4.7711687E0,0E0,0E0,3.5396175E0,3.7773132E-1,4.297104E0,2.7598877E0,0E0,5.341043E0,0E0,2.2563545E1,7.7379913E0,0E0,4.2982407E0,0E0,0E0,0E0,0E0,0E0,0E0,0E0,0E0,0E0,0E0,0E0,0E0,0E0,0E0,0E0,0E0,0E0,0E0,0E0,0E0,0E0,0E0,0E0,0E0,0E0,0E0],"parents":[2147483647,0,0,1,1,2,2,3,3,4,4,5,5,6,6,7,7,9,9,10,10,11,11,12,12,14,14,16,16,17,17,18,18,19,19,21,21,22,22,23,23,24,24,25,25,26,26,27,27,28,28,30,30,32,32,33,33,36,36,37,37,38,38,39,39,41,41,43,43,44,44,46,46],"right_children":[2,4,6,8,10,12,14,16,-1,18,20,22,24,-1,26,-1,28,30,32,34,-1,36,38,40,42,44,46,48,50,-1,52,-1,54,56,-1,-1,58,60,62,64,-1,66,-1,68,70,-1,72,-1,-1,-1,-1,-1,-1,-1,-1,-1,-1,-1,-1,-1,-1,-1,-1,-1,-1,-1,-1,-1,-1,-1,-1,-1,-1],"split_conditions":[3.5019E4,2.7784E4,2.017E3,1.946E3,2.017E3,4.9173E4,1E0,2.2935E4,-9.62638E-3,3.26E2,6E0,1.643375E3,2.2263248E0,1.0751573E-1,6E0,1.0720104E-1,2.017E3,1.3824731E0,1.1712916E3,2.018E3,1.05526045E-1,1.2958965E0,1.5690624E0,2.2818333E3,9.7747E4,1.8429166E3,2.018E3,5.4518573E-2,1.12349E5,-3.9749898E-2,7.0755E4,5.0347604E-2,1.5948286E0,3.192E4,1.030007E-1,-6.7082E-2,6.709E4,8.4901E4,1.5857152E0,1.7147062E0,-7.3676385E-2,1E0,-6.950763E-2,2.018E3,4E0,1.09741606E-1,4.1188E4,4.6475966E-2,-4.5589138E-2,1.0356071E-1,4.50409E-2,-3.038202E-3,6.0423937E-2,-4.1000206E-2,2.3114663E-3,3.1805344E-2,-2.7976766E-2,-1.1487371E-2,-3.8302746E-2,-6.705354E-2,-5.274259E-2,-4.803097E-3,-5.1288884E-2,-7.2382286E-2,-5.795007E-2,-3.545467E-2,5.5651277E-2,-1.6022008E-2,7.9609774E-2,-6.839626E-2,-3.83038E-2,-8.20781E-3,-7.105947E-2],"split_indices":[4,4,18,8,18,4,17,4,0,8,19,5,2,0,19,0,18,2,5,18,0,2,2,5,4,7,18,10,13,0,13,0,2,4,0,0,13,13,2,2,0,11,0,18,19,0,4,0,0,0,0,0,0,0,0,0,0,0,0,0,0,0,0,0,0,0,0,0,0,0,0,0,0],"split_type":[0,0,0,0,0,0,0,0,0,0,0,0,0,0,0,0,0,0,0,0,0,0,0,0,0,0,0,0,0,0,0,0,0,0,0,0,0,0,0,0,0,0,0,0,0,0,0,0,0,0,0,0,0,0,0,0,0,0,0,0,0,0,0,0,0,0,0,0,0,0,0,0,0],"sum_hessian":[2.5593267E3,7.878293E2,1.7714973E3,6.514544E2,1.363749E2,1.3728661E3,3.9863123E2,6.5000604E2,1.448376E0,5.6215782E1,8.015911E1,3.4688245E2,1.0259836E3,1.3370488E2,2.6492636E2,5.767867E2,7.321936E1,1.1819879E1,4.4395905E1,2.8066692E1,5.2092422E1,6.980362E1,2.7707883E2,1.01446967E3,1.1514001E1,1.3843288E2,1.2649348E2,1.4632003E1,5.8587357E1,3.3246977E0,8.49518E0,2.1880932E0,4.220781E1,1.1690233E1,1.637646E1,8.49224E0,6.1311375E1,1.3643126E2,1.4064757E2,2.2284729E2,7.916224E2,4.7313843E0,6.782617E0,3.4151073E1,1.042818E2,9.874232E1,2.7751165E1,1.3433342E1,1.1986607E0,5.6358177E1,2.2291796E0,2.4299116E0,6.065269E0,3.3391346E1,8.816465E0,6.8457093E0,4.8445234E0,1.8710695E1,4.260068E1,1.0544248E2,3.0988775E1,5.385658E0,1.3526192E2,1.314842E2,9.136307E1,1.8810525E0,2.8503318E0,2.7256395E1,6.8946776E0,6.511216E1,3.9169643E1,3.361478E0,2.4389687E1],"tree_param":{"num_deleted":"0","num_feature":"21","num_nodes":"73","size_leaf_vector":"1"}},{"base_weights":[5.479096E-3,1.7753614E0,-8.7106395E-1,1.9824357E0,8.7523466E-1,1.01630665E-1,-1.1250331E0,1.0101842E-1,1.6106571E0,7.999203E-1,9.397746E-2,-4.103039E-1,-1.2963268E0,1.2257775E0,9.00932E-2,1.0676891E0,4.425237E-1,-8.2393605E-1,-1.3693024E-1,-1.0687163E0,-1.3827896E0,1.3348681E0,-2.658164E-2,1.1987458E0,4.8414552E-1,-2.7679756E-1,7.10599E-1,-1.6512792E-1,-9.16748E-1,4.3956593E-1,-3.7477493E-1,-9.706558E-1,-1.2590294E0,-1.3037215E0,-7.263272E-2,7.633879E-2,2.026622E-3,3.947686E-2,6.9504805E-2,-2.2172073E-2,3.4194056E-2,1.3680153E-2,-4.1574623E-2,4.4593148E-2,1.0758403E-2,-1.5879868E-2,4.779361E-2,-4.6860855E-2,2.406757E-2,6.497618E-2,1.1182378E-2,-4.670113E-3,-2.8389702E-2,-5.0985064E-2,-3.2543402E-2,-6.459186E-2,-3.4932043E-2,-6.551545E-2,-2.8001864E-2],"categories":[],"categories_nodes":[],"categories_segments":[],"categories_sizes":[],"default_left":[0,0,0,0,0,0,0,0,0,0,0,0,0,0,0,0,0,0,0,0,0,0,0,0,0,0,0,0,0,0,0,0,0,0,0,0,0,0,0,0,0,0,0,0,0,0,0,0,0,0,0,0,0,0,0,0,0,0,0],"id":3,"left_children":[1,3,5,7,9,-1,11,-1,13,15,-1,17,19,21,-1,23,25,27,29,31,33,35,-1,37,39,41,43,45,47,49,51,53,55,57,-1,-1,-1,-1,-1,-1,-1,-1,-1,-1,-1,-1,-1,-1,-1,-1,-1,-1,-1,-1,-1,-1,-1,-1,-1],"loss_changes":[3.9460007E3,1.5529468E2,1.2567406E3,6.3935547E0,1.0549828E1,0E0,1.9105737E2,0E0,2.8153534E0,1.3880295E1,0E0,3.426287E1,2.3356201E1,5.6533966E0,0E0,5.9226227E0,1.2913136E1,7.2331543E0,2.5426327E1,5.343231E0,3.1391602E0,6.0397377E0,0E0,4.2864914E0,3.5033207E0,5.9134007E0,4.1475887E0,3.06096E0,3.4742508E0,9.786179E0,7.059704E0,3.0461884E0,1.2349854E0,1.4077759E0,0E0,0E0,0E0,0E0,0E0,0E0,0E0,0E0,0E0,0E0,0E0,0E0,0E0,0E0,0E0,0E0,0E0,0E0,0E0,0E0,0E0,0E0,0E0,0E0,0E0],"parents":[2147483647,0,0,1,1,2,2,3,3,4,4,6,6,8,8,9,9,11,11,12,12,13,13,15,15,16,16,17,17,18,18,19,19,20,20,21,21,23,23,24,24,25,25,26,26,27,27,28,28,29,29,30,30,31,31,32,32,33,33],"right_children":[2,4,6,8,10,-1,12,-1,14,16,-1,18,20,22,-1,24,26,28,30,32,34,36,-1,38,40,42,44,46,48,50,52,54,56,58,-1,-1,-1,-1,-1,-1,-1,-1,-1,-1,-1,-1,-1,-1,-1,-1,-1,-1,-1,-1,-1,-1,-1,-1,-1],"split_conditions":[2.6E1,2.1E1,1E0,1.8E1,1.8818334E3,1.01630665E-1,3.2E1,1.0101842E-1,6E0,2.4E1,9.397746E-2,6E0,3.7E1,1.02279E5,9.00932E-2,3.5579883E-2,5E0,2.7E1,4.51E2,4.925E1,4.3E1,4.0060487E-2,-2.658164E-2,7.1353E4,3.814416E-2,1E0,2.7967941E-2,2.098E3,2.1009E5,6.0227E4,2.9E1,9.96E2,6.0922E4,2.29165E5,-7.263272E-2,7.633879E-2,2.026622E-3,3.947686E-2,6.9504805E-2,-2.2172073E-2,3.4194056E-2,1.3680153E-2,-4.1574623E-2,4.4593148E-2,1.0758403E-2,-1.5879868E-2,4.779361E-2,-4.6860855E-2,2.406757E-2,6.497618E-2,1.1182378E-2,-4.670113E-3,-2.8389702E-2,-5.0985064E-2,-3.2543402E-2,-6.459186E-2,-3.4932043E-2,-6.551545E-2,-2.8001864E-2],"split_indices":[0,0,17,0,7,0,0,0,19,0,0,19,0,13,0,10,19,0,8,9,0,10,0,13,10,11,10,8,13,13,0,8,4,13,0,0,0,0,0,0,0,0,0,0,0,0,0,0,0,0,0,0,0,0,0,0,0,0,0],"split_type":[0,0,0,0,0,0,0,0,0,0,0,0,0,0,0,0,0,0,0,0,0,0,0,0,0,0,0,0,0,0,0,0,0,0,0,0,0,0,0,0,0,0,0,0,0,0,0,0,0,0,0,0,0,0,0,0,0,0,0],"sum_hessian":[2.5415486E3,8.414664E2,1.7000823E3,6.8311365E2,1.5835274E2,1.3617415E2,1.5639081E3,6.1584467E2,6.726896E1,1.489773E2,9.37544E0,3.0300482E2,1.2609033E3,2.4786688E1,4.2482273E1,8.4031685E1,6.494562E1,1.1977041E2,1.832344E2,3.5079828E2,9.1010504E2,2.3564375E1,1.2223145E0,6.7759476E1,1.6272211E1,1.7623713E1,4.7321903E1,1.51327305E1,1.0463768E2,5.3269596E1,1.2996481E2,2.3553638E2,1.152619E2,4.3615552E2,4.7394952E2,2.0365286E1,3.199089E0,2.322283E1,4.4536644E1,2.6668801E0,1.360533E1,9.100458E0,8.523254E0,3.4060112E1,1.3261792E1,1.3951803E1,1.1809282E0,1.0345271E2,1.1849664E0,9.683534E0,4.3586063E1,5.3483456E1,7.648135E1,2.0231836E2,3.3218018E1,1.0765405E2,7.6078463E0,4.315708E2,4.58471E0],"tree_param":{"num_deleted":"0","num_feature":"21","num_nodes":"59","size_leaf_vector":"1"}},{"base_weights":[-5.6690006E-3,1.6766297E0,-8.4793454E-1,1.8909502E0,7.249341E-1,-1.0910078E0,1.8986628E0,9.66557E-2,1.6459295E0,-6.8797834E-2,1.3306636E0,-5.5095536E-1,-1.3089725E0,9.595122E-2,-2.9507962E-3,1.0508022E0,1.811487E0,-7.9780984E-1,3.7889165E-1,1.1100218E0,9.637359E-2,-8.679533E-1,1.1660435E-1,-1.364632E0,-1.1484605E0,1.0728855E-1,1.4307907E0,9.16361E-2,2.006411E-2,-1.0543051E0,2.3552577E-1,-4.7911933E-1,8.312749E-1,1.5102965E0,6.5280837E-1,-5.230032E-1,-1.0424453E0,6.166456E-1,-3.1582448E-1,-1.2764046E0,-7.181811E-2,-7.589574E-1,-1.3213184E0,4.2863306E-2,-3.7844487E-2,8.027289E-2,2.6687816E-2,6.4401412E-3,-6.1490674E-2,-2.4692109E-2,3.8183343E-2,-3.752184E-2,4.6777464E-2,4.6378396E-2,-2.8795613E-2,8.575571E-2,4.775169E-2,6.0002398E-2,8.556459E-3,-5.57409E-2,-6.2694103E-3,-6.1553538E-2,-4.3096166E-2,-2.3413773E-3,4.850237E-2,-2.074159E-2,1.7708229E-2,-7.017253E-2,-5.53158E-2,-4.0450927E-2,2.3057532E-2,-6.705043E-2,-3.303645E-2],"categories":[],"categories_nodes":[],"categories_segments":[],"categories_sizes":[],"default_left":[0,0,0,0,0,0,0,0,0,0,0,0,0,0,0,0,0,0,0,0,0,0,0,0,0,0,0,0,0,0,0,0,0,0,0,0,0,0,0,0,0,0,0,0,0,0,0,0,0,0,0,0,0,0,0,0,0,0,0,0,0,0,0,0,0,0,0,0,0,0,0,0,0],"id":4,"left_children":[1,3,5,7,9,11,13,-1,15,17,19,21,23,-1,-1,25,27,29,31,33,-1,35,37,39,41,43,45,-1,-1,47,49,51,53,55,57,59,61,63,65,67,-1,69,71,-1,-1,-1,-1,-1,-1,-1,-1,-1,-1,-1,-1,-1,-1,-1,-1,-1,-1,-1,-1,-1,-1,-1,-1,-1,-1,-1,-1,-1,-1],"loss_changes":[3.5469363E3,1.689729E2,1.1157218E3,3.8537598E0,7.467464E1,1.7974268E2,5.5338135E0,0E0,8.6111145E0,2.2526382E1,9.452652E0,9.375383E1,8.18457E0,0E0,0E0,9.027458E0,1.7234192E0,7.2002926E0,1.7036411E1,1.12079315E1,0E0,1.7523468E1,3.1196615E1,3.262329E0,1.8344604E1,6.114558E0,1.9906883E0,0E0,0E0,4.559654E0,2.7012353E0,6.6254764E0,4.386883E0,2.3158035E0,8.457321E0,2.406154E1,5.692627E0,1.5714594E1,5.2908216E0,6.4437256E0,0E0,5.911667E0,1.6852417E0,0E0,0E0,0E0,0E0,0E0,0E0,0E0,0E0,0E0,0E0,0E0,0E0,0E0,0E0,0E0,0E0,0E0,0E0,0E0,0E0,0E0,0E0,0E0,0E0,0E0,0E0,0E0,0E0,0E0,0E0],"parents":[2147483647,0,0,1,1,2,2,3,3,4,4,5,5,6,6,8,8,9,9,10,10,11,11,12,12,15,15,16,16,17,17,18,18,19,19,21,21,22,22,23,23,24,24,25,25,26,26,29,29,30,30,31,31,32,32,33,33,34,34,35,35,36,36,37,37,38,38,39,39,41,41,42,42],"right_children":[2,4,6,8,10,12,14,-1,16,18,20,22,24,-1,-1,26,28,30,32,34,-1,36,38,40,42,44,46,-1,-1,48,50,52,54,56,58,60,62,64,66,68,-1,70,72,-1,-1,-1,-1,-1,-1,-1,-1,-1,-1,-1,-1,-1,-1,-1,-1,-1,-1,-1,-1,-1,-1,-1,-1,-1,-1,-1,-1,-1,-1],"split_conditions":[2.6E1,2.1E1,2.9337492E0,1.6E1,1.4440031E0,3.4E1,5E0,9.66557E-2,1.2618998E0,1.2958965E0,1.7257638E0,1.6659418E0,1.8862585E0,9.595122E-2,-2.9507962E-3,6E0,2.799027E4,9.3379E3,6E0,2.4E1,9.637359E-2,2.9E1,3.1E1,4E1,4.2E1,2.2791666E1,2.9311E4,9.16361E-2,2.006411E-2,1.275E1,1.1787674E0,6.3291668E1,5.3258605E-2,3.6125E1,1E0,1.4440031E0,1.522774E0,6E0,1.305717E4,1.6918389E0,-7.181811E-2,2.673006E4,3.6799017E-2,4.2863306E-2,-3.7844487E-2,8.027289E-2,2.6687816E-2,6.4401412E-3,-6.1490674E-2,-2.4692109E-2,3.8183343E-2,-3.752184E-2,4.6777464E-2,4.6378396E-2,-2.8795613E-2,8.575571E-2,4.775169E-2,6.0002398E-2,8.556459E-3,-5.57409E-2,-6.2694103E-3,-6.1553538E-2,-4.3096166E-2,-2.3413773E-3,4.850237E-2,-2.074159E-2,1.7708229E-2,-7.017253E-2,-5.53158E-2,-4.0450927E-2,2.3057532E-2,-6.705043E-2,-3.303645E-2],"split_indices":[0,0,2,0,2,0,19,0,2,2,2,2,2,0,0,19,16,16,19,0,0,0,0,0,0,9,4,0,0,9,2,9,10,9,11,2,2,19,16,2,0,16,10,0,0,0,0,0,0,0,0,0,0,0,0,0,0,0,0,0,0,0,0,0,0,0,0,0,0,0,0,0,0],"split_type":[0,0,0,0,0,0,0,0,0,0,0,0,0,0,0,0,0,0,0,0,0,0,0,0,0,0,0,0,0,0,0,0,0,0,0,0,0,0,0,0,0,0,0,0,0,0,0,0,0,0,0,0,0,0,0,0,0,0,0,0,0,0,0,0,0,0,0,0,0,0,0,0,0],"sum_hessian":[2.5012292E3,8.341499E2,1.6670795E3,6.8002277E2,1.5412715E2,1.5320924E3,1.3498703E2,5.743053E2,1.0571746E2,6.709459E1,8.703256E1,4.4156128E2,1.0905311E3,1.3361705E2,1.3699846E0,2.4607664E1,8.1109795E1,2.5229357E1,4.186523E1,6.5629196E1,2.140337E1,2.991883E2,1.4237299E2,8.041728E2,2.8635834E2,7.4332385E0,1.7174427E1,7.961138E1,1.4984105E0,2.0196E1,5.033357E0,1.4432599E1,2.7432632E1,3.376545E1,3.1863747E1,1.0184673E2,1.9734155E2,6.582728E1,7.654571E1,3.690457E2,4.3512708E2,8.9677505E1,1.9668085E2,3.9838505E0,3.449388E0,1.37142935E1,3.460133E0,2.6433308E0,1.7552668E1,2.1412346E0,2.8921227E0,1.25040045E1,1.928595E0,2.5994669E1,1.4379636E0,2.3140764E1,1.0624684E1,1.4218552E1,1.7645195E1,4.020355E1,6.1643185E1,9.365894E1,1.0368262E2,2.3178911E1,4.2648365E1,6.702235E1,9.523356E0,2.0710188E2,1.6194382E2,8.64667E1,3.2108076E0,1.8998787E2,6.6929746E0],"tree_param":{"num_deleted":"0","num_feature":"21","num_nodes":"73","size_leaf_vector":"1"}},{"base_weights":[-8.812886E-3,1.604862E0,-8.215314E-1,1.8071462E0,7.4996394E-1,-1.2592484E0,7.5114816E-1,1.8407931E0,1.5037963E0,-2.9611668E-1,1.5513945E0,-1.0039539E0,-1.3452598E0,1.005305E-1,9.195005E-2,9.218957E-2,7.965531E-1,-2.5231346E-1,1.6076071E0,-8.8778424E-1,1.5654133E-1,5.5355635E-2,1.6255264E0,-1.1476398E0,-5.3247124E-1,-1.3527287E0,-5.7874036E-1,6.780531E-1,-5.4827756E-1,1.0397257E-2,5.1538534E-2,-5.580732E-2,2.7491191E-2,1.0892578E0,9.126752E-2,-9.79813E-1,2.2460654E-2,6.431362E-1,-2.702402E-1,-4.8215574E-1,4.3415483E-2,9.9937946E-1,8.451351E-2,-5.569431E-1,-1.2041992E0,1.9859532E-1,-7.4771696E-1,-1.232935E0,-6.8945296E-2,5.225416E-2,-1.020269E0,2.3020929E-1,1.239728E0,-1.2461731E0,-3.334602E-1,1.0044857E-2,7.217709E-2,-5.870953E-2,-3.0581182E-2,-2.6755917E-3,4.7388915E-2,-2.6021514E-2,3.7976336E-2,1.9419355E-2,-5.1203985E-2,6.6538066E-2,1.44871175E-2,-5.232894E-2,1.5247281E-3,-6.793428E-2,-5.6636788E-2,2.1485908E-2,-5.5029243E-2,-4.3393355E-2,-3.948584E-3,-6.26451E-2,4.079302E-2,-5.9620507E-2,5.57394E-3,2.0788146E-2,-6.0993582E-2,7.62951E-2,4.4825107E-2,3.8399273E-3,-6.566387E-2,-9.591899E-4,-4.6879973E-2],"categories":[],"categories_nodes":[],"categories_segments":[],"categories_sizes":[],"default_left":[0,0,0,0,0,0,0,0,0,0,0,0,0,0,0,0,0,0,0,0,0,0,0,0,0,0,0,0,0,0,0,0,0,0,0,0,0,0,0,0,0,0,0,0,0,0,0,0,0,0,0,0,0,0,0,0,0,0,0,0,0,0,0,0,0,0,0,0,0,0,0,0,0,0,0,0,0,0,0,0,0,0,0,0,0,0,0],"id":5,"left_children":[1,3,5,7,9,11,13,15,17,19,21,23,25,27,-1,-1,29,31,33,35,37,39,41,43,45,47,49,51,53,-1,-1,-1,-1,55,-1,57,-1,59,61,63,-1,65,-1,67,69,71,73,75,-1,-1,77,79,81,83,85,-1,-1,-1,-1,-1,-1,-1,-1,-1,-1,-1,-1,-1,-1,-1,-1,-1,-1,-1,-1,-1,-1,-1,-1,-1,-1,-1,-1,-1,-1,-1,-1],"loss_changes":[3.274128E3,1.432539E2,1.1438927E3,4.126465E0,1.3603384E2,2.7177734E1,2.5611713E2,4.2089844E-1,1.3696777E1,1.915157E1,1.0082626E1,2.1836243E1,4.763916E0,8.567523E1,0E0,0E0,2.666173E-1,4.0322456E0,5.7965393E0,4.2445965E0,8.702685E0,2.7633686E0,1.8522186E0,7.784912E0,1.2620623E1,1.3065186E0,9.022495E0,3.012421E1,1.5740555E1,0E0,0E0,0E0,0E0,6.9119205E0,0E0,1.3746967E0,0E0,4.1861696E0,6.213662E0,2.224936E0,0E0,2.1148682E0,0E0,6.9282227E0,1.0014648E0,6.123488E0,4.868225E0,8.442169E0,0E0,0E0,1.9312725E0,1.893564E1,3.8773346E0,2.3201332E0,1.5886477E1,0E0,0E0,0E0,0E0,0E0,0E0,0E0,0E0,0E0,0E0,0E0,0E0,0E0,0E0,0E0,0E0,0E0,0E0,0E0,0E0,0E0,0E0,0E0,0E0,0E0,0E0,0E0,0E0,0E0,0E0,0E0,0E0],"parents":[2147483647,0,0,1,1,2,2,3,3,4,4,5,5,6,6,7,7,8,8,9,9,10,10,11,11,12,12,13,13,16,16,17,17,18,18,19,19,20,20,21,21,22,22,23,23,24,24,25,25,26,26,27,27,28,28,33,33,35,35,37,37,38,38,39,39,41,41,43,43,44,44,45,45,46,46,47,47,50,50,51,51,52,52,53,53,54,54],"right_children":[2,4,6,8,10,12,14,16,18,20,22,24,26,28,-1,-1,30,32,34,36,38,40,42,44,46,48,50,52,54,-1,-1,-1,-1,56,-1,58,-1,60,62,64,-1,66,-1,68,70,72,74,76,-1,-1,78,80,82,84,86,-1,-1,-1,-1,-1,-1,-1,-1,-1,-1,-1,-1,-1,-1,-1,-1,-1,-1,-1,-1,-1,-1,-1,-1,-1,-1,-1,-1,-1,-1,-1,-1],"split_conditions":[2.6E1,2.1E1,2.017E3,1.8E1,2.017E3,3.4E1,2.9337492E0,1.784E3,1.172604E0,1.3726099E0,1.2618998E0,1.6918389E0,2.2263248E0,3.5E1,9.195005E-2,9.218957E-2,1E0,5.25473E3,1.3452816E0,1.967E3,2.4E1,7.51913E3,1.3452816E0,2.7E1,3E1,3.7E1,2.745375E3,1.6918389E0,1.6918389E0,1.0397257E-2,5.1538534E-2,-5.580732E-2,2.7491191E-2,2.017E3,9.126752E-2,1.2958965E0,2.2460654E-2,1.4440031E0,1.25E3,3.67E2,4.3415483E-2,2.4E1,8.451351E-2,1.4440031E0,1.4421201E0,1.34194E4,1.273195E4,2.1123345E0,-6.8945296E-2,5.225416E-2,2.6071556E-2,2.018E3,3.1E1,2.5203E3,4.4E1,1.0044857E-2,7.217709E-2,-5.870953E-2,-3.0581182E-2,-2.6755917E-3,4.7388915E-2,-2.6021514E-2,3.7976336E-2,1.9419355E-2,-5.1203985E-2,6.6538066E-2,1.44871175E-2,-5.232894E-2,1.5247281E-3,-6.793428E-2,-5.6636788E-2,2.1485908E-2,-5.5029243E-2,-4.3393355E-2,-3.948584E-3,-6.26451E-2,4.079302E-2,-5.9620507E-2,5.57394E-3,2.0788146E-2,-6.0993582E-2,7.62951E-2,4.4825107E-2,3.8399273E-3,-6.566387E-2,-9.591899E-4,-4.6879973E-2],"split_indices":[0,0,18,0,18,0,2,8,2,2,2,2,2,0,0,0,12,16,2,8,0,16,2,0,0,0,5,2,2,0,0,0,0,18,0,2,0,2,8,8,0,0,0,2,2,16,16,2,0,0,10,18,0,16,0,0,0,0,0,0,0,0,0,0,0,0,0,0,0,0,0,0,0,0,0,0,0,0,0,0,0,0,0,0,0,0,0],"split_type":[0,0,0,0,0,0,0,0,0,0,0,0,0,0,0,0,0,0,0,0,0,0,0,0,0,0,0,0,0,0,0,0,0,0,0,0,0,0,0,0,0,0,0,0,0,0,0,0,0,0,0,0,0,0,0,0,0,0,0,0,0,0,0,0,0,0,0,0,0,0,0,0,0,0,0,0,0,0,0,0,0,0,0,0,0,0,0],"sum_hessian":[2.4945403E3,8.352178E2,1.6593224E3,6.745041E2,1.6071367E2,1.2981996E3,3.6112286E2,6.0259717E2,7.190688E1,6.998938E1,9.072429E1,3.303484E2,9.6785114E2,2.2665724E2,1.3446564E2,6.001085E2,2.4887056E0,3.9336126E0,6.7973274E1,2.991991E1,4.006947E1,4.3658075E0,8.635848E1,2.5208928E2,7.82591E1,9.57754E2,1.0097101E1,1.1989246E2,1.06764786E2,1.2457823E0,1.2429234E0,1.7054858E0,2.2281268E0,2.188273E1,4.609054E1,2.8243029E1,1.6768804E0,1.8485868E1,2.1583601E1,2.873083E0,1.4927245E0,9.63292E0,7.672556E1,2.2976278E1,2.29113E2,1.7818207E1,6.0440895E1,1.8038124E2,7.773728E2,1.8663186E0,8.2307825E0,6.749005E1,5.240241E1,2.3998314E1,8.276647E1,6.685645E0,1.5197085E1,1.7051802E1,1.1191227E1,5.875125E0,1.26107435E1,1.776264E1,3.8209612E0,1.2110227E0,1.6620603E0,5.969876E0,3.6630447E0,1.2105017E1,1.0871261E1,6.676694E1,1.6234607E2,1.5695273E1,2.1229339E0,5.0983242E1,9.457655E0,1.79025E2,1.3562571E0,7.09762E0,1.1331625E0,6.046605E1,7.024005E0,2.6697155E1,2.5705254E1,1.1515157E0,2.2846798E1,5.5122967E1,2.7643505E1],"tree_param":{"num_deleted":"0","num_feature":"21","num_nodes":"87","size_leaf_vector":"1"}},{"base_weights":[-1.5618061E-3,1.6317223E0,-7.379687E-1,8.810317E-2,1.111748E0,8.862186E-2,-9.5806026E-1,1.6416742E-3,1.1755656E0,-2.2802895E-1,-1.1874276E0,-8.694351E-1,6.234437E-1,1.4141605E0,9.8069245E-1,-6.5251356E-1,3.860027E-2,-9.324914E-1,-1.2593676E0,-1.7256193E-2,-5.332253E-2,9.644258E-1,5.6466673E-2,7.6778404E-2,9.326194E-1,6.465461E-1,1.1224483E0,-9.150587E-2,-8.607892E-1,4.8522562E-1,-1.6084859E-1,-9.5994705E-1,-4.8971694E-2,-1.1785277E0,-6.71848E-2,5.9853643E-2,1.3723038E-2,-2.2650477E-2,2.7329821E-2,1.1606727E-2,6.2089022E-2,-2.7040965E-3,4.3412644E-2,6.206722E-2,4.1426312E-2,-1.0018418E-2,5.6390297E-2,-5.5500496E-2,-3.4474544E-2,1.3653013E-2,6.1102595E-2,1.5226148E-2,-1.7997662E-2,-4.311575E-2,-6.0556084E-2,-3.4542054E-2,3.4522377E-2,1.0840536E-2,-5.9274264E-2],"categories":[],"categories_nodes":[],"categories_segments":[],"categories_sizes":[],"default_left":[0,0,0,0,0,0,0,0,0,0,0,0,0,0,0,0,0,0,0,0,0,0,0,0,0,0,0,0,0,0,0,0,0,0,0,0,0,0,0,0,0,0,0,0,0,0,0,0,0,0,0,0,0,0,0,0,0,0,0],"id":6,"left_children":[1,3,5,-1,7,-1,9,11,13,15,17,19,21,23,25,27,29,31,33,-1,-1,35,37,-1,39,41,43,45,47,49,51,53,55,57,-1,-1,-1,-1,-1,-1,-1,-1,-1,-1,-1,-1,-1,-1,-1,-1,-1,-1,-1,-1,-1,-1,-1,-1,-1],"loss_changes":[2.9315935E3,4.9375977E1,9.298972E2,0E0,1.0945084E1,0E0,2.5846204E2,5.634318E0,5.4071198E0,4.1975315E1,2.0385132E1,7.958245E-2,1.1186872E0,2.2761154E0,3.238533E0,1.663593E1,2.0441353E1,6.32222E0,4.6469727E0,0E0,0E0,2.697122E-1,1.0819082E0,0E0,3.0291567E0,4.285657E0,9.775696E-1,5.5153704E0,3.6831818E0,1.0737425E1,1.48217125E1,5.1990967E0,4.732914E0,4.866089E0,0E0,0E0,0E0,0E0,0E0,0E0,0E0,0E0,0E0,0E0,0E0,0E0,0E0,0E0,0E0,0E0,0E0,0E0,0E0,0E0,0E0,0E0,0E0,0E0,0E0],"parents":[2147483647,0,0,1,1,2,2,4,4,6,6,7,7,8,8,9,9,10,10,11,11,12,12,13,13,14,14,15,15,16,16,17,17,18,18,21,21,22,22,24,24,25,25,26,26,27,27,28,28,29,29,30,30,31,31,32,32,33,33],"right_children":[2,4,6,-1,8,-1,10,12,14,16,18,20,22,24,26,28,30,32,34,-1,-1,36,38,-1,40,42,44,46,48,50,52,54,56,58,-1,-1,-1,-1,-1,-1,-1,-1,-1,-1,-1,-1,-1,-1,-1,-1,-1,-1,-1,-1,-1,-1,-1,-1,-1],"split_conditions":[2.4E1,1.8E1,1E0,8.810317E-2,4E0,8.862186E-2,3.2E1,5.25473E3,2.1E1,6E0,3.6E1,1E0,2.1E1,3.775E1,5E0,2.7E1,2.7E1,7E0,4.3E1,-1.7256193E-2,-5.332253E-2,2E0,7.09264E3,7.6778404E-2,6E0,6E0,7.48249E3,4.6564E4,7.341E4,6E0,1.8208334E1,5.3625E1,7.3461E4,4.5384E4,-6.71848E-2,5.9853643E-2,1.3723038E-2,-2.2650477E-2,2.7329821E-2,1.1606727E-2,6.2089022E-2,-2.7040965E-3,4.3412644E-2,6.206722E-2,4.1426312E-2,-1.0018418E-2,5.6390297E-2,-5.5500496E-2,-3.4474544E-2,1.3653013E-2,6.1102595E-2,1.5226148E-2,-1.7997662E-2,-4.311575E-2,-6.0556084E-2,-3.4542054E-2,3.4522377E-2,1.0840536E-2,-5.9274264E-2],"split_indices":[0,0,17,0,3,0,0,16,0,19,0,11,0,9,3,0,0,3,0,0,0,15,16,0,19,19,16,4,13,3,9,9,13,13,0,0,0,0,0,0,0,0,0,0,0,0,0,0,0,0,0,0,0,0,0,0,0,0,0],"split_type":[0,0,0,0,0,0,0,0,0,0,0,0,0,0,0,0,0,0,0,0,0,0,0,0,0,0,0,0,0,0,0,0,0,0,0,0,0,0,0,0,0,0,0,0,0,0,0,0,0,0,0,0,0,0,0,0,0,0,0],"sum_hessian":[2.435384E3,7.5644385E2,1.6789402E3,6.029218E2,1.5352203E2,1.3476236E2,1.5441779E3,8.40163E0,1.451204E2,3.6964963E2,1.1745282E3,3.3335042E0,5.068126E0,6.242858E1,8.2691826E1,1.4205113E2,2.2759848E2,2.6156686E2,9.129613E2,1.6620644E0,1.6714398E0,2.7270637E0,2.3410625E0,4.811007E1,1.4318512E1,2.6287659E1,5.6404163E1,3.8848583E1,1.0320255E2,6.981935E1,1.5777913E2,2.5359967E2,7.9671936E0,4.737675E2,4.3919385E2,1.4897603E0,1.2373034E0,1.1850116E0,1.1560509E0,4.9205585E0,9.397953E0,6.500651E0,1.9787008E1,3.7864143E1,1.8540018E1,3.6431576E1,2.4170096E0,3.980726E1,6.3395294E1,5.5274055E1,1.4545293E1,4.7118526E1,1.1066061E2,1.8580864E2,6.779103E1,4.3000965E0,3.667097E0,2.200975E0,4.7156653E2],"tree_param":{"num_deleted":"0","num_feature":"21","num_nodes":"59","size_leaf_vector":"1"}},{"base_weights":[2.9916025E-3,1.5705429E0,-7.009288E-1,1.6649631E0,8.0310565E-1,-1.1703616E0,7.8853947E-1,1.6698347E0,3.5003617E-1,-1.05729766E-1,1.5374774E0,-7.479232E-1,-1.2462866E0,2.6764E-1,1.6756281E0,8.502673E-2,1.4454149E0,-1.056854E-2,3.5842203E-2,-1.197953E0,3.6942962E-1,9.498302E-1,8.8832326E-2,-9.230899E-1,1.9702971E-1,-1.0595921E0,-1.290318E0,-7.854177E-1,1.3434143E0,-3.243839E-2,8.5444115E-2,7.3988646E-1,1.6304954E0,-1.573433E-2,-6.643339E-2,1.9763945E-2,8.9869523E-1,2.0200866E-1,8.02721E-2,-6.3842237E-1,-1.0647966E0,-2.5230232E-1,8.0213296E-1,-1.2294164E0,-8.3196616E-1,-1.2985457E0,-5.718274E-1,-2.2178362E-1,-1.0072017E0,1.023844E-1,-1.2410634E0,1.4164132E-2,7.953501E-2,5.972422E-2,8.552989E-2,-1.3225411E-2,2.0581475E-2,5.9605956E-2,-2.1080682E-2,-1.8169316E-2,5.526308E-2,-5.059361E-2,-1.8932842E-2,-3.8706947E-2,-5.954799E-2,2.7174955E-2,-2.800378E-2,5.249858E-2,-3.1270567E-2,-6.2224593E-2,1.1262746E-2,-4.3326963E-2,1.1989603E-2,-3.185525E-2,-6.5064155E-2,6.201583E-2,-4.9903646E-2,-2.5109267E-2,5.8595248E-2,-5.7618964E-2,-2.0210054E-2,-6.526324E-2,1.3705398E-3],"categories":[],"categories_nodes":[],"categories_segments":[],"categories_sizes":[],"default_left":[0,0,0,0,0,0,0,0,0,0,0,0,0,0,0,0,0,0,0,0,0,0,0,0,0,0,0,0,0,0,0,0,0,0,0,0,0,0,0,0,0,0,0,0,0,0,0,0,0,0,0,0,0,0,0,0,0,0,0,0,0,0,0,0,0,0,0,0,0,0,0,0,0,0,0,0,0,0,0,0,0,0,0],"id":7,"left_children":[1,3,5,7,9,11,13,15,17,19,21,23,25,27,29,-1,31,-1,-1,33,35,37,-1,39,41,43,45,47,49,-1,-1,51,53,-1,-1,55,57,59,-1,61,63,65,67,69,71,73,75,77,79,-1,81,-1,-1,-1,-1,-1,-1,-1,-1,-1,-1,-1,-1,-1,-1,-1,-1,-1,-1,-1,-1,-1,-1,-1,-1,-1,-1,-1,-1,-1,-1,-1,-1],"loss_changes":[2.6704805E3,5.300891E1,1.1687107E3,3.687622E0,5.6290993E1,3.9811646E1,1.8477196E2,2.11792E0,9.189969E-1,2.0433607E1,4.8588104E0,3.2630157E1,7.47229E0,2.884977E2,1.2556488E1,0E0,1.0100372E1,0E0,0E0,9.573345E-1,5.0913E0,7.3348494E0,0E0,5.99852E0,8.761605E0,7.125946E0,4.373657E0,1.5883705E1,2.3166895E2,0E0,0E0,7.251137E0,3.2341003E-1,0E0,0E0,2.0746253E0,4.748744E0,4.712785E0,0E0,5.196768E0,3.076332E0,4.915411E0,5.4874954E0,2.881958E0,3.6599274E0,7.188721E-1,1.0186968E1,1.530854E1,7.6042404E0,0E0,2.2818222E0,0E0,0E0,0E0,0E0,0E0,0E0,0E0,0E0,0E0,0E0,0E0,0E0,0E0,0E0,0E0,0E0,0E0,0E0,0E0,0E0,0E0,0E0,0E0,0E0,0E0,0E0,0E0,0E0,0E0,0E0,0E0,0E0],"parents":[2147483647,0,0,1,1,2,2,3,3,4,4,5,5,6,6,7,7,8,8,9,9,10,10,11,11,12,12,13,13,14,14,16,16,19,19,20,20,21,21,23,23,24,24,25,25,26,26,27,27,28,28,31,31,32,32,35,35,36,36,37,37,39,39,40,40,41,41,42,42,43,43,44,44,45,45,46,46,47,47,48,48,50,50],"right_children":[2,4,6,8,10,12,14,16,18,20,22,24,26,28,30,-1,32,-1,-1,34,36,38,-1,40,42,44,46,48,50,-1,-1,52,54,-1,-1,56,58,60,-1,62,64,66,68,70,72,74,76,78,80,-1,82,-1,-1,-1,-1,-1,-1,-1,-1,-1,-1,-1,-1,-1,-1,-1,-1,-1,-1,-1,-1,-1,-1,-1,-1,-1,-1,-1,-1,-1,-1,-1,-1],"split_conditions":[1E0,8.75E-1,2.017E3,8.1083336E1,2.017E3,1.2727273E0,2.5045414E0,7.083333E-1,1.2825472E0,1.2740442E0,6E0,1.6891599E0,1.4545455E0,6E0,2.018E3,8.502673E-2,2.017E3,-1.056854E-2,3.5842203E-2,5E0,1.5030162E0,2.018E3,8.8832326E-2,1.0909091E0,2.015E3,1.6396359E0,2.2263248E0,4.4324E4,2.018E3,-3.243839E-2,8.5444115E-2,1.4744196E0,1.2618998E0,-1.573433E-2,-6.643339E-2,3.5458332E1,5.2166668E1,1.5510632E0,8.02721E-2,1.3824731E0,1.1705167E-2,1.1666666E0,1.402436E4,3.793949E4,1.9927404E0,4.5384E4,6.5932E4,2.018E3,9.062E4,1.023844E-1,7E0,1.4164132E-2,7.953501E-2,5.972422E-2,8.552989E-2,-1.3225411E-2,2.0581475E-2,5.9605956E-2,-2.1080682E-2,-1.8169316E-2,5.526308E-2,-5.059361E-2,-1.8932842E-2,-3.8706947E-2,-5.954799E-2,2.7174955E-2,-2.800378E-2,5.249858E-2,-3.1270567E-2,-6.2224593E-2,1.1262746E-2,-4.3326963E-2,1.1989603E-2,-3.185525E-2,-6.5064155E-2,6.201583E-2,-4.9903646E-2,-2.5109267E-2,5.8595248E-2,-5.7618964E-2,-2.0210054E-2,-6.526324E-2,1.3705398E-3],"split_indices":[1,1,18,9,18,1,2,1,2,2,19,2,1,19,18,0,18,0,0,19,2,18,0,1,18,2,2,4,18,0,0,2,2,0,0,9,9,2,0,2,10,1,16,16,2,13,4,18,13,0,3,0,0,0,0,0,0,0,0,0,0,0,0,0,0,0,0,0,0,0,0,0,0,0,0,0,0,0,0,0,0,0,0],"split_type":[0,0,0,0,0,0,0,0,0,0,0,0,0,0,0,0,0,0,0,0,0,0,0,0,0,0,0,0,0,0,0,0,0,0,0,0,0,0,0,0,0,0,0,0,0,0,0,0,0,0,0,0,0,0,0,0,0,0,0,0,0,0,0,0,0,0,0,0,0,0,0,0,0,0,0,0,0,0,0,0,0,0,0],"sum_hessian":[2.418162E3,7.489977E2,1.6691644E3,6.6590045E2,8.309726E1,1.2693273E3,3.9983716E2,6.631735E2,2.72691E0,3.7519867E1,4.557739E1,1.950333E2,1.0742941E3,2.5273346E2,1.471037E2,5.7758453E2,8.5588974E1,1.2450664E0,1.4818437E0,1.0913177E1,2.6606691E1,1.4621997E1,3.095539E1,1.6455309E2,3.0480211E1,2.0980037E2,8.6449365E2,1.2785158E2,1.2488188E2,1.8138008E0,1.452899E2,1.8825117E1,6.6763855E1,1.8461043E0,9.067073E0,1.6646395E1,9.960298E0,7.4417315E0,7.1802654E0,5.6519356E1,1.0803372E2,1.7826105E1,1.2654105E1,1.1763539E2,9.216497E1,8.539079E2,1.0585745E1,3.6667095E1,9.118449E1,9.830212E1,2.6579765E1,1.3118047E1,5.70707E0,1.2831548E1,5.393231E1,9.836022E0,6.810372E0,8.228661E0,1.731637E0,4.9444337E0,2.4972975E0,2.1998322E1,3.4521034E1,3.485954E1,7.317419E1,4.757877E0,1.3068229E1,1.1007554E1,1.6465507E0,1.165718E2,1.0635942E0,8.947029E1,2.6946788E0,4.482623E0,8.494253E2,1.6521052E0,8.93364E0,3.105807E1,5.6090245E0,7.275662E1,1.842786E1,2.5271683E1,1.3080832E0],"tree_param":{"num_deleted":"0","num_feature":"21","num_nodes":"83","size_leaf_vector":"1"}},{"base_weights":[-3.4641004E-3,1.4255996E0,-7.505496E-1,1.6036003E0,6.5947694E-1,8.237249E-2,-9.668851E-1,8.20305E-2,1.2600656E0,-7.618585E-1,9.0809095E-1,-3.1501845E-1,-1.1343526E0,-6.404605E-2,1.420442E0,6.312505E-2,-8.98968E-1,6.89021E-1,1.5046535E0,-6.319345E-1,3.563573E-1,-9.3230045E-1,-1.2142226E0,5.505504E-1,-8.961767E-1,9.131231E-1,7.9710305E-2,4.3154653E-2,-3.2804035E-2,-9.5905495E-1,2.3196754E-3,1.0156897E0,2.9606268E-1,1.022463E0,8.033849E-2,-1.0836565E0,-4.013409E-1,-3.0912626E-1,7.485272E-1,-1.2321014E0,-6.842716E-1,-1.2249477E0,-5.113385E-1,-1.5811285E-2,4.7757544E-2,-1.3142685E-2,-5.4469068E-2,-1.0370052E-2,7.083402E-2,-6.1179668E-2,-3.0379564E-2,-1.8013761E-3,5.4689385E-2,-1.1636425E-2,2.4162041E-2,-9.494504E-3,6.2178988E-2,-5.585609E-2,-2.473474E-2,1.7024431E-2,-3.2763425E-2,-5.4308813E-2,-8.102019E-3,5.9292167E-2,1.1229449E-2,-6.1886396E-2,-1.1034331E-2,-3.5830997E-2,5.7938475E-2,-6.437168E-2,-5.606814E-2,3.2859366E-2,-5.4623473E-2],"categories":[],"categories_nodes":[],"categories_segments":[],"categories_sizes":[],"default_left":[0,0,0,0,0,0,0,0,0,0,0,0,0,0,0,0,0,0,0,0,0,0,0,0,0,0,0,0,0,0,0,0,0,0,0,0,0,0,0,0,0,0,0,0,0,0,0,0,0,0,0,0,0,0,0,0,0,0,0,0,0,0,0,0,0,0,0,0,0,0,0,0,0],"id":8,"left_children":[1,3,5,7,9,-1,11,-1,13,15,17,19,21,23,25,27,29,31,33,35,37,39,41,43,45,47,-1,-1,-1,49,-1,51,53,55,-1,57,59,61,63,65,67,69,71,-1,-1,-1,-1,-1,-1,-1,-1,-1,-1,-1,-1,-1,-1,-1,-1,-1,-1,-1,-1,-1,-1,-1,-1,-1,-1,-1,-1,-1,-1],"loss_changes":[2.5343894E3,1.1007825E2,8.102981E2,6.331665E0,5.558564E1,0E0,1.5580713E2,0E0,1.4649773E1,2.7342453E0,1.630246E1,6.2731487E1,1.7228638E1,4.7707114E0,3.9388351E0,3.0447037E0,1.2012043E0,1.2392876E1,7.020569E-2,2.0390648E1,2.4984077E1,2.3445251E1,5.4958496E0,2.206335E0,1.9496298E-1,1.0423909E1,0E0,0E0,0E0,1.0409851E0,0E0,4.440773E0,4.6950965E0,2.6032162E0,0E0,7.675247E-1,2.5455488E1,3.9242868E0,1.3474159E1,5.6129456E-1,1.1621529E1,3.729004E0,1.017196E1,0E0,0E0,0E0,0E0,0E0,0E0,0E0,0E0,0E0,0E0,0E0,0E0,0E0,0E0,0E0,0E0,0E0,0E0,0E0,0E0,0E0,0E0,0E0,0E0,0E0,0E0,0E0,0E0,0E0,0E0],"parents":[2147483647,0,0,1,1,2,2,3,3,4,4,6,6,8,8,9,9,10,10,11,11,12,12,13,13,14,14,15,15,16,16,17,17,18,18,19,19,20,20,21,21,22,22,23,23,24,24,25,25,29,29,31,31,32,32,33,33,35,35,36,36,37,37,38,38,39,39,40,40,41,41,42,42],"right_children":[2,4,6,8,10,-1,12,-1,14,16,18,20,22,24,26,28,30,32,34,36,38,40,42,44,46,48,-1,-1,-1,50,-1,52,54,56,-1,58,60,62,64,66,68,70,72,-1,-1,-1,-1,-1,-1,-1,-1,-1,-1,-1,-1,-1,-1,-1,-1,-1,-1,-1,-1,-1,-1,-1,-1,-1,-1,-1,-1,-1,-1],"split_conditions":[2.6E1,2.1E1,1E0,1.8E1,1.2958965E0,8.237249E-2,3.2E1,8.20305E-2,1.2150923E0,3.06E2,1.6484512E0,1.6594045E0,3.7E1,6.26E2,1.3452816E0,1E0,1.967E3,2.4E1,2E0,1.4440031E0,6E0,1.6368713E0,2.2263248E0,4E0,1.099E3,6E0,7.9710305E-2,4.3154653E-2,-3.2804035E-2,1E0,2.3196754E-3,5.2017E4,3.06E2,1.6675723E0,8.033849E-2,1.987E3,2.8E1,1.6805581E0,3E1,2.49817E5,2.1123345E0,1.8395809E0,5.6E1,-1.5811285E-2,4.7757544E-2,-1.3142685E-2,-5.4469068E-2,-1.0370052E-2,7.083402E-2,-6.1179668E-2,-3.0379564E-2,-1.8013761E-3,5.4689385E-2,-1.1636425E-2,2.4162041E-2,-9.494504E-3,6.2178988E-2,-5.585609E-2,-2.473474E-2,1.7024431E-2,-3.2763425E-2,-5.4308813E-2,-8.102019E-3,5.9292167E-2,1.1229449E-2,-6.1886396E-2,-1.1034331E-2,-3.5830997E-2,5.7938475E-2,-6.437168E-2,-5.606814E-2,3.2859366E-2,-5.4623473E-2],"split_indices":[0,0,17,0,2,0,0,0,2,8,2,2,0,8,2,11,8,0,20,2,19,2,2,19,5,19,0,0,0,11,0,13,8,2,0,8,0,2,0,13,2,2,0,0,0,0,0,0,0,0,0,0,0,0,0,0,0,0,0,0,0,0,0,0,0,0,0,0,0,0,0,0,0],"split_type":[0,0,0,0,0,0,0,0,0,0,0,0,0,0,0,0,0,0,0,0,0,0,0,0,0,0,0,0,0,0,0,0,0,0,0,0,0,0,0,0,0,0,0,0,0,0,0,0,0,0,0,0,0,0,0,0,0,0,0,0,0,0,0,0,0,0,0,0,0,0,0,0,0],"sum_hessian":[2.371838E3,8.1395483E2,1.5578829E3,6.5960846E2,1.5434637E2,1.2836696E2,1.429516E3,5.920502E2,6.7558266E1,2.2670998E1,1.3167537E2,2.9277432E2,1.1367417E3,7.3635426E0,6.0194725E1,3.3077803E0,1.9363218E1,9.7884995E1,3.3790382E1,1.9893013E2,9.384419E1,3.2563483E2,8.111069E2,4.430006E0,2.9335365E0,1.6953249E1,4.3241478E1,1.4712517E0,1.8365284E0,1.8192427E1,1.1707916E0,5.258556E1,4.5299435E1,7.830008E0,2.5960375E1,6.597967E1,1.3295047E2,3.4875233E1,5.896896E1,1.4563422E2,1.8000061E2,7.9818475E2,1.2922058E1,1.4793077E0,2.9506981E0,1.237504E0,1.6960325E0,5.4388204E0,1.1514427E1,8.964006E0,9.228419E0,3.6721923E0,4.8913364E1,1.1779155E1,3.352028E1,1.2295847E0,6.6004233E0,6.158367E1,4.3959937E0,3.381671E1,9.913376E1,4.534576E0,3.0340658E1,3.1452847E1,2.7516113E1,1.4460603E2,1.0281945E0,1.7749644E2,2.5041728E0,4.9073044E2,3.0745435E2,4.2484627E0,8.673595E0],"tree_param":{"num_deleted":"0","num_feature":"21","num_nodes":"73","size_leaf_vector":"1"}},{"base_weights":[-1.0492705E-2,1.3108472E0,-7.568844E-1,1.5497131E0,5.354423E-1,-1.1391072E0,6.322222E-1,1.5910815E0,1.1967187E0,-3.6786747E-1,1.3508874E0,-8.764409E-1,-1.2455615E0,7.974823E-2,3.2381196E-2,7.962578E-2,2.527373E-2,3.6710137E-1,1.4361827E0,-4.431415E-1,7.241287E-1,7.6684946E-1,1.6500206E0,-6.2368155E-1,-9.214442E-1,-1.2508221E0,-6.65346E-1,-8.455473E-1,1.1465827E0,1.2348632E0,-1.30047E-1,1.1222976E0,8.012722E-2,-1.5219803E-1,-6.167939E-1,7.593811E-2,4.5477513E-2,-6.3814044E-2,7.700418E-2,8.6556435E-2,-2.8910467E-1,-7.856628E-1,-1.12552285E-1,-1.0959197E0,-8.476766E-1,-5.5102426E-1,-1.2537029E0,6.057588E-2,-6.0776025E-2,-1.0731306E0,-4.9845165E-1,1.01501636E-1,-1.2302494E0,7.146247E-2,1.1197252E-2,1.3526007E-2,-3.7228253E-2,1.2941437E-2,7.7737086E-2,-1.987796E-2,2.7017027E-2,-3.3651166E-2,3.2075576E-2,-4.3039817E-2,3.0642075E-2,-2.9340276E-2,1.9368112E-2,3.4823034E-2,-5.3546872E-2,-4.2790532E-2,2.1410096E-2,5.0818224E-2,-1.8925339E-2,-6.0858037E-2,-4.733133E-2,-3.8619265E-2,-5.5671196E-2,1.077508E-2,-4.950671E-2,-2.2054976E-2,-6.273141E-2,-5.748958E-2,6.92766E-2,-2.0270487E-2,-5.273929E-2,-2.1062888E-2,-6.5085076E-2],"categories":[],"categories_nodes":[],"categories_segments":[],"categories_sizes":[],"default_left":[0,0,0,0,0,0,0,0,0,0,0,0,0,0,0,0,0,0,0,0,0,0,0,0,0,0,0,0,0,0,0,0,0,0,0,0,0,0,0,0,0,0,0,0,0,0,0,0,0,0,0,0,0,0,0,0,0,0,0,0,0,0,0,0,0,0,0,0,0,0,0,0,0,0,0,0,0,0,0,0,0,0,0,0,0,0,0],"id":9,"left_children":[1,3,5,7,9,11,13,15,17,19,21,23,25,-1,27,-1,-1,29,31,33,35,37,39,41,43,45,47,49,51,53,55,57,-1,59,61,-1,63,65,-1,-1,67,69,71,73,75,77,79,-1,-1,81,83,-1,85,-1,-1,-1,-1,-1,-1,-1,-1,-1,-1,-1,-1,-1,-1,-1,-1,-1,-1,-1,-1,-1,-1,-1,-1,-1,-1,-1,-1,-1,-1,-1,-1,-1,-1],"loss_changes":[2.283463E3,1.539696E2,7.862859E2,7.418701E0,1.4660591E2,3.1362183E1,1.8469125E2,7.9833984E-2,1.3578629E1,8.121069E0,1.6984756E1,3.2712708E0,1.6813965E0,0E0,1.9476987E2,0E0,0E0,7.6012897E0,1.0607681E0,4.422621E0,3.435749E0,2.4023855E1,1.1228821E1,4.3985653E0,2.737976E0,9.523926E-1,1.1319566E1,8.263779E0,1.8672717E2,9.331484E-1,3.1233134E0,7.926296E0,0E0,6.11804E0,4.369488E0,0E0,2.8600006E0,4.6912994E0,0E0,0E0,3.5163453E0,3.8564243E0,4.650828E0,3.1843567E-1,3.2349548E0,1.938583E0,5.6274414E-2,0E0,0E0,1.4109749E1,1.9523067E0,0E0,8.618889E-1,0E0,0E0,0E0,0E0,0E0,0E0,0E0,0E0,0E0,0E0,0E0,0E0,0E0,0E0,0E0,0E0,0E0,0E0,0E0,0E0,0E0,0E0,0E0,0E0,0E0,0E0,0E0,0E0,0E0,0E0,0E0,0E0,0E0,0E0],"parents":[2147483647,0,0,1,1,2,2,3,3,4,4,5,5,6,6,7,7,8,8,9,9,10,10,11,11,12,12,14,14,17,17,18,18,19,19,20,20,21,21,22,22,23,23,24,24,25,25,26,26,27,27,28,28,29,29,30,30,31,31,33,33,34,34,36,36,37,37,40,40,41,41,42,42,43,43,44,44,45,45,46,46,49,49,50,50,52,52],"right_children":[2,4,6,8,10,12,14,16,18,20,22,24,26,-1,28,-1,-1,30,32,34,36,38,40,42,44,46,48,50,52,54,56,58,-1,60,62,-1,64,66,-1,-1,68,70,72,74,76,78,80,-1,-1,82,84,-1,86,-1,-1,-1,-1,-1,-1,-1,-1,-1,-1,-1,-1,-1,-1,-1,-1,-1,-1,-1,-1,-1,-1,-1,-1,-1,-1,-1,-1,-1,-1,-1,-1,-1,-1],"split_conditions":[2.7E1,2.1E1,2.017E3,1.8E1,2.017E3,3.5E1,1E0,8.6166664E1,2.017E3,1.8587916E3,6E0,6.237281E-3,8E0,7.974823E-2,6E0,7.962578E-2,2.527373E-2,1.7166666E1,6E0,2.4E1,1E0,2.018E3,2.018E3,2E0,5E0,4.5384E4,6.2E1,4E0,2.018E3,8.2198E4,7.7135E4,2.018E3,8.012722E-2,7.8942E4,6.788324E-2,7.593811E-2,2.014E3,4E0,7.700418E-2,8.6556435E-2,2.8166666E1,5.8801E4,2.9E1,1E0,2.1977083E3,4E1,3.775E4,6.057588E-2,-6.0776025E-2,2.018E3,2.018E3,1.01501636E-1,5.4792E4,7.146247E-2,1.1197252E-2,1.3526007E-2,-3.7228253E-2,1.2941437E-2,7.7737086E-2,-1.987796E-2,2.7017027E-2,-3.3651166E-2,3.2075576E-2,-4.3039817E-2,3.0642075E-2,-2.9340276E-2,1.9368112E-2,3.4823034E-2,-5.3546872E-2,-4.2790532E-2,2.1410096E-2,5.0818224E-2,-1.8925339E-2,-6.0858037E-2,-4.733133E-2,-3.8619265E-2,-5.5671196E-2,1.077508E-2,-4.950671E-2,-2.2054976E-2,-6.273141E-2,-5.748958E-2,6.92766E-2,-2.0270487E-2,-5.273929E-2,-2.1062888E-2,-6.5085076E-2],"split_indices":[0,0,18,0,18,0,17,9,18,5,19,10,3,0,19,0,0,9,19,0,11,18,18,14,3,13,0,19,18,13,13,18,0,13,10,0,18,19,0,0,9,4,0,11,5,0,4,0,0,18,18,0,13,0,0,0,0,0,0,0,0,0,0,0,0,0,0,0,0,0,0,0,0,0,0,0,0,0,0,0,0,0,0,0,0,0,0],"split_type":[0,0,0,0,0,0,0,0,0,0,0,0,0,0,0,0,0,0,0,0,0,0,0,0,0,0,0,0,0,0,0,0,0,0,0,0,0,0,0,0,0,0,0,0,0,0,0,0,0,0,0,0,0,0,0,0,0,0,0,0,0,0,0,0,0,0,0,0,0,0,0,0,0,0,0,0,0,0,0,0,0,0,0,0,0,0,0],"sum_hessian":[2.3133225E3,8.3477E2,1.4785525E3,6.37414E2,1.9735603E2,1.1596471E3,3.189054E2,5.674102E2,7.000375E1,9.389389E1,1.0346214E2,3.3710468E2,8.225425E2,1.2178384E2,1.9712155E2,5.661954E2,1.2148755E0,1.6247543E1,5.375621E1,8.839481E1,5.499083E0,3.6249992E1,6.721215E1,5.3195087E1,2.8390958E2,8.140065E2,8.536043E0,1.1038526E2,8.67363E1,5.377442E0,1.0870102E1,2.1304937E1,3.245127E1,3.3740765E1,5.4654045E1,1.9628576E0,3.5362253E0,1.791832E1,1.8331673E1,6.461668E1,2.5954702E0,3.998605E1,1.3209036E1,8.024864E1,2.0366093E2,4.1255593E0,8.0988086E2,1.6625081E0,6.873535E0,6.540732E1,4.4977943E1,6.333943E1,2.3396862E1,4.1631165E0,1.2143253E0,6.91949E0,3.9506116E0,7.642849E0,1.3662088E1,2.5228455E1,8.512311E0,5.2761448E1,1.8925961E0,1.1623578E0,2.3738673E0,8.159469E0,9.758851E0,1.1964456E0,1.3990246E0,3.80804E1,1.905653E0,1.9805357E0,1.1228499E1,4.0337612E1,3.991103E1,1.6174263E2,4.191831E1,1.6880574E0,2.4375021E0,1.4644241E0,8.0841644E2,6.394584E1,1.461477E0,4.001458E1,4.9633636E0,2.45838E0,2.0938482E1],"tree_param":{"num_deleted":"0","num_feature":"21","num_nodes":"87","size_leaf_vector":"1"}},{"base_weights":[2.8132817E-3,1.3426638E0,-7.03693E-1,1.5055426E0,6.5545034E-1,-1.0992368E0,6.428492E-1,7.680365E-2,1.2201538E0,-2.4412903E-1,1.3283786E0,-8.673339E-1,-1.2018285E0,7.743866E-2,9.61355E-2,3.522683E-1,1.4528335E0,-6.307493E-1,7.116771E-1,7.6637906E-1,1.6002738E0,-1.0645987E0,-5.8383584E-1,-1.2122773E0,-5.893478E-1,-7.898477E-1,1.1811576E0,-3.8545853E-1,1.2472665E0,9.273687E-1,7.743666E-2,-9.0624267E-1,-1.6846997E-1,1.1676394E0,2.4523221E-2,-1.2488108E-1,7.29212E-2,8.283046E-2,-1.0451581E-3,-7.574426E-1,-1.1447841E0,6.5284663E-1,-6.810097E-1,-1.1569407E0,-6.4608745E-2,-7.6609445E-1,2.4957664E-2,-2.6911184E-1,-9.4692826E-1,9.597998E-2,-1.15471E0,-1.2363604E-3,-6.0650654E-2,2.281787E-2,7.08294E-2,-7.6744454E-3,7.164054E-2,-5.0169464E-2,2.1907955E-2,2.3172459E-2,-3.8903557E-2,7.7649415E-2,9.720324E-3,-1.4132271E-2,3.2163754E-2,4.996861E-2,-2.8822986E-2,-9.34239E-3,-4.4696108E-2,-5.7702918E-2,-4.5771366E-3,6.1294276E-2,4.8242672E-3,-3.922952E-2,-1.0728429E-2,-6.1035436E-2,-4.621901E-2,-5.4376062E-2,-1.1990078E-2,-3.549486E-2,2.4274599E-2,-5.8428008E-2,-2.7914051E-2,-6.1493803E-2,5.4780794E-3],"categories":[],"categories_nodes":[],"categories_segments":[],"categories_sizes":[],"default_left":[0,0,0,0,0,0,0,0,0,0,0,0,0,0,0,0,0,0,0,0,0,0,0,0,0,0,0,0,0,0,0,0,0,0,0,0,0,0,0,0,0,0,0,0,0,0,0,0,0,0,0,0,0,0,0,0,0,0,0,0,0,0,0,0,0,0,0,0,0,0,0,0,0,0,0,0,0,0,0,0,0,0,0,0,0],"id":10,"left_children":[1,3,5,7,9,11,13,-1,15,17,19,21,23,-1,25,27,29,31,33,35,37,39,41,43,45,47,49,51,53,55,-1,57,59,61,63,65,-1,-1,-1,67,69,71,73,75,-1,77,-1,79,81,-1,83,-1,-1,-1,-1,-1,-1,-1,-1,-1,-1,-1,-1,-1,-1,-1,-1,-1,-1,-1,-1,-1,-1,-1,-1,-1,-1,-1,-1,-1,-1,-1,-1,-1,-1],"loss_changes":[2.1406462E3,8.6403564E1,7.893178E2,3.6182861E0,9.195166E1,2.6194458E1,1.6666777E2,0E0,1.2772156E1,2.4696821E1,1.202858E1,1.921579E1,4.3482666E0,0E0,2.0388101E2,1.053499E1,1.1616745E0,5.8648167E0,6.039611E0,1.8810778E1,5.2899017E0,4.254776E0,1.82015E1,1.9399414E0,3.3097467E0,9.300491E0,1.6659824E2,2.6898937E0,3.065529E-1,5.928445E0,0E0,4.2765045E0,7.630443E0,4.0563564E0,1.8442483E0,7.7458253E0,0E0,0E0,0E0,3.4156437E0,1.4860687E0,3.4764447E0,6.4741707E0,5.8201294E0,0E0,2.020352E0,0E0,9.813877E0,7.0437393E0,0E0,2.3693905E0,0E0,0E0,0E0,0E0,0E0,0E0,0E0,0E0,0E0,0E0,0E0,0E0,0E0,0E0,0E0,0E0,0E0,0E0,0E0,0E0,0E0,0E0,0E0,0E0,0E0,0E0,0E0,0E0,0E0,0E0,0E0,0E0,0E0,0E0],"parents":[2147483647,0,0,1,1,2,2,3,3,4,4,5,5,6,6,8,8,9,9,10,10,11,11,12,12,14,14,15,15,16,16,17,17,18,18,19,19,20,20,21,21,22,22,23,23,24,24,25,25,26,26,27,27,28,28,29,29,31,31,32,32,33,33,34,34,35,35,39,39,40,40,41,41,42,42,43,43,45,45,47,47,48,48,50,50],"right_children":[2,4,6,8,10,12,14,-1,16,18,20,22,24,-1,26,28,30,32,34,36,38,40,42,44,46,48,50,52,54,56,-1,58,60,62,64,66,-1,-1,-1,68,70,72,74,76,-1,78,-1,80,82,-1,84,-1,-1,-1,-1,-1,-1,-1,-1,-1,-1,-1,-1,-1,-1,-1,-1,-1,-1,-1,-1,-1,-1,-1,-1,-1,-1,-1,-1,-1,-1,-1,-1,-1,-1],"split_conditions":[2.6E1,2.1E1,2.017E3,1.8E1,2.017E3,3.5E1,1E0,7.680365E-2,2.017E3,1.512628E0,6E0,1.6129009E0,2.1852603E0,7.743866E-2,6E0,1.3452816E0,1.2825472E0,1.3824731E0,1E0,1.5510632E0,2.018E3,3.98E2,2.8E1,4.4E1,2.6821403E-2,4.4549E4,2.018E3,1.2958965E0,1.4589802E0,6E0,7.743666E-2,2.029E3,7E0,2.7967941E-2,3.324538E-2,2E0,7.29212E-2,8.283046E-2,-1.0451581E-3,2.8E1,6.788324E-2,1.64033E-2,1.8395809E0,1.8572224E0,-6.4608745E-2,7.3461E4,2.4957664E-2,1.701981E0,4E0,9.597998E-2,7E0,-1.2363604E-3,-6.0650654E-2,2.281787E-2,7.08294E-2,-7.6744454E-3,7.164054E-2,-5.0169464E-2,2.1907955E-2,2.3172459E-2,-3.8903557E-2,7.7649415E-2,9.720324E-3,-1.4132271E-2,3.2163754E-2,4.996861E-2,-2.8822986E-2,-9.34239E-3,-4.4696108E-2,-5.7702918E-2,-4.5771366E-3,6.1294276E-2,4.8242672E-3,-3.922952E-2,-1.0728429E-2,-6.1035436E-2,-4.621901E-2,-5.4376062E-2,-1.1990078E-2,-3.549486E-2,2.4274599E-2,-5.8428008E-2,-2.7914051E-2,-6.1493803E-2,5.4780794E-3],"split_indices":[0,0,18,0,18,0,17,0,18,2,19,2,2,0,19,2,2,2,11,2,18,8,0,0,10,4,18,2,2,19,0,8,19,10,10,19,0,0,0,0,10,10,2,2,0,13,0,2,19,0,3,0,0,0,0,0,0,0,0,0,0,0,0,0,0,0,0,0,0,0,0,0,0,0,0,0,0,0,0,0,0,0,0,0,0],"split_type":[0,0,0,0,0,0,0,0,0,0,0,0,0,0,0,0,0,0,0,0,0,0,0,0,0,0,0,0,0,0,0,0,0,0,0,0,0,0,0,0,0,0,0,0,0,0,0,0,0,0,0,0,0,0,0,0,0,0,0,0,0,0,0,0,0,0,0,0,0,0,0,0,0,0,0,0,0,0,0,0,0,0,0,0,0],"sum_hessian":[2.2593767E3,7.797407E2,1.479636E3,6.2937866E2,1.5036205E2,1.1438239E3,3.358121E2,5.645968E2,6.478185E1,6.461759E1,8.5744446E1,3.537181E2,7.901058E2,1.256962E2,2.101159E2,1.4227571E1,5.0554283E1,4.6249798E1,1.8367794E1,2.9202473E1,5.6541973E1,2.0695714E2,1.4676097E2,7.7589E2,1.4215778E1,1.1581682E2,9.429908E1,8.111096E0,6.116474E0,9.449218E0,4.1105064E1,2.8377794E1,1.7872005E1,1.0620981E1,7.746814E0,1.3122289E1,1.6080183E1,5.462202E1,1.9199518E0,4.5005703E1,1.6195143E2,1.0275212E1,1.3648576E2,4.6754907E2,3.083409E2,1.2484746E1,1.7310323E0,2.746875E1,8.834807E1,7.1784065E1,2.2515017E1,6.366024E0,1.7450725E0,1.7301347E0,4.386339E0,3.232672E0,6.2165456E0,2.6701962E1,1.6758318E0,8.893086E0,8.978919E0,7.1817045E0,3.4392767E0,5.539851E0,2.2069623E0,3.41277E0,9.709519E0,9.144279E0,3.5861423E1,1.6044295E2,1.5084779E0,4.4689264E0,5.8062863E0,1.1112632E2,2.5359442E1,3.636008E2,1.0394826E2,7.088906E0,5.39584E0,1.7377378E1,1.0091372E1,5.4985203E1,3.336287E1,2.1277206E1,1.2378092E0],"tree_param":{"num_deleted":"0","num_feature":"21","num_nodes":"85","size_leaf_vector":"1"}},{"base_weights":[-6.5613403E-3,1.2358309E0,-7.202979E-1,1.4610535E0,5.0703216E-1,-1.0948222E0,5.875911E-1,1.4990301E0,1.123852E0,-2.832092E-1,1.2134088E0,-8.489487E-1,-1.1778858E0,7.530754E-2,3.4544677E-2,7.510789E-2,5.9834635E-1,-4.3185222E-1,1.2403917E0,-6.8409324E-1,4.5818672E-1,6.045433E-1,1.5372279E0,-1.0141243E0,-3.7358153E-1,-1.1840903E0,-4.516655E-1,-8.0040497E-1,1.0956095E0,-1.4333792E-3,4.5975838E-2,-5.58511E-2,2.7017805E-1,7.5047153E-1,1.4425895E0,-1.1260004E0,-4.356777E-1,2.2245461E-1,1.2648649E0,-2.2015426E-1,1.4499115E0,8.0526665E-2,-2.7494222E-1,-1.9433293E-3,-1.0203714E0,6.831263E-2,-6.2242657E-1,-1.1317087E0,-1.2674657E0,5.7131976E-2,-1.0136862E0,-1.0315777E0,-4.740192E-1,9.248497E-2,-1.1295784E0,3.134654E-2,-1.0306566E-2,-6.693043E-3,5.970152E-2,4.2862967E-2,7.517945E-2,-6.160971E-2,-5.6916308E-3,-4.494484E-3,-3.8522754E-2,4.5380212E-2,-1.9016227E-2,1.1324859E-2,8.4271E-2,-2.5950877E-2,4.9793866E-2,7.086694E-3,7.6726146E-2,3.0787244E-2,-5.204242E-2,-5.80418E-2,-4.7945064E-2,1.4064533E-2,-4.9621068E-2,-3.669167E-2,3.3385733E-3,-5.974927E-2,-4.6830837E-2,-2.2076543E-2,-6.352567E-2,-5.5665106E-2,-1.4859247E-2,-5.67616E-2,7.431459E-2,-3.675191E-2,-6.7278505E-3,-6.0335822E-2,1.1351164E-2],"categories":[],"categories_nodes":[],"categories_segments":[],"categories_sizes":[],"default_left":[0,0,0,0,0,0,0,0,0,0,0,0,0,0,0,0,0,0,0,0,0,0,0,0,0,0,0,0,0,0,0,0,0,0,0,0,0,0,0,0,0,0,0,0,0,0,0,0,0,0,0,0,0,0,0,0,0,0,0,0,0,0,0,0,0,0,0,0,0,0,0,0,0,0,0,0,0,0,0,0,0,0,0,0,0,0,0,0,0,0,0,0,0],"id":11,"left_children":[1,3,5,7,9,11,13,15,17,19,21,23,25,-1,27,-1,29,31,33,35,37,39,41,43,45,47,49,51,53,-1,-1,-1,55,57,59,61,63,65,67,69,71,-1,73,-1,75,77,79,81,83,-1,85,87,89,-1,91,-1,-1,-1,-1,-1,-1,-1,-1,-1,-1,-1,-1,-1,-1,-1,-1,-1,-1,-1,-1,-1,-1,-1,-1,-1,-1,-1,-1,-1,-1,-1,-1,-1,-1,-1,-1,-1,-1],"loss_changes":[1.9611006E3,1.3171301E2,6.8868304E2,6.202759E0,1.0753809E2,2.1308105E1,1.5912552E2,6.5185547E-1,1.256321E1,2.7492727E1,1.909964E1,2.1560028E1,3.1324463E0,0E0,1.7505664E2,0E0,7.4472415E-1,2.8824294E0,5.056679E0,6.069092E0,5.9353833E0,2.6057383E1,9.166306E0,1.220108E0,8.139525E0,2.0874023E0,8.784587E0,7.856247E0,1.4807704E2,0E0,0E0,0E0,7.1634483E-1,8.079407E0,2.3867798E-1,2.1031647E0,4.5476613E0,1.129472E1,2.7535515E0,7.623914E0,1.8149643E0,0E0,2.9652944E0,0E0,6.6056824E-1,6.475579E0,3.6735E0,5.109558E0,2.0123291E-1,0E0,1.5611744E-1,1.8363274E1,4.1283455E0,0E0,2.6433315E0,0E0,0E0,0E0,0E0,0E0,0E0,0E0,0E0,0E0,0E0,0E0,0E0,0E0,0E0,0E0,0E0,0E0,0E0,0E0,0E0,0E0,0E0,0E0,0E0,0E0,0E0,0E0,0E0,0E0,0E0,0E0,0E0,0E0,0E0,0E0,0E0,0E0,0E0],"parents":[2147483647,0,0,1,1,2,2,3,3,4,4,5,5,6,6,7,7,8,8,9,9,10,10,11,11,12,12,14,14,16,16,17,17,18,18,19,19,20,20,21,21,22,22,23,23,24,24,25,25,26,26,27,27,28,28,32,32,33,33,34,34,35,35,36,36,37,37,38,38,39,39,40,40,42,42,44,44,45,45,46,46,47,47,48,48,50,50,51,51,52,52,54,54],"right_children":[2,4,6,8,10,12,14,16,18,20,22,24,26,-1,28,-1,30,32,34,36,38,40,42,44,46,48,50,52,54,-1,-1,-1,56,58,60,62,64,66,68,70,72,-1,74,-1,76,78,80,82,84,-1,86,88,90,-1,92,-1,-1,-1,-1,-1,-1,-1,-1,-1,-1,-1,-1,-1,-1,-1,-1,-1,-1,-1,-1,-1,-1,-1,-1,-1,-1,-1,-1,-1,-1,-1,-1,-1,-1,-1,-1,-1,-1],"split_conditions":[2.7E1,2.1E1,2.017E3,1.8E1,2.017E3,3.4E1,1E0,1.784E3,1.172604E0,1.4884824E0,6E0,1.6918389E0,8E0,7.530754E-2,6E0,7.510789E-2,1.1156008E0,5.25473E3,1.3452816E0,1.2958965E0,1.6746187E0,2.018E3,2.018E3,1.2412916E3,3.1E1,4.4E1,5.5E1,4E0,2.018E3,-1.4333792E-3,4.5975838E-2,-5.58511E-2,4.07E2,6E0,2.015E3,2.029E3,5E0,8E0,1.427375E3,1.6746187E0,1.4645572E0,8.0526665E-2,8.02E2,-1.9433293E-3,1.4421201E0,1.34194E4,1.235712E4,1.8395809E0,2.14175E3,5.7131976E-2,2.9337492E0,2.018E3,1.8097962E0,9.248497E-2,7E0,3.134654E-2,-1.0306566E-2,-6.693043E-3,5.970152E-2,4.2862967E-2,7.517945E-2,-6.160971E-2,-5.6916308E-3,-4.494484E-3,-3.8522754E-2,4.5380212E-2,-1.9016227E-2,1.1324859E-2,8.4271E-2,-2.5950877E-2,4.9793866E-2,7.086694E-3,7.6726146E-2,3.0787244E-2,-5.204242E-2,-5.80418E-2,-4.7945064E-2,1.4064533E-2,-4.9621068E-2,-3.669167E-2,3.3385733E-3,-5.974927E-2,-4.6830837E-2,-2.2076543E-2,-6.352567E-2,-5.5665106E-2,-1.4859247E-2,-5.67616E-2,7.431459E-2,-3.675191E-2,-6.7278505E-3,-6.0335822E-2,1.1351164E-2],"split_indices":[0,0,18,0,18,0,17,8,2,2,19,2,3,0,19,0,2,16,2,2,2,18,18,5,0,0,0,19,18,0,0,0,8,19,18,8,3,19,5,2,2,0,8,0,2,16,16,2,16,0,2,18,2,0,3,0,0,0,0,0,0,0,0,0,0,0,0,0,0,0,0,0,0,0,0,0,0,0,0,0,0,0,0,0,0,0,0,0,0,0,0,0,0],"split_type":[0,0,0,0,0,0,0,0,0,0,0,0,0,0,0,0,0,0,0,0,0,0,0,0,0,0,0,0,0,0,0,0,0,0,0,0,0,0,0,0,0,0,0,0,0,0,0,0,0,0,0,0,0,0,0,0,0,0,0,0,0,0,0,0,0,0,0,0,0,0,0,0,0,0,0,0,0,0,0,0,0,0,0,0,0,0,0,0,0,0,0,0,0],"sum_hessian":[2.2095793E3,8.0594666E2,1.4036326E3,6.149135E2,1.9103313E2,1.0912948E3,3.1233786E2,5.4957336E2,6.534013E1,9.044693E1,1.0058619E2,2.7840863E2,8.128861E2,1.1673249E2,1.9560536E2,5.4700616E2,2.567235E0,4.365034E0,6.09751E1,5.875468E1,3.1692253E1,3.591791E1,6.466828E1,2.0577483E2,7.263381E1,8.053749E2,7.5111976E0,1.09603935E2,8.6001434E1,1.1780648E0,1.3891702E0,1.9098864E0,2.4551477E0,1.9189941E1,4.178516E1,1.987185E1,3.888283E1,2.5512585E1,6.179668E0,1.85556E1,1.736231E1,6.2260986E1,2.407294E0,1.355679E0,2.0441916E2,2.6428345E1,4.6205467E1,5.035738E2,3.0180112E2,1.6884413E0,5.8227563E0,6.289559E1,4.6708344E1,6.4359505E1,2.1641928E1,1.2229443E0,1.2322034E0,6.64329E0,1.2546651E1,5.3643403E0,3.642082E1,1.7788181E1,2.0836666E0,1.975087E1,1.913196E1,1.1703775E1,1.3808809E1,2.22489E0,3.954778E0,1.5355E1,3.2006006E0,1.2172651E0,1.6145046E1,1.2036284E0,1.2036657E0,5.678229E1,1.4763686E2,2.2621195E1,3.8071504E0,3.972007E1,6.4853973E0,3.7637442E2,1.2719937E2,1.6458584E0,3.0015527E2,4.6258197E0,1.1969364E0,6.0936134E1,1.9594573E0,2.574625E1,2.0962093E1,2.058209E1,1.0598376E0],"tree_param":{"num_deleted":"0","num_feature":"21","num_nodes":"93","size_leaf_vector":"1"}},{"base_weights":[8.22794E-3,1.3554776E0,-6.163749E-1,1.4358759E0,7.462136E-1,-1.0313097E0,6.7218983E-1,1.4394464E0,3.7664068E-1,1.9572824E-2,1.2493649E0,-7.233634E-1,-1.1564147E0,2.806888E-1,7.259371E-2,1.4741044E0,1.3066521E0,-1.2774164E-2,4.274848E-2,-4.4774717E-1,1.0438E0,1.3896606E-2,1.2782928E0,-9.2894787E-1,-3.8066047E-1,-1.1671746E0,-5.762416E-1,7.929476E-1,-4.364914E-1,7.380804E-2,2.5819693E-2,2.1651155E-1,1.3639567E0,-1.0430708E0,-2.4837462E-2,1.2065105E0,-7.1582855E-3,1.7449485E-2,6.5228686E-2,-6.799052E-1,-1.0026815E0,3.1640634E-1,-5.472772E-1,-1.1092042E0,-1.243093E0,5.959599E-1,-8.3266914E-1,1.04962155E-1,9.2286754E-1,-2.5454488E-1,-1.1096083E0,5.916235E-2,-3.442294E-2,4.8683945E-2,7.2016895E-2,-1.4254211E-2,-5.510387E-2,2.4456877E-2,-2.963735E-2,7.291482E-2,2.3246571E-2,-4.595765E-2,-7.317076E-3,-5.3242266E-2,-3.8904075E-2,2.7750449E-3,5.7625163E-2,2.3669844E-2,-3.096821E-2,-6.0721647E-2,-4.9780663E-2,-2.1423375E-2,-6.2290426E-2,4.9725857E-2,-1.0461564E-2,-1.3784865E-2,-5.0923284E-2,1.7247045E-2,-5.5762954E-2,5.9638094E-2,3.254589E-2,-5.7645064E-2,-5.1519717E-3,6.1158696E-3,-6.1354484E-2],"categories":[],"categories_nodes":[],"categories_segments":[],"categories_sizes":[],"default_left":[0,0,0,0,0,0,0,0,0,0,0,0,0,0,0,0,0,0,0,0,0,0,0,0,0,0,0,0,0,0,0,0,0,0,0,0,0,0,0,0,0,0,0,0,0,0,0,0,0,0,0,0,0,0,0,0,0,0,0,0,0,0,0,0,0,0,0,0,0,0,0,0,0,0,0,0,0,0,0,0,0,0,0,0,0],"id":12,"left_children":[1,3,5,7,9,11,13,15,17,19,21,23,25,27,-1,29,31,-1,-1,33,35,-1,37,39,41,43,45,47,49,-1,-1,51,53,55,57,59,-1,-1,-1,61,63,65,67,69,71,73,75,77,79,81,83,-1,-1,-1,-1,-1,-1,-1,-1,-1,-1,-1,-1,-1,-1,-1,-1,-1,-1,-1,-1,-1,-1,-1,-1,-1,-1,-1,-1,-1,-1,-1,-1,-1,-1],"loss_changes":[1.8306638E3,3.268347E1,7.954222E2,1.7561035E0,3.0107418E1,4.2494507E1,1.102926E2,8.597412E-1,1.2452409E0,1.709294E1,1.0127182E0,2.272699E1,4.3100586E0,8.94982E1,0E0,1.6760254E-1,8.080765E0,0E0,0E0,6.1554666E0,2.3325386E0,0E0,6.9247437E-1,3.0655365E0,1.4636337E1,2.0654297E0,5.458264E0,1.2587769E1,1.2179674E1,0E0,0E0,7.7128286E0,2.3892975E0,1.4080906E-1,4.7789183E0,1.1781588E0,0E0,0E0,0E0,6.2127934E0,1.3403778E0,5.314781E0,7.7150955E0,4.206238E0,1.9744873E-1,1.3460107E0,1.164051E0,7.316066E0,7.975754E0,1.0960348E1,3.2407055E0,0E0,0E0,0E0,0E0,0E0,0E0,0E0,0E0,0E0,0E0,0E0,0E0,0E0,0E0,0E0,0E0,0E0,0E0,0E0,0E0,0E0,0E0,0E0,0E0,0E0,0E0,0E0,0E0,0E0,0E0,0E0,0E0,0E0,0E0],"parents":[2147483647,0,0,1,1,2,2,3,3,4,4,5,5,6,6,7,7,8,8,9,9,10,10,11,11,12,12,13,13,15,15,16,16,19,19,20,20,22,22,23,23,24,24,25,25,26,26,27,27,28,28,31,31,32,32,33,33,34,34,35,35,39,39,40,40,41,41,42,42,43,43,44,44,45,45,46,46,47,47,48,48,49,49,50,50],"right_children":[2,4,6,8,10,12,14,16,18,20,22,24,26,28,-1,30,32,-1,-1,34,36,-1,38,40,42,44,46,48,50,-1,-1,52,54,56,58,60,-1,-1,-1,62,64,66,68,70,72,74,76,78,80,82,84,-1,-1,-1,-1,-1,-1,-1,-1,-1,-1,-1,-1,-1,-1,-1,-1,-1,-1,-1,-1,-1,-1,-1,-1,-1,-1,-1,-1,-1,-1,-1,-1,-1,-1],"split_conditions":[2.4E1,2.1E1,2.017E3,1.946E3,2.017E3,3.4E1,2.9337492E0,1.4E1,1.2825472E0,1.5030162E0,1.2394482E0,1.6129009E0,2.1852603E0,3.4E1,7.259371E-2,1.1497916E3,1.0555238E0,-1.2774164E-2,4.274848E-2,1.2846643E0,1.25E3,1.3896606E-2,4.7715E4,2.7E1,2.9E1,4.3E1,4.2E1,1.4440031E0,2.018E3,7.380804E-2,2.5819693E-2,1E0,2.017E3,1.0623668E0,2E0,7.51913E3,-7.1582855E-3,1.7449485E-2,6.5228686E-2,1.4645572E0,8.4901E4,1.7687914E0,1.553125E3,1.7173455E0,2.14175E3,1E0,3.2310417E3,2.018E3,2.9E1,1.6412923E0,2.57402E3,5.916235E-2,-3.442294E-2,4.8683945E-2,7.2016895E-2,-1.4254211E-2,-5.510387E-2,2.4456877E-2,-2.963735E-2,7.291482E-2,2.3246571E-2,-4.595765E-2,-7.317076E-3,-5.3242266E-2,-3.8904075E-2,2.7750449E-3,5.7625163E-2,2.3669844E-2,-3.096821E-2,-6.0721647E-2,-4.9780663E-2,-2.1423375E-2,-6.2290426E-2,4.9725857E-2,-1.0461564E-2,-1.3784865E-2,-5.0923284E-2,1.7247045E-2,-5.5762954E-2,5.9638094E-2,3.254589E-2,-5.7645064E-2,-5.1519717E-3,6.1158696E-3,-6.1354484E-2],"split_indices":[0,0,18,8,18,0,2,0,2,2,2,2,2,0,0,5,2,0,0,2,8,0,13,0,0,0,0,2,18,0,0,11,18,2,15,16,0,0,0,2,13,2,7,2,16,12,5,18,0,2,16,0,0,0,0,0,0,0,0,0,0,0,0,0,0,0,0,0,0,0,0,0,0,0,0,0,0,0,0,0,0,0,0,0,0],"split_type":[0,0,0,0,0,0,0,0,0,0,0,0,0,0,0,0,0,0,0,0,0,0,0,0,0,0,0,0,0,0,0,0,0,0,0,0,0,0,0,0,0,0,0,0,0,0,0,0,0,0,0,0,0,0,0,0,0,0,0,0,0,0,0,0,0,0,0,0,0,0,0,0,0,0,0,0,0,0,0,0,0,0,0,0,0],"sum_hessian":[2.1734946E3,6.881042E2,1.4853904E3,6.066889E2,8.14153E1,1.1237332E3,3.6165726E2,6.0429297E2,2.3959503E0,3.3734917E1,4.768038E1,3.265965E2,7.971366E2,2.4166872E2,1.1998855E2,4.7121118E2,1.3308179E2,1.2327386E0,1.1632118E0,2.3551851E1,1.0183065E1,1.6855497E0,4.599483E1,2.0306749E2,1.23529015E2,7.8162866E2,1.5507914E1,1.4091325E2,1.0075546E2,4.6966144E2,1.5497503E0,6.8848705E0,1.26196915E2,9.172894E0,1.4378958E1,8.940962E0,1.2421036E0,1.6576822E0,4.4337147E1,4.8722744E1,1.5434474E2,2.365706E1,9.9871956E1,4.5205508E2,3.295736E2,2.5458837E0,1.2962029E1,2.2670504E1,1.1824275E2,8.0400894E1,2.0354563E1,3.1801617E0,3.704709E0,2.2905643E1,1.0329127E2,1.0836722E0,8.089222E0,7.6207013E0,6.7582564E0,5.953214E0,2.9877474E0,3.3140163E1,1.5582582E1,1.1795627E2,3.638848E1,1.8843344E1,4.8137164E0,6.221084E0,9.365087E1,2.2963435E2,2.2242073E2,1.6224952E0,3.279511E2,1.5456693E0,1.0002142E0,3.8636453E0,9.098384E0,1.954411E1,3.126393E0,5.7646233E1,6.059652E1,1.064881E1,6.975209E1,1.7685149E0,1.8586048E1],"tree_param":{"num_deleted":"0","num_feature":"21","num_nodes":"85","size_leaf_vector":"1"}},{"base_weights":[3.7102445E-4,1.3013963E0,-6.047546E-1,7.114864E-2,8.4740376E-1,-1.0118101E0,6.458245E-1,9.180393E-2,1.2720026E0,-5.9353E-1,-1.0929075E0,7.180046E-2,2.5996163E-1,-3.0484173E-1,4.4762158E-1,9.513216E-1,7.2773986E-2,-6.6156185E-1,-3.2404533E-1,-9.326211E-1,-1.1639535E0,-6.6685164E-1,1.1766926E0,1.8164769E-2,-6.95822E-1,7.8553796E-1,1.9671644E-1,1.17771946E-1,7.239234E-2,-7.2554797E-1,-2.7549168E-1,1.437456E-1,-5.156943E-1,-9.5373666E-1,-2.1694802E-1,-1.167559E0,-3.264298E-1,1.3230461E-1,-8.1560487E-1,8.541546E-2,-1.0187489E0,2.1958893E-2,-2.0565076E-2,-5.6967713E-2,-1.0030123E-2,-1.1989772E-3,5.0086387E-2,-1.9870123E-2,2.5211308E-2,1.663408E-2,-3.7601933E-2,-2.7613563E-2,-4.3328963E-2,-5.5536147E-2,-2.3015433E-3,-1.6260706E-2,4.0977784E-2,-3.2090656E-2,4.6724547E-3,-4.5100942E-2,-5.6368954E-2,-2.9785484E-2,5.418512E-2,-5.574142E-2,-6.1268754E-2,-4.111926E-2,1.7336493E-2,-1.2889177E-2,3.3652555E-2,-5.1661786E-2,-2.351213E-2,-1.0169861E-2,-5.5612452E-2],"categories":[],"categories_nodes":[],"categories_segments":[],"categories_sizes":[],"default_left":[0,0,0,0,0,0,0,0,0,0,0,0,0,0,0,0,0,0,0,0,0,0,0,0,0,0,0,0,0,0,0,0,0,0,0,0,0,0,0,0,0,0,0,0,0,0,0,0,0,0,0,0,0,0,0,0,0,0,0,0,0,0,0,0,0,0,0,0,0,0,0,0,0],"id":13,"left_children":[1,3,5,-1,7,9,11,13,15,17,19,-1,21,23,25,27,-1,29,31,33,35,37,39,41,43,45,47,49,-1,51,53,55,57,59,61,63,65,67,69,-1,71,-1,-1,-1,-1,-1,-1,-1,-1,-1,-1,-1,-1,-1,-1,-1,-1,-1,-1,-1,-1,-1,-1,-1,-1,-1,-1,-1,-1,-1,-1,-1,-1],"loss_changes":[1.6726823E3,3.6022095E1,7.388557E2,0E0,4.63845E1,3.6476074E1,1.0838965E2,7.6480613E0,4.070709E0,3.0842094E0,9.339966E0,0E0,2.0545935E2,3.2661843E0,2.2585158E0,1.4989765E1,0E0,3.3251266E0,3.5011554E0,4.118088E0,1.5222168E0,1.4423992E1,1.4351027E2,2.907666E0,2.336998E0,2.0879855E0,3.4281514E0,3.0097864E0,0E0,2.4977722E0,4.1459846E0,4.035249E0,2.1599417E0,1.4769745E0,5.3239465E0,5.4608154E-1,1.6505821E0,4.3414106E0,7.155716E0,0E0,1.626728E0,0E0,0E0,0E0,0E0,0E0,0E0,0E0,0E0,0E0,0E0,0E0,0E0,0E0,0E0,0E0,0E0,0E0,0E0,0E0,0E0,0E0,0E0,0E0,0E0,0E0,0E0,0E0,0E0,0E0,0E0,0E0,0E0],"parents":[2147483647,0,0,1,1,2,2,4,4,5,5,6,6,7,7,8,8,9,9,10,10,12,12,13,13,14,14,15,15,17,17,18,18,19,19,20,20,21,21,22,22,23,23,24,24,25,25,26,26,27,27,29,29,30,30,31,31,32,32,33,33,34,34,35,35,36,36,37,37,38,38,40,40],"right_children":[2,4,6,-1,8,10,12,14,16,18,20,-1,22,24,26,28,-1,30,32,34,36,38,40,42,44,46,48,50,-1,52,54,56,58,60,62,64,66,68,70,-1,72,-1,-1,-1,-1,-1,-1,-1,-1,-1,-1,-1,-1,-1,-1,-1,-1,-1,-1,-1,-1,-1,-1,-1,-1,-1,-1,-1,-1,-1,-1,-1,-1],"split_conditions":[2.4E1,1.8E1,2.017E3,7.114864E-2,2.017E3,3.1E1,1E0,5E0,6E0,6E0,3.7E1,7.180046E-2,6E0,2.2E1,2.014E3,2.018E3,7.2773986E-2,3.7714016E-2,1.1392838E-2,7E0,1E1,2.8E1,2.018E3,2E0,2.014E3,5E0,2E0,3.278374E-2,7.239234E-2,1.3665458E-2,2.013E3,2E0,1.1E1,2.016E3,3.324538E-2,4.4E1,7.3461E4,3.9481E4,4E0,8.541546E-2,5.4792E4,2.1958893E-2,-2.0565076E-2,-5.6967713E-2,-1.0030123E-2,-1.1989772E-3,5.0086387E-2,-1.9870123E-2,2.5211308E-2,1.663408E-2,-3.7601933E-2,-2.7613563E-2,-4.3328963E-2,-5.5536147E-2,-2.3015433E-3,-1.6260706E-2,4.0977784E-2,-3.2090656E-2,4.6724547E-3,-4.5100942E-2,-5.6368954E-2,-2.9785484E-2,5.418512E-2,-5.574142E-2,-6.1268754E-2,-4.111926E-2,1.7336493E-2,-1.2889177E-2,3.3652555E-2,-5.1661786E-2,-2.351213E-2,-1.0169861E-2,-5.5612452E-2],"split_indices":[0,0,18,0,18,0,17,3,19,3,0,0,19,0,18,18,0,10,10,3,3,0,18,15,18,19,20,10,0,10,18,14,19,18,10,0,13,4,19,0,13,0,0,0,0,0,0,0,0,0,0,0,0,0,0,0,0,0,0,0,0,0,0,0,0,0,0,0,0,0,0,0,0],"split_type":[0,0,0,0,0,0,0,0,0,0,0,0,0,0,0,0,0,0,0,0,0,0,0,0,0,0,0,0,0,0,0,0,0,0,0,0,0,0,0,0,0,0,0,0,0,0,0,0,0,0,0,0,0,0,0,0,0,0,0,0,0,0,0,0,0,0,0,0,0,0,0,0,0],"sum_hessian":[2.1226248E3,6.7348206E2,1.4491427E3,5.2954004E2,1.4394197E2,1.0934294E3,3.557133E2,5.222341E1,9.171857E1,1.7892079E2,9.1450867E2,1.15817085E2,2.398962E2,2.4762653E1,2.746076E1,3.56298E1,5.6088768E1,1.4169478E2,3.722602E1,2.8519928E2,6.293094E2,1.1942765E2,1.20468544E2,1.4082228E1,1.0680425E1,1.0793446E1,1.6667315E1,1.3762675E1,2.1867123E1,1.2079521E2,2.0899557E1,1.0891413E1,2.6334606E1,2.7670267E2,8.496605E0,6.262195E2,3.0898821E0,1.8758858E1,1.0066879E2,9.7162865E1,2.3305677E1,7.099679E0,6.9825487E0,4.948082E0,5.732343E0,2.4623425E0,8.331102E0,5.5848584E0,1.1082456E1,1.153113E1,2.2315457E0,5.6407097E1,6.4388115E1,3.6765256E0,1.7223032E1,6.735959E0,4.155454E0,2.1773027E1,4.56158E0,2.179754E2,5.8727264E1,7.000101E0,1.4965045E0,3.3812125E2,2.8809824E2,1.6514702E0,1.438412E0,1.1201505E1,7.557352E0,6.0532413E1,4.0136375E1,2.724296E0,2.058138E1],"tree_param":{"num_deleted":"0","num_feature":"21","num_nodes":"73","size_leaf_vector":"1"}},{"base_weights":[-9.357324E-3,1.233653E0,-6.199401E-1,1.359808E0,5.496673E-1,-1.0055867E0,5.969037E-1,1.3915883E0,1.0634114E0,-2.5552145E-1,1.167431E0,-7.321496E-1,-1.1139662E0,7.024497E-2,1.8132572E-1,6.973938E-2,4.596153E-1,2.0942178E-1,1.2151839E0,-3.9181063E-1,3.6246482E-1,7.5329924E-1,7.188884E-2,-9.2080647E-1,-6.4987695E-1,-1.062049E0,-1.1952288E0,-6.6621226E-1,1.1051302E0,-3.3794784E-3,3.9128583E-2,8.112107E-1,-5.332343E-1,4.3208498E-1,1.2736093E0,-4.540377E-1,4.3131184E-2,5.4541297E-2,-1.6155711E-1,2.2092201E-1,1.2282094E0,6.922073E-4,-9.3492836E-1,-2.4504206E-1,-7.0132166E-1,8.012408E-3,-1.0673552E0,-1.2538359E-2,-5.991831E-2,-1.4412817E-1,-8.296635E-1,8.280021E-2,-9.7369766E-1,5.7858188E-2,-1.52975125E-2,-5.159996E-2,4.394532E-3,4.544365E-2,-1.589184E-2,6.847505E-2,3.6008224E-2,1.2701851E-2,-2.7836574E-2,-3.524072E-2,3.293496E-2,-1.2120304E-2,5.9260644E-2,6.909119E-2,-3.7566372E-3,-4.908071E-2,-3.301212E-2,7.7603324E-3,-4.5137685E-2,-3.562504E-2,2.4162749E-2,-5.739196E-2,-5.087411E-2,-1.5739804E-2,5.1584747E-2,-5.356994E-2,-2.1113308E-2,2.3111624E-3,-5.396045E-2],"categories":[],"categories_nodes":[],"categories_segments":[],"categories_sizes":[],"default_left":[0,0,0,0,0,0,0,0,0,0,0,0,0,0,0,0,0,0,0,0,0,0,0,0,0,0,0,0,0,0,0,0,0,0,0,0,0,0,0,0,0,0,0,0,0,0,0,0,0,0,0,0,0,0,0,0,0,0,0,0,0,0,0,0,0,0,0,0,0,0,0,0,0,0,0,0,0,0,0,0,0,0,0],"id":14,"left_children":[1,3,5,7,9,11,13,15,17,19,21,23,25,-1,27,-1,29,31,33,35,37,39,-1,41,43,45,47,49,51,-1,-1,53,55,57,59,61,-1,-1,63,65,67,-1,69,71,73,-1,75,-1,-1,77,79,-1,81,-1,-1,-1,-1,-1,-1,-1,-1,-1,-1,-1,-1,-1,-1,-1,-1,-1,-1,-1,-1,-1,-1,-1,-1,-1,-1,-1,-1,-1,-1],"loss_changes":[1.5687952E3,5.8005615E1,6.5107214E2,3.928711E0,5.387356E1,3.0387817E1,1.1196674E2,8.9556885E-1,7.502014E0,4.1494865E0,5.7605667E0,4.085785E0,1.9037476E0,0E0,1.7443079E2,0E0,6.0701156E-1,5.0085325E0,1.7650223E0,3.4722023E0,3.6558814E0,6.3638296E0,0E0,1.1909027E0,4.2756042E0,3.2058105E0,5.446472E-1,9.806755E0,1.235986E2,0E0,0E0,2.6932147E0,1.6974268E0,2.0862498E0,1.4856796E0,2.9230576E0,0E0,0E0,3.2150633E0,6.360174E0,2.8369179E0,0E0,4.7953033E-1,6.8829594E0,2.84626E0,0E0,7.025757E-1,0E0,0E0,6.1332436E0,8.251144E0,0E0,2.5189762E0,0E0,0E0,0E0,0E0,0E0,0E0,0E0,0E0,0E0,0E0,0E0,0E0,0E0,0E0,0E0,0E0,0E0,0E0,0E0,0E0,0E0,0E0,0E0,0E0,0E0,0E0,0E0,0E0,0E0,0E0],"parents":[2147483647,0,0,1,1,2,2,3,3,4,4,5,5,6,6,7,7,8,8,9,9,10,10,11,11,12,12,14,14,16,16,17,17,18,18,19,19,20,20,21,21,23,23,24,24,25,25,26,26,27,27,28,28,31,31,32,32,33,33,34,34,35,35,38,38,39,39,40,40,42,42,43,43,44,44,46,46,49,49,50,50,52,52],"right_children":[2,4,6,8,10,12,14,16,18,20,22,24,26,-1,28,-1,30,32,34,36,38,40,-1,42,44,46,48,50,52,-1,-1,54,56,58,60,62,-1,-1,64,66,68,-1,70,72,74,-1,76,-1,-1,78,80,-1,82,-1,-1,-1,-1,-1,-1,-1,-1,-1,-1,-1,-1,-1,-1,-1,-1,-1,-1,-1,-1,-1,-1,-1,-1,-1,-1,-1,-1,-1,-1],"split_conditions":[2.5E1,2.1E1,2.017E3,1.8E1,2.017E3,3.4E1,1E0,1.784E3,2.015E3,6E0,7E0,5E0,4.4E1,7.024497E-2,6E0,6.973938E-2,2E0,5.74E2,4E0,2.334E3,3.72E2,2.018E3,7.188884E-2,1.2135834E3,2.7E1,4.5384E4,2.14175E3,1.8525834E3,2.018E3,-3.3794784E-3,3.9128583E-2,7.3461E4,5.09045E3,1E0,1.023285E4,1.1712916E3,4.3131184E-2,5.4541297E-2,8.072E4,6E0,6E0,6.922073E-4,1.1E1,7.6521E4,2.568625E3,8.012408E-3,2.014E3,-1.2538359E-2,-5.991831E-2,2.018E3,4E0,8.280021E-2,5.4792E4,5.7858188E-2,-1.52975125E-2,-5.159996E-2,4.394532E-3,4.544365E-2,-1.589184E-2,6.847505E-2,3.6008224E-2,1.2701851E-2,-2.7836574E-2,-3.524072E-2,3.293496E-2,-1.2120304E-2,5.9260644E-2,6.909119E-2,-3.7566372E-3,-4.908071E-2,-3.301212E-2,7.7603324E-3,-4.5137685E-2,-3.562504E-2,2.4162749E-2,-5.739196E-2,-5.087411E-2,-1.5739804E-2,5.1584747E-2,-5.356994E-2,-2.1113308E-2,2.3111624E-3,-5.396045E-2],"split_indices":[0,0,18,0,18,0,17,8,18,3,19,3,0,0,19,0,20,8,3,8,8,18,0,7,0,13,16,7,18,0,0,13,16,11,16,5,0,0,13,19,19,0,19,13,5,0,18,0,0,18,19,0,13,0,0,0,0,0,0,0,0,0,0,0,0,0,0,0,0,0,0,0,0,0,0,0,0,0,0,0,0,0,0],"split_type":[0,0,0,0,0,0,0,0,0,0,0,0,0,0,0,0,0,0,0,0,0,0,0,0,0,0,0,0,0,0,0,0,0,0,0,0,0,0,0,0,0,0,0,0,0,0,0,0,0,0,0,0,0,0,0,0,0,0,0,0,0,0,0,0,0,0,0,0,0,0,0,0,0,0,0,0,0,0,0,0,0,0,0],"sum_hessian":[2.0650232E3,6.798928E2,1.3851305E3,5.731857E2,1.06707054E2,1.0519243E3,3.3320615E2,5.1434186E2,5.884392E1,4.65806E1,6.012645E1,3.007924E2,7.511319E2,1.1236252E2,2.2084363E2,5.1208734E2,2.2544594E0,9.238845E0,4.9605076E1,3.8463863E1,8.116738E0,2.5243454E1,3.4882996E1,8.824599E1,2.125464E2,4.6690433E2,2.842276E2,1.1532153E2,1.05522095E2,1.1567911E0,1.0976683E0,5.0524416E0,4.1864038E0,4.0268707E0,4.5578205E1,3.7253914E1,1.2099513E0,2.9436243E0,5.173114E0,1.259244E1,1.2651015E1,1.3137782E0,8.693221E1,2.461402E1,1.8793239E2,1.891925E0,4.650124E2,1.208968E0,2.8301865E2,2.7944628E1,8.73769E1,8.357795E1,2.1944143E1,3.8304517E0,1.22199E0,1.9550184E0,2.2313852E0,2.3321629E0,1.6947081E0,3.7590626E1,7.9875793E0,4.531998E0,3.2721916E1,3.1966834E0,1.9764307E0,9.01127E0,3.5811698E0,1.1263288E1,1.3877277E0,7.2103806E1,1.4828409E1,1.5776993E1,8.837028E0,1.8657019E2,1.3621889E0,1.6948541E2,2.9552698E2,2.5042103E1,2.9025247E0,5.381508E1,3.3561825E1,2.1099832E0,1.983416E1],"tree_param":{"num_deleted":"0","num_feature":"21","num_nodes":"83","size_leaf_vector":"1"}},{"base_weights":[9.624198E-3,1.1611596E0,-6.139293E-1,1.3358028E0,5.0807065E-1,-7.9562116E-1,1.245105E0,1.3398746E0,4.325868E-3,3.533522E-1,9.807446E-1,-3.5531476E-1,-1.0054654E0,1.3365555E0,-3.643007E-1,6.913939E-2,1.2008617E0,-5.4075766E-1,4.2734843E-1,6.583401E-2,6.405224E-1,-6.271011E-1,-1.8001077E-1,-8.937865E-1,-1.1321162E0,6.7681685E-2,-8.844481E-3,6.21714E-2,-9.1718066E-1,6.409801E-1,6.3067034E-2,-9.6461076E-1,2.036206E-1,6.7907935E-1,1.3400888E-1,2.9617056E-1,1.0348562E0,-1.5908663E-1,-7.4027187E-1,4.1342773E-2,-4.6844044E-1,-1.1327304E0,-8.54115E-1,-5.7182577E-2,-7.957144E-1,-5.1164806E-2,-1.697837E-2,-3.7924068E-3,5.6118708E-2,-4.6672444E-3,-5.708983E-2,-1.9738996E-2,4.947002E-2,1.4611587E-2,4.0743597E-2,2.3422547E-2,-9.791746E-3,-2.3702636E-2,2.5611067E-2,5.8533784E-2,2.6255721E-2,-3.8898554E-2,9.111314E-3,-5.7405163E-2,-3.2985445E-2,2.2550266E-2,-9.581125E-3,-1.1587899E-2,-3.4652226E-2,-5.7386722E-2,-9.953453E-3,-3.938314E-2,-4.881816E-2,-4.034527E-3,-4.9564917E-2],"categories":[],"categories_nodes":[],"categories_segments":[],"categories_sizes":[],"default_left":[0,0,0,0,0,0,0,0,0,0,0,0,0,0,0,0,0,0,0,0,0,0,0,0,0,0,0,0,0,0,0,0,0,0,0,0,0,0,0,0,0,0,0,0,0,0,0,0,0,0,0,0,0,0,0,0,0,0,0,0,0,0,0,0,0,0,0,0,0,0,0,0,0,0,0],"id":15,"left_children":[1,3,5,7,9,11,13,15,-1,17,19,21,23,25,27,-1,29,31,33,-1,35,37,39,41,43,-1,-1,-1,45,47,-1,49,51,53,55,57,59,61,63,65,67,69,71,-1,73,-1,-1,-1,-1,-1,-1,-1,-1,-1,-1,-1,-1,-1,-1,-1,-1,-1,-1,-1,-1,-1,-1,-1,-1,-1,-1,-1,-1,-1,-1],"loss_changes":[1.4437144E3,7.987897E1,4.4155954E2,2.7156372E0,1.0669495E1,1.0948468E2,1.7636307E1,1.6490479E0,0E0,7.842868E0,3.337906E0,1.8242596E1,1.0368225E1,3.094696E0,7.4077106E0,0E0,3.8799896E0,3.1101663E0,7.796467E0,0E0,2.426035E0,7.861759E0,1.5061117E1,3.1304626E0,5.383911E-1,0E0,0E0,0E0,9.3746185E-3,5.444857E0,0E0,8.2874966E-1,2.3543656E0,2.7686596E0,5.670987E0,2.263568E0,6.965637E-3,6.607592E0,3.219658E0,1.2895781E1,5.28191E0,5.90889E-1,2.275879E0,0E0,2.1102743E0,0E0,0E0,0E0,0E0,0E0,0E0,0E0,0E0,0E0,0E0,0E0,0E0,0E0,0E0,0E0,0E0,0E0,0E0,0E0,0E0,0E0,0E0,0E0,0E0,0E0,0E0,0E0,0E0,0E0,0E0],"parents":[2147483647,0,0,1,1,2,2,3,3,4,4,5,5,6,6,7,7,9,9,10,10,11,11,12,12,13,13,14,14,16,16,17,17,18,18,20,20,21,21,22,22,23,23,24,24,28,28,29,29,31,31,32,32,33,33,34,34,35,35,36,36,37,37,38,38,39,39,40,40,41,41,42,42,44,44],"right_children":[2,4,6,8,10,12,14,16,-1,18,20,22,24,26,28,-1,30,32,34,-1,36,38,40,42,44,-1,-1,-1,46,48,-1,50,52,54,56,58,60,62,64,66,68,70,72,-1,74,-1,-1,-1,-1,-1,-1,-1,-1,-1,-1,-1,-1,-1,-1,-1,-1,-1,-1,-1,-1,-1,-1,-1,-1,-1,-1,-1,-1,-1,-1],"split_conditions":[2.6E1,2.1E1,8E0,1.987E3,6E0,3.4E1,5E0,1.3E1,4.325868E-3,4E0,5E2,6E0,4.2E1,2.221E3,4.9E1,6.913939E-2,4E0,7.09264E3,2.4E1,6.583401E-2,1.4805416E3,2.8E1,3.1E1,5E0,3.6799017E-2,6.7681685E-2,-8.844481E-3,6.21714E-2,1.1E1,8E0,6.3067034E-2,3.67E2,9.63E2,6E0,1E0,1E0,7.37323E3,7.3135E4,2.7119E3,1.1705167E-2,9E0,7.0162E4,2.1500899E-2,-5.7182577E-2,2.45E3,-5.1164806E-2,-1.697837E-2,-3.7924068E-3,5.6118708E-2,-4.6672444E-3,-5.708983E-2,-1.9738996E-2,4.947002E-2,1.4611587E-2,4.0743597E-2,2.3422547E-2,-9.791746E-3,-2.3702636E-2,2.5611067E-2,5.8533784E-2,2.6255721E-2,-3.8898554E-2,9.111314E-3,-5.7405163E-2,-3.2985445E-2,2.2550266E-2,-9.581125E-3,-1.1587899E-2,-3.4652226E-2,-5.7386722E-2,-9.953453E-3,-3.938314E-2,-4.881816E-2,-4.034527E-3,-4.9564917E-2],"split_indices":[0,0,3,8,3,0,19,0,0,3,8,19,0,8,0,0,3,16,0,0,5,0,0,3,10,0,0,0,19,19,0,8,8,19,11,14,16,13,16,10,19,4,10,0,8,0,0,0,0,0,0,0,0,0,0,0,0,0,0,0,0,0,0,0,0,0,0,0,0,0,0,0,0,0,0],"split_type":[0,0,0,0,0,0,0,0,0,0,0,0,0,0,0,0,0,0,0,0,0,0,0,0,0,0,0,0,0,0,0,0,0,0,0,0,0,0,0,0,0,0,0,0,0,0,0,0,0,0,0,0,0,0,0,0,0,0,0,0,0,0,0,0,0,0,0,0,0,0,0,0,0,0,0],"sum_hessian":[2.0086285E3,7.0528845E2,1.3033401E3,5.5565485E2,1.4963359E2,1.1878209E3,1.15519135E2,5.537774E2,1.8774592E0,1.1404971E2,3.5583874E1,3.8425327E2,8.035677E2,1.094684E2,6.0507317E0,4.1631436E2,1.3746306E2,8.23514E0,1.05814575E2,1.6460606E1,1.912327E1,1.4965508E2,2.345982E2,4.313055E2,3.7226215E2,1.08351326E2,1.1170783E0,1.2287188E0,4.822013E0,1.4531982E1,1.22931076E2,5.0587807E0,3.176359E0,5.6238342E1,4.9576233E1,1.1143381E1,7.9798884E0,2.9609888E1,1.2004518E2,1.3321774E2,1.01380455E2,5.7489567E1,3.7381595E2,3.576003E2,1.4661841E1,3.4217896E0,1.4002235E0,6.17678E0,8.355202E0,1.1129504E0,3.94583E0,2.085652E0,1.0907068E0,1.5430834E1,4.0807507E1,2.4407875E1,2.5168358E1,2.179449E0,8.963932E0,5.277189E0,2.7026994E0,1.0070409E1,1.953948E1,1.7616201E1,1.0242898E2,4.795477E1,8.526298E1,5.0352264E1,5.102819E1,5.635466E1,1.1349058E0,2.4699586E2,1.2682007E2,3.452524E0,1.1209318E1],"tree_param":{"num_deleted":"0","num_feature":"21","num_nodes":"75","size_leaf_vector":"1"}},{"base_weights":[-2.993421E-3,1.0711182E0,-6.3023907E-1,1.2970228E0,4.0256265E-1,-9.831418E-1,5.324743E-1,1.3406358E0,1.0207876E0,-2.7374458E-1,1.0857781E0,-7.580451E-1,-1.0827154E0,6.75409E-2,6.147894E-2,6.730373E-2,8.2146263E-1,3.439436E-1,1.2258589E0,-5.3836256E-1,6.306037E-1,4.9127275E-1,1.3876692E0,-9.4035864E-1,-3.5080358E-1,-1.092952E0,-5.449879E-1,-6.834962E-1,1.0017931E0,-1.359644E-2,5.2065004E-2,-2.7668926E-1,1.0000682E0,4.9987772E-1,1.2953913E0,-1.0520301E0,-3.3308604E-1,9.2817134E-1,-5.1308963E-2,-1.5621875E-1,1.2667577E0,7.172372E-2,1.2718958E-1,9.669457E-3,-9.4738257E-1,8.541593E-2,-5.4130775E-1,-1.033941E0,-1.1814021E0,4.03523E-2,-7.9361314E-1,-9.0285426E-1,-3.380969E-1,8.179316E-2,-1.0234585E0,-3.8068708E-2,1.6469235E-2,6.2222876E-2,-1.1985335E-2,-3.0628309E-2,5.7698358E-2,6.5499075E-2,1.961506E-2,-5.7975262E-2,-2.7509115E-3,-2.4098558E-2,1.2751748E-2,6.797551E-2,3.275498E-2,-2.2603739E-2,4.7777947E-2,-3.2070316E-2,1.6223034E-2,5.004817E-3,6.809061E-2,5.072366E-2,-4.3581095E-2,-5.5723783E-2,-4.3936633E-2,-9.972537E-3,3.4613237E-2,-3.3701576E-2,1.2133258E-2,-5.7778984E-2,-4.5863356E-2,-2.374707E-2,-5.9245836E-2,-4.5469858E-2,9.2385905E-3,-5.013032E-2,7.2977446E-2,1.19644785E-2,-2.5656143E-2,5.9909667E-3,-5.5425998E-2],"categories":[],"categories_nodes":[],"categories_segments":[],"categories_sizes":[],"default_left":[0,0,0,0,0,0,0,0,0,0,0,0,0,0,0,0,0,0,0,0,0,0,0,0,0,0,0,0,0,0,0,0,0,0,0,0,0,0,0,0,0,0,0,0,0,0,0,0,0,0,0,0,0,0,0,0,0,0,0,0,0,0,0,0,0,0,0,0,0,0,0,0,0,0,0,0,0,0,0,0,0,0,0,0,0,0,0,0,0,0,0,0,0,0,0],"id":16,"left_children":[1,3,5,7,9,11,13,15,17,19,21,23,25,-1,27,-1,29,31,33,35,37,39,41,43,45,47,49,51,53,-1,-1,55,57,59,61,63,65,67,69,71,73,-1,75,-1,77,79,81,83,85,-1,87,89,91,-1,93,-1,-1,-1,-1,-1,-1,-1,-1,-1,-1,-1,-1,-1,-1,-1,-1,-1,-1,-1,-1,-1,-1,-1,-1,-1,-1,-1,-1,-1,-1,-1,-1,-1,-1,-1,-1,-1,-1,-1,-1],"loss_changes":[1.3199731E3,1.08567444E2,5.080498E2,5.13031E0,8.5259315E1,2.04552E1,1.1117362E2,2.0074463E-1,1.0369553E1,2.2643717E1,1.5771149E1,2.1532349E1,3.0140991E0,0E0,1.2975717E2,0E0,2.052909E0,8.204368E0,2.3447418E0,7.3095055E0,4.4222593E0,1.6477406E1,3.3721466E0,1.798233E0,7.7458572E0,2.132141E0,5.429002E0,7.5289803E0,1.0678799E2,0E0,0E0,3.4197934E0,3.2312803E0,5.6617646E0,1.905899E-1,2.1091328E0,4.7957783E0,8.8344765E-1,3.4572644E0,4.5364637E0,1.5118771E0,0E0,3.7684314E0,0E0,1.3346558E0,5.156053E0,6.887993E0,4.5234375E0,5.8288574E-2,0E0,1.5882092E0,1.622469E1,4.342995E0,0E0,2.0906353E0,0E0,0E0,0E0,0E0,0E0,0E0,0E0,0E0,0E0,0E0,0E0,0E0,0E0,0E0,0E0,0E0,0E0,0E0,0E0,0E0,0E0,0E0,0E0,0E0,0E0,0E0,0E0,0E0,0E0,0E0,0E0,0E0,0E0,0E0,0E0,0E0,0E0,0E0,0E0,0E0],"parents":[2147483647,0,0,1,1,2,2,3,3,4,4,5,5,6,6,7,7,8,8,9,9,10,10,11,11,12,12,14,14,16,16,17,17,18,18,19,19,20,20,21,21,22,22,23,23,24,24,25,25,26,26,27,27,28,28,31,31,32,32,33,33,34,34,35,35,36,36,37,37,38,38,39,39,40,40,42,42,44,44,45,45,46,46,47,47,48,48,50,50,51,51,52,52,54,54],"right_children":[2,4,6,8,10,12,14,16,18,20,22,24,26,-1,28,-1,30,32,34,36,38,40,42,44,46,48,50,52,54,-1,-1,56,58,60,62,64,66,68,70,72,74,-1,76,-1,78,80,82,84,86,-1,88,90,92,-1,94,-1,-1,-1,-1,-1,-1,-1,-1,-1,-1,-1,-1,-1,-1,-1,-1,-1,-1,-1,-1,-1,-1,-1,-1,-1,-1,-1,-1,-1,-1,-1,-1,-1,-1,-1,-1,-1,-1,-1,-1],"split_conditions":[2.7E1,2.1E1,2.017E3,1.7E1,2.017E3,3.5E1,1E0,1.38E3,2.017E3,1.5690624E0,6E0,1.6805581E0,2.1852603E0,6.75409E-2,6E0,6.730373E-2,1.457E3,1.3452816E0,1.1970676E0,1.2958965E0,1.033E3,2.018E3,2.018E3,2.9311E4,3.1E1,4.4E1,4E1,4E0,2.018E3,-1.359644E-2,5.2065004E-2,9E0,2.5884015E-2,6E0,1.12349E5,2.029E3,3.7714016E-2,3.2438E4,1.8587916E3,4E0,1.4084373E0,7.172372E-2,8.02E2,9.669457E-3,1.4421201E0,1.8052862E0,1.273195E4,1.7173455E0,2.20344E3,4.03523E-2,2.9337492E0,2.018E3,6.7671E4,8.179316E-2,2.49126E3,-3.8068708E-2,1.6469235E-2,6.2222876E-2,-1.1985335E-2,-3.0628309E-2,5.7698358E-2,6.5499075E-2,1.961506E-2,-5.7975262E-2,-2.7509115E-3,-2.4098558E-2,1.2751748E-2,6.797551E-2,3.275498E-2,-2.2603739E-2,4.7777947E-2,-3.2070316E-2,1.6223034E-2,5.004817E-3,6.809061E-2,5.072366E-2,-4.3581095E-2,-5.5723783E-2,-4.3936633E-2,-9.972537E-3,3.4613237E-2,-3.3701576E-2,1.2133258E-2,-5.7778984E-2,-4.5863356E-2,-2.374707E-2,-5.9245836E-2,-4.5469858E-2,9.2385905E-3,-5.013032E-2,7.2977446E-2,1.19644785E-2,-2.5656143E-2,5.9909667E-3,-5.5425998E-2],"split_indices":[0,0,18,0,18,0,17,8,18,2,19,2,2,0,19,0,8,2,2,2,8,18,18,4,0,0,0,19,18,0,0,19,10,19,13,8,10,4,5,19,2,0,8,0,2,2,16,2,16,0,2,18,13,0,16,0,0,0,0,0,0,0,0,0,0,0,0,0,0,0,0,0,0,0,0,0,0,0,0,0,0,0,0,0,0,0,0,0,0,0,0,0,0,0,0],"split_type":[0,0,0,0,0,0,0,0,0,0,0,0,0,0,0,0,0,0,0,0,0,0,0,0,0,0,0,0,0,0,0,0,0,0,0,0,0,0,0,0,0,0,0,0,0,0,0,0,0,0,0,0,0,0,0,0,0,0,0,0,0,0,0,0,0,0,0,0,0,0,0,0,0,0,0,0,0,0,0,0,0,0,0,0,0,0,0,0,0,0,0,0,0,0,0],"sum_hessian":[1.9571948E3,7.2130536E2,1.2358895E3,5.3843005E2,1.828753E2,9.4823804E2,2.8765146E2,4.6168454E2,7.674549E1,9.220347E1,9.067183E1,2.934582E2,6.5477985E2,1.0439665E2,1.832548E2,4.5532187E2,6.3626547E0,1.8468115E1,5.8277374E1,7.164453E1,2.0558945E1,3.1421562E1,5.925027E1,2.0180511E2,9.165307E1,6.4153467E2,1.3245198E1,1.0240017E2,8.085464E1,1.0254557E0,5.3371987E0,9.787935E0,8.68018E0,5.809547E0,5.2467827E1,1.927853E1,5.2365997E1,1.40616865E1,6.497257E0,1.755912E1,1.3862441E1,5.699581E1,2.2544565E0,1.0791827E0,2.0072594E2,2.8027313E1,6.3625755E1,3.9241702E2,2.4911766E2,1.7084647E0,1.1536734E1,6.163973E1,4.076044E1,6.1722645E1,1.9131992E1,5.2962327E0,4.4917026E0,7.2477064E0,1.4324734E0,2.1745906E0,3.6349564E0,5.119025E1,1.2775759E0,1.7255459E1,2.0230713E0,4.1931393E1,1.0434606E1,3.9088151E0,1.0152871E1,5.0415626E0,1.455695E0,8.572175E0,8.986945E0,1.1990316E0,1.2663409E1,1.1855793E0,1.0688772E0,5.4016445E1,1.4670949E2,1.9530602E1,8.496712E0,5.4533646E1,9.092112E0,1.8776152E2,2.046555E2,1.9071176E0,2.4721054E2,1.0378977E1,1.1577567E0,5.969473E1,1.945E0,9.396272E0,3.136417E1,1.2965786E0,1.7835413E1],"tree_param":{"num_deleted":"0","num_feature":"21","num_nodes":"95","size_leaf_vector":"1"}},{"base_weights":[-9.509635E-3,1.1888729E0,-5.521862E-1,1.307314E0,7.7390444E-1,-9.4033E-1,5.923175E-1,6.582256E-2,8.303573E-1,1.3100322E-1,1.1326112E0,-5.478955E-1,-1.0238515E0,2.5496876E-1,1.3086823E0,5.856027E-2,2.5113142E-1,-2.9295436E-1,9.5359826E-1,4.9329892E-1,1.2389424E0,-7.2006947E-1,2.2800097E-1,-9.2571026E-1,-1.1162666E0,7.5459534E-1,-2.387267E-1,6.59866E-2,5.3962475E-1,-4.2574802E-1,4.7071643E-2,-6.701831E-1,-7.913709E-3,1.125078E0,3.6054114E-1,6.0241914E-1,-1.9414075E-2,6.2369045E-2,1.7867006E-2,-4.9626702E-1,-8.4180725E-1,-1.7367175E-1,6.9817686E-1,-1.0658298E0,-7.059439E-1,-2.504101E-1,-1.1204188E0,2.3460248E-3,9.0485793E-1,-1.0005213E0,-7.092304E-2,3.2914572E-3,3.6684316E-2,1.7529337E-2,-5.439951E-2,-4.7221384E-4,-4.4395786E-2,1.4852852E-2,-2.8486444E-2,6.0472447E-2,9.39059E-3,5.7483047E-2,-2.5755525E-2,-6.4665745E-3,3.537714E-2,-3.076145E-2,3.2392498E-2,4.1874624E-3,-4.3207183E-2,1.45725235E-2,-4.9136292E-2,5.7478346E-2,-1.5232143E-3,-5.3650826E-2,6.0554915E-3,-3.7045065E-2,3.429502E-2,1.5106626E-2,-3.3688124E-2,-5.858576E-2,-5.1725686E-2,9.151622E-3,-4.9860355E-2,5.5756416E-2,2.9309109E-2,-2.9266788E-2,-5.8487535E-2,2.2091525E-2,-2.1440638E-2],"categories":[],"categories_nodes":[],"categories_segments":[],"categories_sizes":[],"default_left":[0,0,0,0,0,0,0,0,0,0,0,0,0,0,0,0,0,0,0,0,0,0,0,0,0,0,0,0,0,0,0,0,0,0,0,0,0,0,0,0,0,0,0,0,0,0,0,0,0,0,0,0,0,0,0,0,0,0,0,0,0,0,0,0,0,0,0,0,0,0,0,0,0,0,0,0,0,0,0,0,0,0,0,0,0,0,0,0,0],"id":17,"left_children":[1,3,5,7,9,11,13,-1,15,17,19,21,23,25,27,-1,29,31,33,35,37,39,41,43,45,47,49,-1,51,53,-1,55,57,59,61,63,-1,-1,-1,65,67,69,71,73,75,77,79,81,83,85,87,-1,-1,-1,-1,-1,-1,-1,-1,-1,-1,-1,-1,-1,-1,-1,-1,-1,-1,-1,-1,-1,-1,-1,-1,-1,-1,-1,-1,-1,-1,-1,-1,-1,-1,-1,-1,-1,-1],"loss_changes":[1.2389117E3,2.8172607E1,5.830513E2,9.136963E-1,3.082277E1,3.1545654E1,8.006468E1,0E0,1.9494472E0,1.744723E1,5.2399063E0,2.3414665E1,6.281494E0,5.6275696E1,1.9091797E-1,0E0,2.9626684E0,3.569923E0,1.3209248E0,1.5744977E0,9.8335266E-2,3.4695282E0,6.233951E0,1.1472443E1,1.1953125E0,1.2801353E1,1.4648548E1,0E0,2.4564874E-1,2.1587121E0,0E0,2.0487103E0,3.587619E0,7.7698517E-1,4.240305E0,1.0755758E0,0E0,0E0,0E0,7.571827E0,1.9531403E0,7.156233E0,5.005066E0,2.1812134E0,8.172806E0,9.631112E-1,5.8691406E-1,3.7695956E0,5.67247E0,7.7036095E-1,1.7703243E1,0E0,0E0,0E0,0E0,0E0,0E0,0E0,0E0,0E0,0E0,0E0,0E0,0E0,0E0,0E0,0E0,0E0,0E0,0E0,0E0,0E0,0E0,0E0,0E0,0E0,0E0,0E0,0E0,0E0,0E0,0E0,0E0,0E0,0E0,0E0,0E0,0E0,0E0],"parents":[2147483647,0,0,1,1,2,2,3,3,4,4,5,5,6,6,8,8,9,9,10,10,11,11,12,12,13,13,14,14,16,16,17,17,18,18,19,19,20,20,21,21,22,22,23,23,24,24,25,25,26,26,28,28,29,29,31,31,32,32,33,33,34,34,35,35,39,39,40,40,41,41,42,42,43,43,44,44,45,45,46,46,47,47,48,48,49,49,50,50],"right_children":[2,4,6,8,10,12,14,-1,16,18,20,22,24,26,28,-1,30,32,34,36,38,40,42,44,46,48,50,-1,52,54,-1,56,58,60,62,64,-1,-1,-1,66,68,70,72,74,76,78,80,82,84,86,88,-1,-1,-1,-1,-1,-1,-1,-1,-1,-1,-1,-1,-1,-1,-1,-1,-1,-1,-1,-1,-1,-1,-1,-1,-1,-1,-1,-1,-1,-1,-1,-1,-1,-1,-1,-1,-1,-1],"split_conditions":[2.4E1,1.8E1,2.017E3,1.236E3,2.017E3,3.1E1,2.9337492E0,6.582256E-2,1E0,1.4589802E0,1.2846643E0,1.6891599E0,4E1,3.2E1,9E1,5.856027E-2,1E0,1.2740442E0,8.68592E3,4.4432238E-2,2.074E3,2.7E1,2.015E3,1.7173455E0,2.14175E3,1.4440031E0,1.6329932E0,6.59866E-2,8.636364E0,1.5E1,4.7071643E-2,2.8304E4,1.4084373E0,3.9638147E-2,3.0833E4,1.1601787E0,-1.9414075E-2,6.2369045E-2,1.7867006E-2,4.4755E4,2.27975E3,4.5024E4,2.1364857E-2,3.793949E4,2.1123345E0,4.6E1,1.8572224E0,2.018E3,2.9E1,3.4E1,3.8E1,3.2914572E-3,3.6684316E-2,1.7529337E-2,-5.439951E-2,-4.7221384E-4,-4.4395786E-2,1.4852852E-2,-2.8486444E-2,6.0472447E-2,9.39059E-3,5.7483047E-2,-2.5755525E-2,-6.4665745E-3,3.537714E-2,-3.076145E-2,3.2392498E-2,4.1874624E-3,-4.3207183E-2,1.45725235E-2,-4.9136292E-2,5.7478346E-2,-1.5232143E-3,-5.3650826E-2,6.0554915E-3,-3.7045065E-2,3.429502E-2,1.5106626E-2,-3.3688124E-2,-5.858576E-2,-5.1725686E-2,9.151622E-3,-4.9860355E-2,5.5756416E-2,2.9309109E-2,-2.9266788E-2,-5.8487535E-2,2.2091525E-2,-2.1440638E-2],"split_indices":[0,0,18,8,18,0,2,0,11,2,2,2,0,0,0,0,12,2,16,10,8,0,18,2,16,2,2,0,1,0,0,4,2,10,4,2,0,0,0,6,16,4,10,16,2,0,2,18,0,0,0,0,0,0,0,0,0,0,0,0,0,0,0,0,0,0,0,0,0,0,0,0,0,0,0,0,0,0,0,0,0,0,0,0,0,0,0,0,0],"split_type":[0,0,0,0,0,0,0,0,0,0,0,0,0,0,0,0,0,0,0,0,0,0,0,0,0,0,0,0,0,0,0,0,0,0,0,0,0,0,0,0,0,0,0,0,0,0,0,0,0,0,0,0,0,0,0,0,0,0,0,0,0,0,0,0,0,0,0,0,0,0,0,0,0,0,0,0,0,0,0,0,0,0,0,0,0,0,0,0,0],"sum_hessian":[1.9030293E3,5.9279047E2,1.3102389E3,4.5949118E2,1.3329929E2,9.785534E2,3.316855E2,4.4912717E2,1.036401E1,4.8227512E1,8.507178E1,1.730447E2,8.055087E2,2.2641743E2,1.0526804E2,5.8811827E0,4.4828267E0,3.2250027E1,1.5977487E1,1.2935698E1,7.213608E1,1.4167786E2,3.1366837E1,3.959946E2,4.095141E2,1.12270096E2,1.1414735E2,1.03071075E2,2.1969657E0,2.4569209E0,2.025906E0,1.3298857E1,1.8951168E1,1.16979885E1,4.279499E0,1.1792684E1,1.1430143E0,7.10412E1,1.0948855E0,5.1703255E1,8.997461E1,1.7255787E1,1.411105E1,2.3946545E2,1.5652914E2,2.2470293E0,4.072671E2,1.886136E1,9.340874E1,1.9709185E1,9.4438156E1,1.0275211E0,1.1694447E0,1.3476734E0,1.1092474E0,3.5547779E0,9.744079E0,1.258882E1,6.362348E0,1.0465502E1,1.2324866E0,2.086377E0,2.193122E0,1.4524072E0,1.0340276E1,4.7252357E1,4.450896E0,2.0554004E0,8.791921E1,1.1363003E1,5.892785E0,8.356529E0,5.75452E0,2.3811964E2,1.3458045E0,1.5315033E2,3.378822E0,1.0989962E0,1.1480331E0,2.4708536E2,1.6018173E2,1.6665646E1,2.195716E0,5.4770508E1,3.863823E1,6.998345E0,1.271084E1,3.8723675E1,5.5714485E1],"tree_param":{"num_deleted":"0","num_feature":"21","num_nodes":"89","size_leaf_vector":"1"}},{"base_weights":[-5.024344E-3,1.0302091E0,-6.0429186E-1,1.2470895E0,3.904402E-1,-9.43445E-1,4.9077955E-1,6.5504275E-2,9.793245E-1,-2.4150816E-1,1.0129442E0,-7.0663553E-1,-1.049608E0,9.183525E-2,6.483503E-2,2.5429222E-1,1.1931009E0,8.469676E-2,-4.2696363E-1,5.190885E-1,1.2987151E0,-9.140638E-1,-6.5065074E-1,-1.0571573E0,-2.9206842E-1,-5.8729506E-1,9.7702765E-1,5.808384E-1,-5.5815905E-1,9.691112E-1,6.58816E-2,-2.714446E-3,6.4823166E-2,-5.4288447E-1,1.9778578E-1,-1.3936573E-1,1.2392187E0,6.954365E-2,-3.9640674E-1,-9.381194E-1,7.788243E-4,2.7173895E-1,-6.707498E-1,-1.0012782E0,-1.1420132E0,7.273491E-2,-5.2269846E-2,-7.039734E-1,4.1712245E-1,7.862657E-2,-1.0119472E0,-1.2278642E-2,4.8031047E-2,-2.359804E-3,-4.921939E-2,1.3120167E-2,6.4483896E-2,1.1260299E-2,-2.7861802E-2,-1.1081731E-2,-3.6992263E-2,3.5452493E-2,-8.464488E-3,-1.9197127E-2,2.9107338E-2,6.608661E-2,2.6066E-2,2.9958699E-2,-5.399813E-2,-3.531816E-2,-5.1705725E-2,-1.0159208E-2,5.5526298E-2,-2.614438E-2,-3.8784407E-2,6.3569384E-4,-5.037052E-2,-9.805509E-3,-5.7284284E-2,-4.925957E-2,-1.4739315E-2,6.541132E-2,-3.9158847E-2,-7.983523E-3,-5.4556645E-2],"categories":[],"categories_nodes":[],"categories_segments":[],"categories_sizes":[],"default_left":[0,0,0,0,0,0,0,0,0,0,0,0,0,0,0,0,0,0,0,0,0,0,0,0,0,0,0,0,0,0,0,0,0,0,0,0,0,0,0,0,0,0,0,0,0,0,0,0,0,0,0,0,0,0,0,0,0,0,0,0,0,0,0,0,0,0,0,0,0,0,0,0,0,0,0,0,0,0,0,0,0,0,0,0,0],"id":18,"left_children":[1,3,5,7,9,11,13,-1,15,17,19,21,23,25,-1,27,29,31,33,35,37,39,41,43,45,47,49,51,53,55,-1,57,-1,59,61,63,65,-1,67,69,-1,71,73,75,77,-1,-1,79,81,-1,83,-1,-1,-1,-1,-1,-1,-1,-1,-1,-1,-1,-1,-1,-1,-1,-1,-1,-1,-1,-1,-1,-1,-1,-1,-1,-1,-1,-1,-1,-1,-1,-1,-1,-1],"loss_changes":[1.1669423E3,9.520392E1,4.42929E2,7.397217E0,6.950332E1,2.2135498E1,9.067087E1,0E0,1.5501221E1,5.3703E0,1.1869881E1,2.7118073E0,3.272644E0,1.1476837E2,0E0,6.821518E0,9.1213226E-1,3.4770572E0,4.190448E0,1.6411125E1,9.242966E0,1.3126945E0,4.4033737E0,1.7947998E0,1.1470235E1,1.2963936E1,9.971367E1,5.8724494E0,1.5937386E0,6.870777E0,0E0,4.117404E0,0E0,2.861928E0,1.9135795E0,3.5389137E0,2.8586197E-1,0E0,3.1290317E0,5.2869797E-1,0E0,2.443389E0,3.056427E0,2.3865662E0,6.0531616E-1,0E0,0E0,1.089838E1,1.3731242E1,0E0,1.1550732E0,0E0,0E0,0E0,0E0,0E0,0E0,0E0,0E0,0E0,0E0,0E0,0E0,0E0,0E0,0E0,0E0,0E0,0E0,0E0,0E0,0E0,0E0,0E0,0E0,0E0,0E0,0E0,0E0,0E0,0E0,0E0,0E0,0E0,0E0],"parents":[2147483647,0,0,1,1,2,2,3,3,4,4,5,5,6,6,8,8,9,9,10,10,11,11,12,12,13,13,15,15,16,16,17,17,18,18,19,19,20,20,21,21,22,22,23,23,24,24,25,25,26,26,27,27,28,28,29,29,31,31,33,33,34,34,35,35,36,36,38,38,39,39,41,41,42,42,43,43,44,44,47,47,48,48,50,50],"right_children":[2,4,6,8,10,12,14,-1,16,18,20,22,24,26,-1,28,30,32,34,36,38,40,42,44,46,48,50,52,54,56,-1,58,-1,60,62,64,66,-1,68,70,-1,72,74,76,78,-1,-1,80,82,-1,84,-1,-1,-1,-1,-1,-1,-1,-1,-1,-1,-1,-1,-1,-1,-1,-1,-1,-1,-1,-1,-1,-1,-1,-1,-1,-1,-1,-1,-1,-1,-1,-1,-1,-1],"split_conditions":[2.7E1,2.1E1,2.017E3,1.5E1,2.017E3,3.5E1,1.2E1,6.5504275E-2,2.017E3,6E0,6E0,6.1041E4,8E0,6E0,6.483503E-2,9.1E2,6E0,4.6178E4,1.2E1,2.018E3,2.018E3,5.9780963E-2,3.3324E4,4.4E1,6.2E1,2.018E3,2.018E3,7E0,1E0,2.018E3,6.58816E-2,1.6335E3,6.4823166E-2,2.4E1,1.728745E-2,6E0,5E0,6.954365E-2,6.8E2,4.51344E3,7.788243E-4,1.141E3,6.2E2,4.5384E4,2.14175E3,7.273491E-2,-5.2269846E-2,4E0,5E0,7.862657E-2,2.49126E3,-1.2278642E-2,4.8031047E-2,-2.359804E-3,-4.921939E-2,1.3120167E-2,6.4483896E-2,1.1260299E-2,-2.7861802E-2,-1.1081731E-2,-3.6992263E-2,3.5452493E-2,-8.464488E-3,-1.9197127E-2,2.9107338E-2,6.608661E-2,2.6066E-2,2.9958699E-2,-5.399813E-2,-3.531816E-2,-5.1705725E-2,-1.0159208E-2,5.5526298E-2,-2.614438E-2,-3.8784407E-2,6.3569384E-4,-5.037052E-2,-9.805509E-3,-5.7284284E-2,-4.925957E-2,-1.4739315E-2,6.541132E-2,-3.9158847E-2,-7.983523E-3,-5.4556645E-2],"split_indices":[0,0,18,0,18,0,3,0,18,19,19,13,3,19,0,8,19,4,19,18,18,10,4,0,0,18,18,19,11,18,0,7,0,0,10,3,19,0,8,16,0,8,8,13,16,0,0,19,19,0,16,0,0,0,0,0,0,0,0,0,0,0,0,0,0,0,0,0,0,0,0,0,0,0,0,0,0,0,0,0,0,0,0,0,0],"split_type":[0,0,0,0,0,0,0,0,0,0,0,0,0,0,0,0,0,0,0,0,0,0,0,0,0,0,0,0,0,0,0,0,0,0,0,0,0,0,0,0,0,0,0,0,0,0,0,0,0,0,0,0,0,0,0,0,0,0,0,0,0,0,0,0,0,0,0,0,0,0,0,0,0,0,0,0,0,0,0,0,0,0,0,0,0],"sum_hessian":[1.8790034E3,6.8864734E2,1.190356E3,5.1359155E2,1.7505583E2,9.089765E2,2.813795E2,4.126228E2,1.00968735E2,8.717267E1,8.788316E1,2.837325E2,6.2524396E2,1.8895673E2,9.2422775E1,2.3490192E1,7.7478546E1,3.1793365E1,5.53793E1,3.3245792E1,5.4637375E1,5.704583E1,2.2668669E2,6.186829E2,6.561047E0,1.0711405E2,8.184267E1,1.6958994E1,6.5311985E0,3.0822067E1,4.665648E1,3.0584875E1,1.208491E0,4.682252E1,8.556779E0,1.7787857E1,1.5457933E1,5.1990322E1,2.6470513E0,5.559804E1,1.4477875E0,4.567204E0,2.2211949E2,3.8075104E2,2.3793192E2,1.6964372E0,4.86461E0,9.623412E1,1.087993E1,6.3145985E1,1.8696684E1,5.4509816E0,1.1508013E1,3.4754992E0,3.0556993E0,1.0185686E1,2.063638E1,2.2096575E1,8.488299E0,1.8604008E1,2.8218512E1,3.1867058E0,5.370073E0,1.3634072E1,4.1537848E0,1.3109992E1,2.3479416E0,1.1278353E0,1.5192162E0,1.8732182E1,3.686586E1,3.3999236E0,1.1672803E0,9.468604E1,1.2743345E2,2.2823777E0,3.7846866E2,1.1305814E0,2.3680133E2,5.620144E1,4.003269E1,6.1926103E0,4.6873193E0,1.8458779E0,1.6850805E1],"tree_param":{"num_deleted":"0","num_feature":"21","num_nodes":"85","size_leaf_vector":"1"}},{"base_weights":[-1.9451238E-2,1.1366811E0,-5.38268E-1,1.2637315E0,6.966603E-1,-8.9856476E-1,5.301061E-1,6.454916E-2,1.1103048E0,4.4346564E-3,1.1130514E0,-6.7056036E-1,-1.048762E0,6.426609E-2,2.0317398E-1,-1.5529422E-1,1.169783E0,-7.9355335E-1,3.5642686E-1,4.844184E-1,1.2106789E0,-6.874224E-1,9.2364036E-2,-1.0611638E0,-1.0039378E-1,6.139561E-1,-3.8059556E-1,4.1752364E-2,-5.8440775E-2,5.2881736E-1,6.277269E-2,-1.1881104E0,-3.431561E-1,6.88601E-2,9.422676E-1,9.654774E-2,9.5138913E-1,5.9803617E-1,6.140843E-2,-8.080882E-1,-4.04073E-1,-9.896478E-1,-1.1173207E0,6.918253E-1,-7.9083085E-1,3.658665E-1,9.597042E-1,-5.7127208E-2,-2.5276113E-1,3.614104E-2,-1.5242211E-2,-1.1325909E-2,-6.5101095E-2,3.2655224E-2,-3.1016422E-2,1.0045718E-2,-5.9244156E-2,-5.062389E-3,5.5214394E-2,5.151763E-2,-2.1263704E-2,1.3823295E-2,5.717882E-2,4.2790405E-2,-6.618668E-4,-3.0119061E-2,-4.6006016E-2,5.708082E-3,-3.1353306E-2,-5.638702E-2,-4.2554818E-2,-5.6397267E-2,-3.6242705E-2,-3.236564E-2,6.393986E-2,-4.568328E-2,-1.015163E-2,3.922043E-2,3.3650824E-3,5.6608807E-2,3.3250336E-2,1.693998E-2,-2.4545064E-2],"categories":[],"categories_nodes":[],"categories_segments":[],"categories_sizes":[],"default_left":[0,0,0,0,0,0,0,0,0,0,0,0,0,0,0,0,0,0,0,0,0,0,0,0,0,0,0,0,0,0,0,0,0,0,0,0,0,0,0,0,0,0,0,0,0,0,0,0,0,0,0,0,0,0,0,0,0,0,0,0,0,0,0,0,0,0,0,0,0,0,0,0,0,0,0,0,0,0,0,0,0,0,0],"id":19,"left_children":[1,3,5,7,9,11,13,-1,15,17,19,21,23,-1,25,27,29,31,33,35,37,39,-1,41,43,45,47,-1,-1,49,-1,51,